/*
 * Copyright (c) 2025 EdgeImpulse Inc.
 *
 * Generated by Edge Impulse and licensed under the applicable Edge Impulse
 * Terms of Service. Community and Professional Terms of Service
 * (https://edgeimpulse.com/legal/terms-of-service) or Enterprise Terms of
 * Service (https://edgeimpulse.com/legal/enterprise-terms-of-service),
 * according to your product plan subscription (the “License”).
 *
 * This software, documentation and other associated files (collectively referred
 * to as the “Software”) is a single SDK variation generated by the Edge Impulse
 * platform and requires an active paid Edge Impulse subscription to use this
 * Software for any purpose.
 *
 * You may NOT use this Software unless you have an active Edge Impulse subscription
 * that meets the eligibility requirements for the applicable License, subject to
 * your full and continued compliance with the terms and conditions of the License,
 * including without limitation any usage restrictions under the applicable License.
 *
 * If you do not have an active Edge Impulse product plan subscription, or if use
 * of this Software exceeds the usage limitations of your Edge Impulse product plan
 * subscription, you are not permitted to use this Software and must immediately
 * delete and erase all copies of this Software within your control or possession.
 * Edge Impulse reserves all rights and remedies available to enforce its rights.
 *
 * Unless required by applicable law or agreed to in writing, the Software is
 * distributed on an "AS IS" BASIS, WITHOUT WARRANTIES OR CONDITIONS OF ANY KIND,
 * either express or implied. See the License for the specific language governing
 * permissions, disclaimers and limitations under the License.
 */
// Generated on: 14.03.2025 12:46:06

#include <stdio.h>
#include <stdlib.h>
#include "edge-impulse-sdk/tensorflow/lite/c/builtin_op_data.h"
#include "edge-impulse-sdk/tensorflow/lite/c/common.h"
#include "edge-impulse-sdk/tensorflow/lite/micro/micro_mutable_op_resolver.h"
#include "edge-impulse-sdk/porting/ei_classifier_porting.h"

#if EI_CLASSIFIER_PRINT_STATE
#if defined(__cplusplus) && EI_C_LINKAGE == 1
extern "C" {
    extern void ei_printf(const char *format, ...);
}
#else
extern void ei_printf(const char *format, ...);
#endif
#endif

#define STRINGIZE(x) #x
#define STRINGIZE_VALUE_OF(x) STRINGIZE(x)

#if defined (__GNUC__)  /* GNU compiler */
#define ALIGN(X) __attribute__((aligned(X)))
#define DEFINE_SECTION(x) __attribute__((section(x)))
#elif defined (_MSC_VER)
#define ALIGN(X) __declspec(align(X))
#elif defined (__TASKING__) /* TASKING Compiler */
#define ALIGN(X) __align(X)
#define DEFINE_SECTION(x) __attribute__((section(x)))
#elif defined (__ARMCC_VERSION) /* Arm Compiler */
#define ALIGN(X) __ALIGNED(x)
#define DEFINE_SECTION(x) __attribute__((section(x)))
#elif defined (__ICCARM__) /* IAR Compiler */
#define ALIGN(x) __attribute__((aligned(x)))
#define DEFINE_SECTION(x) __attribute__((section(x)))
#elif defined (__clang__) /* LLVM/Clang Compiler */
#define ALIGN(X) __ALIGNED(x)
#define DEFINE_SECTION(x) __attribute__((section(x)))
#endif

#if defined(EI_MODEL_SECTION) && (defined(__GNUC__) || defined(__clang__))
#define MODEL_SECTION(X) __attribute__((section(STRINGIZE_VALUE_OF(X))))
#else
#define MODEL_SECTION(X)
#endif

#ifndef EI_MAX_SCRATCH_BUFFER_COUNT
#ifndef CONFIG_IDF_TARGET_ESP32S3
#define EI_MAX_SCRATCH_BUFFER_COUNT 4
#else
#define EI_MAX_SCRATCH_BUFFER_COUNT 4
#endif // CONFIG_IDF_TARGET_ESP32S3
#endif // EI_MAX_SCRATCH_BUFFER_COUNT

#ifndef EI_MAX_OVERFLOW_BUFFER_COUNT
#define EI_MAX_OVERFLOW_BUFFER_COUNT 10
#endif // EI_MAX_OVERFLOW_BUFFER_COUNT

using namespace tflite;
using namespace tflite::ops;
using namespace tflite::ops::micro;

namespace {

#if defined(EI_CLASSIFIER_ALLOCATION_STATIC_HIMAX) || defined(EI_CLASSIFIER_ALLOCATION_STATIC_HIMAX_GNU)
constexpr int kTensorArenaSize = 906464;
#else
constexpr int kTensorArenaSize = 905440;
#endif

#if defined(EI_CLASSIFIER_ALLOCATION_STATIC)
#if defined (EI_TENSOR_ARENA_LOCATION)
uint8_t tensor_arena[kTensorArenaSize] ALIGN(16) DEFINE_SECTION(STRINGIZE_VALUE_OF(EI_TENSOR_ARENA_LOCATION));
#else
uint8_t tensor_arena[kTensorArenaSize] ALIGN(16);
#endif
#elif defined(EI_CLASSIFIER_ALLOCATION_STATIC_HIMAX)
#pragma Bss(".tensor_arena")
uint8_t tensor_arena[kTensorArenaSize] ALIGN(16);
#pragma Bss()
#elif defined(EI_CLASSIFIER_ALLOCATION_STATIC_HIMAX_GNU)
uint8_t tensor_arena[kTensorArenaSize] ALIGN(16) __attribute__((section(".tensor_arena")));
#else
#define EI_CLASSIFIER_ALLOCATION_HEAP 1
uint8_t* tensor_arena = NULL;
#endif

static uint8_t* tensor_boundary;
static uint8_t* current_location;

template <int SZ, class T> struct TfArray {
  int sz; T elem[SZ];
};

enum used_operators_e {
  OP_CONV_2D, OP_DEPTHWISE_CONV_2D, OP_PAD, OP_ADD, OP_SOFTMAX,  OP_LAST
};

struct TensorInfo_t { // subset of TfLiteTensor used for initialization from constant memory
  TfLiteAllocationType allocation_type;
  TfLiteType type;
  void* data;
  TfLiteIntArray* dims;
  size_t bytes;
};

typedef struct {
  TfLiteTensor tensor;
  int16_t index;
} TfLiteTensorWithIndex;

typedef struct {
  TfLiteEvalTensor tensor;
  int16_t index;
} TfLiteEvalTensorWithIndex;

TfLiteContext ctx{};
static const int MAX_TFL_TENSOR_COUNT = 4;
static TfLiteTensorWithIndex tflTensors[MAX_TFL_TENSOR_COUNT];
static const int MAX_TFL_EVAL_COUNT = 4;
static TfLiteEvalTensorWithIndex tflEvalTensors[MAX_TFL_EVAL_COUNT];
TfLiteRegistration registrations[OP_LAST];

namespace g0 {
const TfArray<4, int> tensor_dimension0 = { 4, { 1,96,96,3 } };
const MODEL_SECTION(EI_MODEL_SECTION) ALIGN(16) float tensor_data1[16] = { -1.40682053565979, 2.9734058380126953, -20.804872512817383, -0.14400458335876465, 2.6086504459381104, 10.85490608215332, 3.9804306030273438, 6.588719367980957, 2.17588210105896, 0.95031499862670898, 2.9941186904907227, 5.9406771659851074, -1.2384405136108398, 3.6830244064331055, 2.2398555278778076, -0.13350634276866913, };
const TfArray<1, int> tensor_dimension1 = { 1, { 16 } };
const MODEL_SECTION(EI_MODEL_SECTION) ALIGN(16) float tensor_data2[16] = { -0.30109995603561401, 2.6065578460693359, 4.0044136047363281, 3.503481388092041, 1.8542927503585815, 3.3142337799072266, 5.3316855430603027, 3.9071111679077148, -0.11604362726211548, 1.8406091928482056, 5.9287652969360352, 10.043172836303711, -0.32396247982978821, 6.4096536636352539, 2.1531155109405518, -0.41642889380455017, };
const TfArray<1, int> tensor_dimension2 = { 1, { 16 } };
const MODEL_SECTION(EI_MODEL_SECTION) ALIGN(16) float tensor_data3[48] = { 2.1070973873138428, 0.05840039998292923, 3.1542148590087891, 1.8573137521743774, 1.9870040416717529, 2.0822532176971436, 3.7990851402282715, -0.058187425136566162, -0.015403322875499725, -0.74142372608184814, 1.4292958974838257, 0.87146300077438354, 2.1905808448791504, -0.16218365728855133, 2.6265478134155273, 3.2566843032836914, -0.1309230625629425, -0.71235013008117676, -0.17695048451423645, 3.8955867290496826, 1.0879846811294556, -0.084163516759872437, -0.065566867589950562, 0.59228122234344482, 3.785228967666626, -0.58485358953475952, 0.19667373597621918, 1.2707867622375488, 1.1239218711853027, 2.9544172286987305, 2.9374265670776367, 2.3662011623382568, 0.71812540292739868, 3.2713563442230225, 0.13134455680847168, -1.1776043176651001, 1.5506505966186523, 1.2011268138885498, -0.36318647861480713, 3.4648633003234863, 2.8387470245361328, 2.1847126483917236, -0.18293280899524689, -0.86130404472351074, 5.0343689918518066, 0.057906441390514374, 2.797835111618042, 0.81221598386764526, };
const TfArray<1, int> tensor_dimension3 = { 1, { 48 } };
const MODEL_SECTION(EI_MODEL_SECTION) ALIGN(16) float tensor_data4[48] = { 5.9221186637878418, 3.9042942523956299, 10.064935684204102, 4.7737092971801758, 0.012102393433451653, 2.2989184856414795, 0.36629432439804077, 1.4449684619903564, 2.3450450897216797, 0.69967138767242432, 2.2622594833374023, 0.14518970251083374, -8.6290092468261719, -0.70510011911392212, 2.519073486328125, 0.0089783687144517899, -0.56034213304519653, 0.81357526779174805, 0.26347443461418152, 0.3746967613697052, -2.258720874786377, 0.81564235687255859, 5.6367020606994629, 1.139165997505188, -2.218641996383667, 2.7008228302001953, 1.1687175035476685, 1.2230995893478394, -0.76427268981933594, 0.8796088695526123, -0.41602259874343872, -11.282536506652832, 2.455939769744873, 0.95794534683227539, 2.5664546489715576, 0.30203515291213989, 1.004766583442688, -0.18659347295761108, 4.5298748016357422, -2.0212485790252686, 1.159415602684021, -4.6522912979125977, 0.29970246553421021, 0.94433951377868652, 0.045060455799102783, 5.7808046340942383, 0.18021509051322937, -2.2704641819000244, };
const TfArray<1, int> tensor_dimension4 = { 1, { 48 } };
const MODEL_SECTION(EI_MODEL_SECTION) ALIGN(16) float tensor_data5[48] = { 4.3180522918701172, 2.2668285369873047, 1.5487247705459595, 3.230536937713623, 2.2121260166168213, 5.0310983657836914, -1.9187259674072266, -0.26427209377288818, 0.54645144939422607, 1.3991537094116211, 2.1775264739990234, 0.19372914731502533, 0.95620459318161011, -0.46045172214508057, 0.41802915930747986, -3.6534483432769775, 1.633291482925415, 4.2351827621459961, -0.48176828026771545, 2.7181124687194824, 1.2150189876556396, 0.99033254384994507, 3.9624669551849365, -0.49596330523490906, 1.2211774587631226, 1.1680353879928589, 4.0690999031066895, 3.6724543571472168, -0.045313425362110138, -2.5995938777923584, 0.083623684942722321, 0.84002780914306641, -1.9649521112442017, 2.2142207622528076, 0.99978029727935791, 1.8181164264678955, 3.7122421264648438, 1.3770465850830078, 2.337677001953125, 4.5380420684814453, -0.61144012212753296, 2.8635916709899902, 0.50102877616882324, 1.5159730911254883, 1.2003018856048584, 1.1201183795928955, -1.1926810741424561, 2.6783251762390137, };
const TfArray<1, int> tensor_dimension5 = { 1, { 48 } };
const MODEL_SECTION(EI_MODEL_SECTION) ALIGN(16) float tensor_data6[48] = { -16.931501388549805, -0.098703749477863312, 1.7187389135360718, 0.25988090038299561, 0.9560583233833313, -0.40950417518615723, 1.1314456462860107, 3.4568142890930176, 0.31033957004547119, 4.6470222473144531, -0.23573803901672363, 4.2606816291809082, -2.0244002342224121, -0.19425281882286072, 2.5100147724151611, 1.4821319580078125, 0.13045056164264679, 4.1654043197631836, 2.2382395267486572, 1.9399908781051636, 0.13527785241603851, -0.048251725733280182, -0.13063710927963257, 2.0027604103088379, -1.2108947038650513, 3.7995667457580566, 32.846202850341797, 3.4165582656860352, 0.92247498035430908, 0.74960541725158691, -0.17254170775413513, 0.30357971787452698, 0.88493144512176514, 2.8678677082061768, -1.4919183254241943, 2.430415153503418, -4.2298793792724609, 2.7280116081237793, -5.9509978294372559, 2.4577121734619141, 3.4010319709777832, 2.038578987121582, 1.6621277332305908, -0.32413902878761292, 2.3815097808837891, 0.39548304677009583, 0.2034517377614975, -0.010198744013905525, };
const TfArray<1, int> tensor_dimension6 = { 1, { 48 } };
const MODEL_SECTION(EI_MODEL_SECTION) ALIGN(16) float tensor_data7[48] = { 0.2773745059967041, 0.62747198343276978, 0.51960581541061401, 0.11754621565341949, 2.1994438171386719, 4.0473885536193848, 1.0848115682601929, -0.092197977006435394, -0.3119981586933136, -0.46752560138702393, 1.0002347230911255, 0.3351515531539917, 1.2582840919494629, 0.75684195756912231, 3.5991387367248535, 1.2317867279052734, 0.45397663116455078, -0.38840129971504211, -0.046085752546787262, 0.86220633983612061, -0.65183395147323608, 2.4838128089904785, 3.6927766799926758, 1.5645449161529541, 1.5703215599060059, 0.10525025427341461, 6.9652485847473145, 1.8959736824035645, 1.7287740707397461, -0.23358087241649628, 2.6528773307800293, 1.227592945098877, 0.36292141675949097, -0.039320964366197586, 3.6926898956298828, 1.7708247900009155, -1.3447622060775757, 0.060819163918495178, -0.20071098208427429, 1.8195403814315796, 0.14840447902679443, -0.11835070699453354, -0.25103870034217834, 0.0093390978872776031, 1.9280948638916016, 1.3720756769180298, 0.22111397981643677, 1.175442099571228, };
const TfArray<1, int> tensor_dimension7 = { 1, { 48 } };
const MODEL_SECTION(EI_MODEL_SECTION) ALIGN(16) float tensor_data8[48] = { 0.41092312335968018, 1.1052953004837036, -0.24327796697616577, 2.5240569114685059, 0.81094717979431152, 8.7941389083862305, -0.39993748068809509, 5.560063362121582, 0.38482484221458435, 1.2056477069854736, 1.3227040767669678, -0.60664510726928711, 0.26449465751647949, 0.89879429340362549, -0.18491265177726746, -0.61623495817184448, -0.0068312119692564011, 0.16775780916213989, 0.34196668863296509, -0.28824421763420105, 0.055647403001785278, -0.29829567670822144, 0.0083759129047393799, -3.9423274993896484, -0.44274961948394775, 4.264960765838623, 4.3783454895019531, 7.2582111358642578, 0.44846084713935852, -0.010525107383728027, -0.36364102363586426, -0.095982372760772705, 0.95254969596862793, 0.10772103071212769, 1.035228967666626, 0.46973717212677002, 5.8169064521789551, 0.31476062536239624, 5.5413036346435547, 0.12401272356510162, 0.17611497640609741, 5.6825065612792969, -0.14085441827774048, 0.53326535224914551, 1.2191092967987061, -0.028443485498428345, 0.50421112775802612, 1.3907558917999268, };
const TfArray<1, int> tensor_dimension8 = { 1, { 48 } };
const MODEL_SECTION(EI_MODEL_SECTION) ALIGN(16) float tensor_data9[96] = { 2.6141777038574219, 0.30493402481079102, 1.3615962266921997, -0.54140585660934448, 1.5520423650741577, 0.94628739356994629, 3.1774709224700928, 3.5170989036560059, -0.46482816338539124, 1.8032751083374023, 1.3579628467559814, 0.86573725938796997, 2.6630311012268066, 4.8487744331359863, -0.11393480747938156, -0.67442131042480469, 2.1772336959838867, 2.3373579978942871, 0.41162556409835815, -0.14767159521579742, -0.224805548787117, 2.4530353546142578, 1.4698346853256226, 0.82362902164459229, 1.7538727521896362, 2.1063692569732666, 1.4250116348266602, 0.92428964376449585, 0.054703883826732635, 0.050634074956178665, 1.4567904472351074, 1.9233759641647339, 1.9746265411376953, 1.0569173097610474, 1.6443561315536499, -0.26613739132881165, 2.2796101570129395, 2.5650367736816406, 0.4278508722782135, 0.90650629997253418, 0.48839572072029114, 1.8856503963470459, 2.1927499771118164, 0.73604917526245117, 1.1300126314163208, 3.3295333385467529, 2.7705492973327637, 1.5003904104232788, 1.543266773223877, 0.91211313009262085, 0.10960274934768677, -0.66424453258514404, 2.7155911922454834, 1.5560805797576904, 2.3516077995300293, 1.8023321628570557, -0.061872426420450211, 1.7802350521087646, 0.79388254880905151, 1.6861343383789062, 1.7333422899246216, 1.4174299240112305, 1.0112037658691406, 2.7505302429199219, 1.0993285179138184, 1.0632834434509277, 1.9144077301025391, -0.28365468978881836, 2.7214500904083252, 1.1737648248672485, 2.0344038009643555, -0.45049068331718445, -0.33399099111557007, 1.2668768167495728, 0.3901323676109314, 1.2770687341690063, 2.3580060005187988, 4.4673566818237305, 1.662878155708313, -1.2181421518325806, 1.1004198789596558, -2.0401608943939209, -0.31723394989967346, 0.28081253170967102, 1.6120455265045166, 1.5829273462295532, 1.6513580083847046, 1.3496828079223633, 1.6787149906158447, 1.5262612104415894, 1.3946162462234497, 1.6967538595199585, 2.2089333534240723, 2.7302203178405762, -2.9259710311889648, 3.2896156311035156, };
const TfArray<1, int> tensor_dimension9 = { 1, { 96 } };
const MODEL_SECTION(EI_MODEL_SECTION) ALIGN(16) float tensor_data10[96] = { 1.7034921646118164, -1.2036145925521851, 0.75192970037460327, 2.1809589862823486, -0.35445228219032288, -0.79220718145370483, -3.5241169929504395, 0.18769773840904236, -0.33689498901367188, 0.18147502839565277, 0.55785644054412842, -0.64682978391647339, 0.13249334692955017, -2.0726714134216309, 1.0506324768066406, -0.77861559391021729, -0.09463375061750412, 5.2919564247131348, 1.4892351627349854, 0.39726018905639648, 0.21938744187355042, -0.40886896848678589, 0.13231658935546875, 0.22437822818756104, 3.6426019668579102, -0.13667082786560059, -0.21748828887939453, -0.67497622966766357, -0.62847739458084106, -0.89109277725219727, 0.90002185106277466, -1.6527364253997803, -0.022724959999322891, -0.30059930682182312, -0.28809094429016113, 2.3024778366088867, 0.14915043115615845, -0.40842956304550171, 1.3114646673202515, 0.030750855803489685, 0.26046976447105408, 0.68622678518295288, -3.5790057182312012, -1.4513412714004517, -1.4454751014709473, 3.409165620803833, 0.045544803142547607, 3.4925661087036133, 2.6615362167358398, -2.3072359561920166, -0.065291851758956909, 1.439517617225647, 1.4057252407073975, -0.18243812024593353, -1.5541936159133911, 0.30943447351455688, -4.2280192375183105, 0.51744014024734497, 0.18494679033756256, -0.58226233720779419, -0.30421185493469238, -0.13774199783802032, -3.1633949279785156, -0.18322601914405823, 0.14905816316604614, 2.8806717395782471, 1.9834837913513184, 1.6171122789382935, -4.3712854385375977, 0.03907458484172821, -1.4124941825866699, -0.15483200550079346, 5.7799873352050781, 2.1716032028198242, 0.21805281937122345, 0.20290660858154297, 8.8209295272827148, 1.7465648651123047, -0.20067486166954041, -1.9105558395385742, -0.06757885217666626, -2.1030352115631104, 0.036320716142654419, -0.67581748962402344, 0.12970571219921112, 0.1002347469329834, 0.40977829694747925, -0.26465615630149841, 0.057332277297973633, -0.53948450088500977, -0.033594749867916107, 0.058263879269361496, 0.1324554979801178, 0.73022991418838501, 1.2248140573501587, 3.8081488609313965, };
const TfArray<1, int> tensor_dimension10 = { 1, { 96 } };
const MODEL_SECTION(EI_MODEL_SECTION) ALIGN(16) float tensor_data11[96] = { 0.36846095323562622, 1.5085607767105103, 1.8789739608764648, 2.3476657867431641, 2.9915356636047363, -1.0444959402084351, -0.83985114097595215, 1.6064538955688477, 2.303743839263916, -1.3373425006866455, 2.6873738765716553, 0.81136995553970337, 1.2569398880004883, 2.2682754993438721, 2.3806006908416748, 0.50451046228408813, 0.48422989249229431, 1.2237341403961182, 2.237804651260376, 1.1180044412612915, -0.096101611852645874, 0.22002391517162323, 1.9697755575180054, -0.5964398980140686, 2.5178453922271729, -0.024685496464371681, 2.2704646587371826, 1.4209352731704712, 1.6408015489578247, 3.5660061836242676, 2.7993218898773193, 2.4798080921173096, 1.650450587272644, -0.13646484911441803, 1.9872409105300903, 0.58291459083557129, 0.50396108627319336, 1.4594348669052124, 2.699749231338501, -0.55738294124603271, 1.8073215484619141, 1.5352476835250854, 2.6703951358795166, -1.0238640308380127, 3.2841854095458984, 1.4933892488479614, 1.7025855779647827, 2.7085623741149902, 4.1342086791992188, 2.1262121200561523, -0.074568070471286774, 1.7198358774185181, -1.0626323223114014, -0.066344797611236572, -1.0245703458786011, 1.1090821027755737, -0.092407606542110443, 1.8709477186203003, 2.0550863742828369, 1.4111073017120361, 1.6239458322525024, 1.4110896587371826, 1.4899802207946777, 0.97070890665054321, 2.4649543762207031, 1.9480592012405396, 1.2733312845230103, -1.3307061195373535, 1.6500885486602783, -0.72670292854309082, 1.1297202110290527, 1.5190356969833374, 2.1023678779602051, 1.0175825357437134, -1.5372685194015503, -1.3065228462219238, 1.69223952293396, 0.047660544514656067, 0.8057292103767395, -0.39891666173934937, 2.01737380027771, 1.6683319807052612, 0.87493360042572021, 1.9690295457839966, 1.1498606204986572, 0.032393194735050201, 2.3279290199279785, 3.8922688961029053, 1.3969635963439941, 2.2470049858093262, 1.2935960292816162, -0.063586011528968811, 1.4546211957931519, 1.5591655969619751, 1.1226694583892822, 1.7067079544067383, };
const TfArray<1, int> tensor_dimension11 = { 1, { 96 } };
const MODEL_SECTION(EI_MODEL_SECTION) ALIGN(16) float tensor_data12[96] = { 2.3799479007720947, 5.779019832611084, -0.0041775107383728027, 0.038159385323524475, 3.5918948650360107, -0.78114438056945801, 0.0076791048049926758, -0.084835782647132874, 1.1228165626525879, 2.5029227733612061, -0.94800978899002075, -0.028931811451911926, 0.20721028745174408, 0.4339979887008667, 1.8982932567596436, -1.2476556301116943, -0.98154568672180176, -0.22457879781723022, -0.13482034206390381, 1.1876997947692871, -0.85133671760559082, 0.92629867792129517, -0.38732782006263733, 0.77903330326080322, 1.2049660682678223, -0.016382724046707153, -1.0582555532455444, 3.1208517551422119, 1.1447970867156982, -8.8064613342285156, 1.1007575988769531, 5.9821062088012695, 2.6925888061523438, -1.6793472766876221, 0.55168682336807251, -0.022237777709960938, -0.47776314616203308, -0.1122165322303772, 1.2109972238540649, -0.71275007724761963, -1.1548731327056885, 0.00076514482498168945, -2.1147396564483643, -0.049142584204673767, 12.091800689697266, -0.31169074773788452, 0.97680246829986572, -0.31393104791641235, -10.19420051574707, 0.018930867314338684, 0.0059638246893882751, -0.03945489227771759, -0.52227234840393066, 2.8058826923370361, -0.83299136161804199, 1.718698263168335, 2.745215892791748, -0.10548503696918488, 1.7975177764892578, -0.11118282377719879, -3.0236639976501465, -0.23716400563716888, 0.17768923938274384, -0.11287657171487808, -0.32109582424163818, 1.8849890232086182, -0.21882176399230957, -2.1518192291259766, -0.72818845510482788, 0.37650221586227417, 0.15483099222183228, -0.39844834804534912, 0.60650819540023804, 0.077089101076126099, -0.63101786375045776, -1.8910948038101196, -0.11295214295387268, -0.1649090051651001, 2.6155612468719482, -1.3182609081268311, -1.95015549659729, -2.5371720790863037, -0.04680904746055603, 0.2130984365940094, 3.4264674186706543, -1.3068170547485352, -0.83492457866668701, -13.312112808227539, -1.8971253633499146, 1.2222181558609009, -0.94470155239105225, 1.1906580924987793, -0.12842357158660889, -0.41792640089988708, -0.91426658630371094, 0.01855170726776123, };
const TfArray<1, int> tensor_dimension12 = { 1, { 96 } };
const MODEL_SECTION(EI_MODEL_SECTION) ALIGN(16) float tensor_data13[96] = { -0.61156457662582397, 1.5638706684112549, 2.3939857482910156, 0.89642053842544556, -1.0155445337295532, -1.4762927293777466, 3.3045837879180908, 0.67525571584701538, 0.6076052188873291, -0.65234208106994629, 2.0015661716461182, -0.054227747023105621, -2.5658581256866455, 2.8198597431182861, 3.0884299278259277, 1.1621432304382324, 1.8867387771606445, 1.4436570405960083, -1.948588490486145, -1.7419301271438599, 0.58768528699874878, 2.7203822135925293, 3.0576639175415039, 1.666683554649353, 0.19882692396640778, 0.48948782682418823, 2.9465291500091553, 1.1208779811859131, 0.51906442642211914, -1.9449506998062134, 1.4767426252365112, -0.75950944423675537, -0.055139768868684769, 1.1631953716278076, 0.039955481886863708, 0.25096583366394043, 1.9174212217330933, 1.0673309564590454, -0.61860507726669312, 1.7390695810317993, 1.2760239839553833, 2.6068344116210938, 1.5307127237319946, 2.3155808448791504, 1.9146677255630493, 1.0070433616638184, 0.50708025693893433, 2.1671516895294189, 1.3484572172164917, -1.3358739614486694, -1.5782718658447266, 0.097817584872245789, -0.18059155344963074, -0.31869295239448547, 0.77632248401641846, -0.016507837921380997, 0.17124971747398376, -0.25750800967216492, -1.5485798120498657, 1.8443442583084106, -0.75707024335861206, 0.64196205139160156, -0.28747323155403137, -0.79414939880371094, -1.8854124546051025, 1.9162453413009644, 2.1890189647674561, 0.40353387594223022, -1.1815431118011475, 0.35696738958358765, 0.48031750321388245, 0.54412907361984253, 1.329552173614502, -0.43719160556793213, 0.14983619749546051, 2.1560721397399902, -0.15339991450309753, 1.8656747341156006, 1.8155108690261841, -0.1824154257774353, 1.449738621711731, 0.32225373387336731, -0.078412987291812897, 0.23978340625762939, 1.8157311677932739, 2.3706812858581543, 2.3412292003631592, 0.27757740020751953, 0.699787437915802, 2.0608742237091064, -0.10272403061389923, -1.9518876075744629, 0.21141307055950165, -1.0391792058944702, -0.63205951452255249, -0.41273808479309082, };
const TfArray<1, int> tensor_dimension13 = { 1, { 96 } };
const MODEL_SECTION(EI_MODEL_SECTION) ALIGN(16) float tensor_data14[32] = { 0.0050048502162098885, 0.017533926293253899, 0.0076259276829659939, -0.0010728627676144242, -0.0064964876510202885, -0.023801632225513458, -0.001630028709769249, -0.0050877435132861137, 0.00028934891452081501, 0.020757578313350677, -0.0053987298160791397, -0.0056795109994709492, -0.024986382573843002, 0.0087403161451220512, -0.0080703794956207275, -0.02403947152197361, -0.0081465411931276321, 0.0095476182177662849, 0.015823576599359512, -0.0038448988925665617, -0.037490837275981903, 0.014052470214664936, 0.046516787260770798, -0.0095384586602449417, -0.010038377717137337, 0.0032975864596664906, 0.0059184138663113117, 0.009066644124686718, 0.15894816815853119, -0.011414837092161179, 0.035973988473415375, 0.0029991148039698601, };
const TfArray<1, int> tensor_dimension14 = { 1, { 32 } };
const MODEL_SECTION(EI_MODEL_SECTION) ALIGN(16) float tensor_data15[1*3*3*16] = { 
  /* [0][0][][] */ -8.5695571899414062,0.084499053657054901,-0.2557799220085144,-1.7757551670074463,0.27653348445892334,-0.092685379087924957,1.2235614061355591,-0.17151030898094177,-0.099459953606128693,-0.045457601547241211,-0.067695826292037964,0.87702226638793945,-3.9252877235412598,0.044375628232955933,0.47846880555152893,-12.109872817993164, 4.0267438888549805,0.11320915073156357,-0.3950992226600647,1.7801063060760498,0.9102637767791748,-0.17615428566932678,1.9533121585845947,-0.28688716888427734,-0.093795128166675568,1.7988578081130981,-1.0781559944152832,1.5529466867446899,-3.2424850463867188,0.050983089953660965,1.1303926706314087,-4.0818142890930176, 1.9072631597518921,-0.11315679550170898,0.28107678890228271,-0.029555246233940125,-0.52078032493591309,0.093857340514659882,-1.4675688743591309,0.17390280961990356,-0.10549426078796387,-0.38826164603233337,0.032821547240018845,-0.47193261981010437,1.895155668258667,0.0095392102375626564,-0.9098590612411499,-4.7821164131164551, 
  /* [0][1][][] */ -10.087335586547852,0.58751100301742554,-0.069872438907623291,0.186990886926651,-0.31515026092529297,0.021759357303380966,-0.44983509182929993,0.031442359089851379,-0.030523210763931274,0.0053759398870170116,0.024691173806786537,-3.3044393062591553,-1.515388011932373,0.085488379001617432,-0.26768556237220764,-2.3038740158081055, -6.2179684638977051,-0.19450667500495911,-0.17887768149375916,-0.20567966997623444,-0.055659860372543335,-0.035427495837211609,0.11292992532253265,-0.062290307134389877,-0.11989626288414001,-1.2634204626083374,0.17471736669540405,-0.36769849061965942,-3.2171955108642578,-1.2993158102035522,0.0035872841253876686,3.8089182376861572, 1.1119179725646973,0.0036170138046145439,0.20082096755504608,0.027996497228741646,0.017235444858670235,0.0471683070063591,-0.39984250068664551,0.074203111231327057,-0.14149026572704315,0.090549059212207794,-0.013735606335103512,0.047112919390201569,-0.66196262836456299,0.11540695279836655,-0.038202393800020218,7.1796369552612305, 
  /* [0][2][][] */ -9.1553964614868164,-0.33858305215835571,0.21365657448768616,0.028780482709407806,-0.046930193901062012,0.054208710789680481,-0.61380660533905029,0.11779660731554031,-0.08461327850818634,0.0024917898699641228,-0.0034504863433539867,0.1266060471534729,1.2398595809936523,0.017068881541490555,-0.2435653954744339,3.7542333602905273, 1.8149527311325073,-0.021527722477912903,0.096972592175006866,-0.024380439892411232,-0.19498461484909058,0.05585392564535141,-0.53618115186691284,0.046719931066036224,-0.13893522322177887,-0.18682202696800232,-0.002703777514398098,2.5392282009124756,-1.784921407699585,-0.0029001366347074509,-0.25739946961402893,-18.429813385009766, 1.6327332258224487,-0.034697353839874268,0.058953266590833664,-0.0018973561236634851,0.027847200632095337,0.020150559023022652,0.12967802584171295,0.049320749938488007,-0.12811620533466339,0.061031345278024673,-0.0061272736638784409,-3.847346305847168,3.3074154853820801,0.02347235195338726,0.1479143500328064,-21.090656280517578, 
};
const TfArray<4, int> tensor_dimension15 = { 4, { 1,3,3,16 } };
const MODEL_SECTION(EI_MODEL_SECTION) ALIGN(16) float tensor_data16[8] = { -1.0644650459289551, -102.41609191894531, -14.288859367370605, -14.60051155090332, -38.041721343994141, -0.8369903564453125, -37.598819732666016, -28.663434982299805, };
const TfArray<1, int> tensor_dimension16 = { 1, { 8 } };
const MODEL_SECTION(EI_MODEL_SECTION) ALIGN(16) float tensor_data17[1*3*3*48] = { 
  /* [0][0][][] */ -0.13032364845275879,-0.071186400949954987,-0.051878549158573151,-0.086492761969566345,0.049025766551494598,-0.28331157565116882,-0.48061105608940125,-0.13703422248363495,-0.095843061804771423,-0.079698197543621063,0.025241963565349579,0.097955033183097839,0.2691599428653717,-16.692045211791992,0.46226242184638977,-0.36247867345809937,-13.208820343017578,-0.096759594976902008,0.1430339515209198,-0.044344708323478699,-0.010522886179387569,-0.49161699414253235,-0.54790008068084717,-0.12230580300092697,-0.14746993780136108,-0.81215691566467285,-0.10056581348180771,-0.045106835663318634,1.0885213613510132,0.040400821715593338,0.18608944118022919,0.26716822385787964,-1.4778048992156982,-0.038807462900876999,-0.028700930997729301,0.23206347227096558,0.011951029300689697,0.73632204532623291,-0.1803499162197113,0.28182488679885864,-0.21542151272296906,-0.10147479921579361,0.59423339366912842,-0.050498366355895996,-0.029842866584658623,-0.12570975720882416,-0.90862762928009033,0.48737075924873352, 0.23161777853965759,0.036941938102245331,-0.19611245393753052,-0.14190897345542908,0.40606296062469482,-0.90904384851455688,-0.77124446630477905,-0.16427500545978546,0.22448085248470306,-0.11605851352214813,-0.39787235856056213,0.16333943605422974,0.30972602963447571,-19.226551055908203,-0.0020712942350655794,0.54113918542861938,-6.057316780090332,-0.1279606819152832,0.21964859962463379,0.043592400848865509,0.068489223718643188,-0.8034052848815918,-0.62719589471817017,-0.11185143887996674,-0.015912359580397606,-0.80289274454116821,-0.18710377812385559,-0.093782097101211548,-0.81677472591400146,0.053845569491386414,-0.10918144881725311,0.5000489354133606,0.34104505181312561,-0.055361397564411163,0.22677277028560638,0.37855374813079834,0.0085652824491262436,1.1275757551193237,-0.1336369514465332,0.45292589068412781,-0.35778084397315979,0.044617917388677597,0.70180249214172363,-0.060889784246683121,0.0038836933672428131,-0.079804487526416779,-1.3244342803955078,0.42990550398826599, -0.095711842179298401,0.12787589430809021,0.042433734983205795,-0.027058307081460953,-0.45733961462974548,-0.78503710031509399,-0.35786569118499756,-0.034665890038013458,0.31904444098472595,-0.013777597807347775,-0.43430134654045105,0.057193290442228317,0.063525423407554626,-16.737319946289062,-0.40367972850799561,-0.092411361634731293,-14.83458137512207,-0.028164226561784744,0.10753089189529419,0.077551878988742828,-0.086664855480194092,-0.53389036655426025,-0.17904675006866455,-0.039763852953910828,-0.046295139938592911,-0.19376552104949951,-0.09044039249420166,-0.035447031259536743,-0.16258937120437622,0.046903900802135468,-0.045185402035713196,0.097420118749141693,1.2458419799804688,-0.03789159283041954,0.24850980937480927,0.13030478358268738,0.0093244500458240509,0.55016034841537476,-0.0073436521925032139,0.059746105223894119,-0.21975719928741455,0.025328854098916054,0.036827020347118378,-0.038034602999687195,-0.14001746475696564,0.017845433205366135,-0.57970970869064331,0.059410922229290009, 
  /* [0][1][][] */ -0.26165270805358887,-0.38257017731666565,-0.30990898609161377,-0.21093037724494934,-0.071408465504646301,0.39299243688583374,0.59021633863449097,-0.21372270584106445,-0.088860377669334412,-0.17049811780452728,-0.079684227705001831,0.16973820328712463,0.70931267738342285,-15.169624328613281,0.11089298129081726,-0.83550524711608887,-14.175686836242676,-0.109670490026474,0.34294405579566956,-0.50769346952438354,0.23336407542228699,-0.61867827177047729,-0.51068592071533203,-0.1983318030834198,0.17570638656616211,-0.77937322854995728,-0.12221395224332809,-0.082843057811260223,1.942107081413269,-0.15395130217075348,0.24807339906692505,0.79865491390228271,-0.52007532119750977,-0.036912068724632263,-0.053330190479755402,0.35909426212310791,-0.023166259750723839,-1.1943598985671997,-0.15050660073757172,0.32447704672813416,0.11933093518018723,0.44907119870185852,0.59305530786514282,-0.050988961011171341,-0.7200167179107666,-0.42651495337486267,0.8638032078742981,0.53764802217483521, 0.39095330238342285,-0.24811194837093353,-0.88226759433746338,-0.60053402185440063,0.90232700109481812,0.29800823330879211,0.55967819690704346,-0.25957480072975159,0.37537583708763123,-0.19592675566673279,-0.39255037903785706,0.1924571692943573,1.0138422250747681,-3.3925542831420898,-0.024024615064263344,1.1075823307037354,-6.9975090026855469,-0.14847190678119659,0.48203331232070923,-0.84018248319625854,0.74050724506378174,-0.908966064453125,-0.59208321571350098,-0.18723306059837341,0.54050749540328979,-0.62201130390167236,-0.19484159350395203,-0.28615251183509827,-1.819432258605957,-0.32811000943183899,-0.13581207394599915,1.1649355888366699,0.32484903931617737,-0.049656733870506287,0.44931745529174805,0.56380444765090942,-0.045867893844842911,-1.960904598236084,-0.1390843540430069,0.3222421407699585,0.17331567406654358,0.95112854242324829,0.72249001264572144,-0.056245163083076477,-0.8885536789894104,-0.45058682560920715,1.3136583566665649,0.57615745067596436, -0.16008846461772919,0.091575115919113159,-0.42382127046585083,-0.39727026224136353,-0.84454566240310669,-0.16567802429199219,0.18158991634845734,-0.075002908706665039,0.46664300560951233,-0.033272180706262589,-0.27033156156539917,0.053030963987112045,0.43759167194366455,-16.399894714355469,-0.099517218768596649,-0.37462505698204041,-4.3217730522155762,-0.03403327614068985,0.2088964581489563,-0.47002539038658142,0.32642558217048645,-0.57199239730834961,-0.1929972767829895,-0.038821693509817123,0.19764755666255951,-0.040046129375696182,-0.069812774658203125,-0.13924571871757507,0.22473685443401337,-0.22894585132598877,-0.068153828382492065,0.18693231046199799,0.33359384536743164,-0.043123252689838409,0.42210695147514343,0.099397070705890656,-0.023696919903159142,-0.96152800321578979,0.0029504350386559963,-0.050841547548770905,0.10680018365383148,0.40286841988563538,0.060058075934648514,-0.036439701914787292,-0.45815658569335938,-0.13685613870620728,0.684326171875,0.15365120768547058, 
  /* [0][2][][] */ -0.18644091486930847,-0.31916552782058716,-0.23828667402267456,-0.15715762972831726,0.00057375046890228987,0.24611619114875793,-0.031453046947717667,-0.072624504566192627,-0.13038265705108643,-0.090567059814929962,-0.060551252216100693,0.090652041137218475,0.60270106792449951,-29.910606384277344,-0.51673489809036255,-0.54860913753509521,-5.0532617568969727,-0.024181986227631569,0.24742394685745239,0.49736976623535156,0.29868429899215698,-0.23199126124382019,-0.063802391290664673,-0.095930077135562897,0.14034417271614075,-0.36731043457984924,-0.016485035419464111,-0.13469226658344269,1.1508522033691406,0.070583172142505646,0.14822305738925934,0.58599609136581421,1.2683011293411255,-0.011268357746303082,-0.13716499507427216,-0.036528777331113815,-0.063891060650348663,0.54569876194000244,-0.024766199290752411,0.11055433005094528,0.028872240334749222,0.2757912278175354,0.10075672715902328,-0.026625124737620354,0.74437469244003296,-0.28441160917282104,0.041504047811031342,0.14285850524902344, 0.26883450150489807,-0.22200840711593628,-0.6143563985824585,-0.39291387796401978,0.58018022775650024,0.13486295938491821,0.036210238933563232,-0.09806959331035614,0.17778009176254272,-0.10890258103609085,-0.11521280556917191,0.084090597927570343,0.65748703479766846,-6.0131850242614746,0.062001612037420273,0.80751031637191772,-2.8593630790710449,-0.038766033947467804,0.29621365666389465,0.77801060676574707,0.47591346502304077,-0.3762739896774292,-0.091777622699737549,-0.091735489666461945,0.40217992663383484,-0.43117964267730713,-0.029071906581521034,-0.22817748785018921,-0.76844215393066406,0.09865233302116394,-0.086886055767536163,1.0081496238708496,-0.20480816066265106,-0.021872779354453087,0.23602558672428131,0.046630688011646271,-0.085314713418483734,0.79151326417922974,-0.024269690737128258,-0.0028995005413889885,0.031486622989177704,0.23546773195266724,0.0951119065284729,-0.03304203599691391,0.99044042825698853,-0.35743880271911621,-0.12638175487518311,0.18684956431388855, -0.085266634821891785,0.085928730666637421,-0.28720557689666748,-0.16664893925189972,-0.55657589435577393,-0.13928908109664917,0.12768189609050751,-0.023321092128753662,0.21693409979343414,-0.0096830157563090324,-0.047834329307079315,0.047842983156442642,0.24529634416103363,-10.07728099822998,0.44979697465896606,-0.24510225653648376,-10.878596305847168,-0.0093144532293081284,0.11884178221225739,0.39304012060165405,0.42581963539123535,-0.19901543855667114,-0.0072479415684938431,-0.0069359363988041878,0.17965282499790192,0.005282216239720583,-0.0052047399803996086,-0.14052838087081909,-0.22354812920093536,0.070971362292766571,-0.038293980062007904,0.36444032192230225,-1.0555222034454346,-0.019022455438971519,0.2380499392747879,0.021921493113040924,-0.013933556154370308,0.34403401613235474,0.038245093077421188,-0.13609024882316589,0.023499658331274986,0.25813710689544678,-0.018953852355480194,-0.0079571967944502831,0.48514673113822937,-0.12796926498413086,-0.047983735799789429,0.079004392027854919, 
};
const TfArray<4, int> tensor_dimension17 = { 4, { 1,3,3,48 } };
const MODEL_SECTION(EI_MODEL_SECTION) ALIGN(16) float tensor_data18[8] = { -10.532139778137207, -15.303594589233398, 24.84770393371582, 25.092355728149414, 5.6247148513793945, -2.1550273895263672, 27.579912185668945, 6.1746807098388672, };
const TfArray<1, int> tensor_dimension18 = { 1, { 8 } };
const MODEL_SECTION(EI_MODEL_SECTION) ALIGN(16) float tensor_data19[1*3*3*48] = { 
  /* [0][0][][] */ 0.053546734154224396,-0.033877957612276077,0.15086992084980011,1.5238683223724365,0.026684420183300972,0.35282328724861145,-0.027908643707633018,0.13341841101646423,0.11934264749288559,0.064806662499904633,0.029042186215519905,0.071437284350395203,-0.12439347803592682,-0.065931767225265503,-0.1372816413640976,0.30592086911201477,-0.014995288103818893,0.11437908560037613,-0.070098124444484711,-0.75197845697402954,-0.071215108036994934,-0.23696860671043396,1.4229235649108887,-0.089473463594913483,-0.010594344697892666,0.039628989994525909,-0.17152981460094452,0.038312207907438278,-0.078210048377513885,2.8145112991333008,0.069580048322677612,1.1585015058517456,1.3728741407394409,0.20412717759609222,0.36280319094657898,-0.19629819691181183,0.006718943826854229,0.15205751359462738,-0.015916302800178528,0.0022698261309415102,0.20631252229213715,-0.2104831337928772,-0.046408206224441528,-0.058274608105421066,0.10052550584077835,0.013707748614251614,-0.19347737729549408,-0.048948533833026886, 1.7296929359436035,0.11576656997203827,0.10908087342977524,-1.7974859476089478,0.18954306840896606,0.38747760653495789,0.36686375737190247,0.047519858926534653,0.98693948984146118,0.90774142742156982,0.024156384170055389,0.36256322264671326,-0.68897163867950439,-0.19589906930923462,0.01344769075512886,0.29086124897003174,1.4114396572113037,-0.71394497156143188,-0.19337594509124756,-0.37462657690048218,-1.0091567039489746,0.29289421439170837,-1.2131305932998657,0.12356023490428925,0.10196516662836075,0.48027458786964417,-0.96347701549530029,-0.38256242871284485,0.33061009645462036,14.640072822570801,0.044737678021192551,-1.4666622877120972,0.32026028633117676,-0.43902856111526489,1.1982290744781494,0.068389803171157837,-0.71335560083389282,-0.20885397493839264,-0.058721862733364105,0.10188088566064835,-0.9160226583480835,-0.29950222373008728,-0.17961634695529938,0.027366461232304573,-0.20028142631053925,-0.037789102643728256,-4.0738911628723145,0.10098297894001007, -0.41617879271507263,-0.030986107885837555,0.053488343954086304,0.17492716014385223,-0.008116462267935276,0.28847280144691467,0.15545099973678589,0.080742143094539642,0.225923091173172,0.068251587450504303,-0.050091244280338287,0.26210537552833557,-0.20789709687232971,-0.029139481484889984,0.046701077371835709,0.12769290804862976,-1.1442172527313232,0.36683666706085205,-0.013282234780490398,0.50065755844116211,-0.3216264545917511,-0.10947178304195404,-0.19233210384845734,-0.059584945440292358,-0.025643989443778992,-0.4120846688747406,-0.086941435933113098,0.13735190033912659,-0.24192053079605103,3.4638955593109131,0.015780944377183914,-0.25476014614105225,0.53854161500930786,-0.1659080982208252,0.16308790445327759,-0.1259448379278183,-0.0021792177576571703,0.20949302613735199,0.4650389552116394,-0.011056186631321907,0.57224321365356445,0.10361713916063309,-0.09481540322303772,0.081347838044166565,-0.24650076031684875,0.014826417900621891,-0.050368506461381912,-0.029846983030438423, 
  /* [0][1][][] */ 1.7176272869110107,0.080086089670658112,0.0031322806607931852,-1.3903671503067017,0.095283530652523041,-0.12820881605148315,1.2076053619384766,-0.078966446220874786,0.060514319688081741,0.063037760555744171,-0.046314984560012817,0.43237394094467163,-0.10138534754514694,-0.0015518665313720703,0.053687296807765961,-1.3385564088821411,0.0041237385012209415,-0.63058930635452271,-0.19367842376232147,-0.57209873199462891,0.096506364643573761,-0.81372815370559692,-1.3795957565307617,-0.16057536005973816,0.035454548895359039,0.67727822065353394,-0.44454428553581238,-0.58540588617324829,-0.13302558660507202,22.666971206665039,0.051300019025802612,-1.2872416973114014,1.1589123010635376,-0.38346347212791443,-0.014844861812889576,0.91568249464035034,-0.067780740559101105,0.2605573832988739,-0.46028482913970947,0.038719680160284042,-0.72046470642089844,-0.37591281533241272,0.24267610907554626,-0.61932957172393799,-0.25800570845603943,-0.06830742210149765,-0.39533829689025879,-0.024215282872319221, 0.36821851134300232,-1.4703124761581421,-0.97760802507400513,1.6007745265960693,-0.87806886434555054,-0.5730825662612915,-4.4651422500610352,-0.62089961767196655,-0.99776053428649902,-0.6725459098815918,0.44436347484588623,-1.0094412565231323,1.7644811868667603,1.0147571563720703,0.10585115104913712,-5.1627144813537598,-0.92016458511352539,1.6323560476303101,0.41800576448440552,-0.70470559597015381,1.2382442951202393,1.3652228116989136,1.2547650337219238,1.1209635734558105,0.77825236320495605,-0.87292730808258057,-3.8393864631652832,0.13054695725440979,-1.9083402156829834,-88.947380065917969,0.42861595749855042,1.5034404993057251,-8.9674749374389648,0.9160996675491333,-0.25921371579170227,-0.30625864863395691,2.2384195327758789,-0.56601542234420776,1.4396024942398071,0.11442739516496658,1.4713708162307739,-0.23413346707820892,0.76325243711471558,0.90928411483764648,0.73222380876541138,-0.61743491888046265,3.2887222766876221,0.47601845860481262, 0.75795847177505493,0.064401842653751373,0.37070894241333008,-0.21662546694278717,0.037819582968950272,-0.28155922889709473,1.5278372764587402,0.08747999370098114,-0.18524670600891113,0.10323184728622437,-0.36352992057800293,-0.058144208043813705,-0.0067609543912112713,-0.32816359400749207,0.38545671105384827,0.18247847259044647,0.69407641887664795,-0.84357988834381104,-0.23495893180370331,0.5488889217376709,0.12615412473678589,-0.50429439544677734,0.13265572488307953,-0.29440250992774963,0.0063373073935508728,0.035842251032590866,-1.130936861038208,0.31773307919502258,0.29757595062255859,27.803565979003906,0.0017530637560412288,0.037989657372236252,2.2745413780212402,-0.31829902529716492,0.086439348757266998,0.49113085865974426,-0.08756614476442337,0.28742563724517822,0.75854676961898804,-0.0077045564539730549,-0.95341396331787109,0.018913505598902702,-0.5168566107749939,-0.22032372653484344,0.15416266024112701,-0.082289136946201324,-0.33564618229866028,0.023903662338852882, 
  /* [0][2][][] */ -0.73219877481460571,-0.078813746571540833,0.19498017430305481,-0.236344113945961,0.04932837188243866,0.14882636070251465,-1.3283481597900391,0.11177939921617508,0.043343141674995422,-0.16687527298927307,0.036744769662618637,0.26402944326400757,0.10278786718845367,-0.04288637638092041,-0.11621945351362228,0.70776093006134033,0.055208954960107803,0.2780422568321228,-0.042898669838905334,0.67861741781234741,0.066916823387145996,-0.35461762547492981,-0.17194297909736633,-0.10088804364204407,-0.016579607501626015,0.15036514401435852,-0.019140277057886124,0.23564600944519043,-0.1559235006570816,2.1543309688568115,0.2082764059305191,-0.38726940751075745,-1.2892090082168579,-0.3241729736328125,-0.28790521621704102,-0.28023779392242432,-0.0279274582862854,0.13962192833423615,0.093575038015842438,-0.017366696149110794,0.10718946903944016,-0.018108971416950226,0.26058945059776306,-0.26207023859024048,-0.21512888371944427,0.1043524295091629,-0.34458020329475403,0.076340317726135254, 0.92652249336242676,1.457343578338623,0.57312703132629395,0.29514101147651672,0.11629051715135574,-0.091002494096755981,4.2799649238586426,0.17432454228401184,0.1417192667722702,-0.011790606193244457,0.14749827980995178,0.22355806827545166,-0.046432863920927048,-0.0024227392859756947,-0.27536308765411377,1.0081307888031006,-0.64499175548553467,-0.73120278120040894,-0.11961822211742401,0.79574692249298096,-0.36985045671463013,0.52222561836242676,0.13528959453105927,0.18264833092689514,0.2031971663236618,-0.43503722548484802,-1.2443101406097412,0.13920003175735474,1.1257092952728271,0.53736257553100586,0.58171951770782471,0.26020658016204834,5.9875822067260742,-0.19596229493618011,0.075911469757556915,-0.26277464628219604,-0.45508459210395813,-0.073690794408321381,-0.14817439019680023,0.10905507951974869,-0.31936213374137878,-0.040836218744516373,-0.24607355892658234,0.31512546539306641,0.11346962302923203,-0.14965635538101196,0.2283191978931427,-0.56380695104598999, -0.56775557994842529,-0.046107131987810135,0.051361024379730225,-0.056544821709394455,0.037239838391542435,-0.027248460799455643,-2.1425101757049561,0.039179686456918716,-0.15425850450992584,-0.073890097439289093,-0.14175876975059509,-0.31283023953437805,0.28368079662322998,-0.078980043530464172,-0.028348464518785477,0.469612717628479,0.36461755633354187,0.29277384281158447,-0.031835287809371948,-0.83027583360671997,0.22913062572479248,-0.10254379361867905,0.055833857506513596,-0.074135772883892059,-0.043134856969118118,0.065852232277393341,-0.32178583741188049,-0.24788613617420197,-0.22191059589385986,5.4982056617736816,0.025978565216064453,0.097213812172412872,-1.4046652317047119,0.62813884019851685,-0.33838355541229248,-0.15892712771892548,-0.080796338617801666,0.16443035006523132,0.27382504940032959,-0.052262365818023682,0.04180840402841568,0.017067607492208481,-0.22523157298564911,0.041539508849382401,-0.24936182796955109,0.67049300670623779,-0.15870150923728943,-0.015420860610902309, 
};
const TfArray<4, int> tensor_dimension19 = { 4, { 1,3,3,48 } };
const MODEL_SECTION(EI_MODEL_SECTION) ALIGN(16) float tensor_data20[8] = { -23.179719924926758, 12.315520286560059, -20.529071807861328, -23.117912292480469, 15.633969306945801, -0.97721606492996216, 23.086898803710938, 52.878837585449219, };
const TfArray<1, int> tensor_dimension20 = { 1, { 8 } };
const MODEL_SECTION(EI_MODEL_SECTION) ALIGN(16) float tensor_data21[1*3*3*48] = { 
  /* [0][0][][] */ 0.1847672164440155,-0.12833096086978912,0.64859044551849365,0.11910185962915421,0.40094834566116333,-0.098733142018318176,0.65832501649856567,-0.30993399024009705,0.16748897731304169,-0.16468115150928497,-0.17795474827289581,0.28031089901924133,0.080371387302875519,-0.062628068029880524,-0.42741027474403381,-0.53961068391799927,0.82661145925521851,0.15839652717113495,0.22672010958194733,0.5565941333770752,0.34302207827568054,-0.70989489555358887,-0.26352998614311218,0.36724960803985596,-0.11789016425609589,-0.14818520843982697,-0.091097205877304077,-0.20174258947372437,-0.32869666814804077,0.36070024967193604,-0.26148194074630737,-0.66448527574539185,-0.027284825220704079,0.2303352952003479,0.083886407315731049,0.12335506826639175,-0.52387428283691406,0.19424623250961304,-0.20123255252838135,-0.10023120045661926,0.22727638483047485,-0.22700916230678558,0.25142595171928406,0.18587017059326172,-0.11577225476503372,0.079631514847278595,0.26219984889030457,-0.044874276965856552, 0.21572780609130859,-0.12740814685821533,0.83709979057312012,0.1450505405664444,-0.59707200527191162,-0.19980922341346741,-0.36013352870941162,-0.40183883905410767,0.27332738041877747,-0.18722710013389587,-0.14542865753173828,0.42932382225990295,0.12248735129833221,-0.15772977471351624,-0.56709474325180054,0.56624692678451538,-0.2835853099822998,0.19510886073112488,0.37972232699394226,0.90251952409744263,0.42748507857322693,-1.1093356609344482,0.16164378821849823,0.50862789154052734,-0.19090589880943298,-0.28321310877799988,-0.09877748042345047,-0.2499125748872757,0.2681613564491272,0.45254236459732056,-0.12795974314212799,-0.73283779621124268,-0.15060622990131378,0.44629567861557007,0.09685419499874115,0.16226039826869965,-0.66704773902893066,0.30433297157287598,-0.33410099148750305,-0.065307594835758209,0.35501664876937866,-0.28774422407150269,0.34587067365646362,0.25954923033714294,-0.091856449842453003,-0.92344081401824951,0.3218751847743988,-0.13262772560119629, 0.0941501185297966,-0.060657799243927002,0.47519081830978394,0.065455466508865356,0.14049006998538971,-0.12264168262481689,-0.30165690183639526,-0.18859671056270599,0.12117666751146317,-0.057426199316978455,0.0086336228996515274,0.20211954414844513,0.045022971928119659,-0.11521796882152557,-0.32006239891052246,-0.0049774390645325184,-0.44892936944961548,0.080081261694431305,0.15660245716571808,0.51176232099533081,0.17026263475418091,-0.53483617305755615,0.097467973828315735,0.1890227347612381,-0.10071367770433426,-0.16635154187679291,-0.066237181425094604,-0.074151739478111267,0.14626973867416382,0.17792390286922455,0.38173785805702209,-0.51293694972991943,-0.15200430154800415,0.24353097379207611,0.044292453676462173,0.067238010466098785,-0.24687981605529785,0.14550378918647766,-0.14990311861038208,-0.036692637950181961,0.1938612163066864,-0.12651793658733368,0.14713852107524872,0.12637831270694733,-0.007040110882371664,-0.069217108190059662,0.12322460114955902,-0.095363505184650421, 
  /* [0][1][][] */ 0.2483498603105545,-0.15953205525875092,-0.27587875723838806,0.16423867642879486,0.41720724105834961,-0.2472006231546402,0.80552071332931519,-0.42392086982727051,0.25238132476806641,-0.21101382374763489,-0.16435584425926208,0.50098574161529541,0.12943239510059357,-0.16163758933544159,-0.089841887354850769,-0.7715039849281311,1.0125827789306641,0.21132142841815948,0.34104391932487488,-0.27358895540237427,0.41870281100273132,1.0323730707168579,-0.40493980050086975,0.51427268981933594,0.25999504327774048,-0.27880892157554626,-0.13343444466590881,-0.30395719408988953,-0.61975258588790894,0.5063750147819519,-0.29154872894287109,-0.052830077707767487,-0.15774999558925629,0.4009425938129425,0.1284334659576416,0.18791322410106659,-0.69422322511672974,0.29053106904029846,-0.32512626051902771,0.39628896117210388,0.37955993413925171,-0.31722712516784668,0.37245884537696838,0.26775732636451721,-0.10975975543260574,0.77165591716766357,0.32004842162132263,-0.11774983257055283, 0.33740556240081787,-0.17320951819419861,-0.42748898267745972,0.22590823471546173,-0.97776907682418823,-0.38103654980659485,-0.56459188461303711,-0.60385531187057495,0.35868102312088013,-0.23671099543571472,-0.2906547486782074,0.75567275285720825,0.19425424933433533,-0.18604815006256104,-0.14333806931972504,0.5978664755821228,-0.50784897804260254,0.24761784076690674,0.57431542873382568,-0.35470160841941833,0.63217306137084961,1.212725043296814,0.21585382521152496,0.90040081739425659,0.45108351111412048,-0.45529374480247498,-0.18526168167591095,-0.39069244265556335,0.25534319877624512,0.74390566349029541,-0.1247931569814682,0.10829928517341614,-0.22559258341789246,0.70916980504989624,0.15065309405326843,0.24939797818660736,-1.0308806896209717,0.46442463994026184,-0.51911205053329468,0.57549422979354858,0.58739787340164185,-0.39423069357872009,0.53450411558151245,0.36986625194549561,-0.15629668533802032,-0.080845639109611511,0.43542510271072388,-0.16237072646617889, 0.17363983392715454,-0.1062173992395401,-0.21126556396484375,0.11904066801071167,0.28504228591918945,-0.18992771208286285,-0.30493983626365662,-0.30640301108360291,0.15789571404457092,-0.076564811170101166,-0.13435208797454834,0.34869387745857239,0.07426026463508606,-0.075878538191318512,-0.090325847268104553,0.061035219579935074,-0.52619761228561401,0.10238689929246902,0.25325813889503479,-0.19468073546886444,0.28958588838577271,0.60204428434371948,0.16214518249034882,0.45548641681671143,0.24536025524139404,-0.23268544673919678,-0.092368133366107941,-0.13890478014945984,0.16637562215328217,0.32244583964347839,0.54850512742996216,0.099203646183013916,-0.11227560043334961,0.39295899868011475,0.057057060301303864,0.09779764711856842,-0.40864196419715881,0.21665522456169128,-0.24064347147941589,0.26062473654747009,0.27526602149009705,-0.18510633707046509,0.23024678230285645,0.17489916086196899,-0.074676938354969025,-0.49883070588111877,0.20370687544345856,-0.076719500124454498, 
  /* [0][2][][] */ 0.12082650512456894,-0.072487585246562958,-0.30097630620002747,0.089198507368564606,0.19474005699157715,-0.15973855555057526,0.41457253694534302,-0.20426437258720398,0.11821578443050385,-0.14218050241470337,-0.013562051579356194,0.25118279457092285,0.087995924055576324,-0.10499342530965805,0.49769359827041626,-0.48194640874862671,0.57289326190948486,0.098244667053222656,0.15470100939273834,-0.21525019407272339,0.12765142321586609,-0.10461276024580002,-0.25315812230110168,0.21283189952373505,-0.084808751940727234,-0.16271644830703735,-0.068347737193107605,-0.15932856500148773,-0.36236065626144409,0.19227904081344604,-0.16970895230770111,0.53721332550048828,-0.1348586231470108,0.21315497159957886,0.060184702277183533,0.08657548576593399,-0.20244209468364716,0.13038340210914612,-0.17639751732349396,-0.38763466477394104,0.2134072333574295,-0.16442450881004333,0.18293561041355133,0.12973436713218689,-0.02872786670923233,0.11813745647668839,0.13954634964466095,-0.093307033181190491, 0.19666922092437744,-0.10167363286018372,-0.29902663826942444,0.14111477136611938,-0.433442622423172,-0.18972522020339966,-0.43819016218185425,-0.32475343346595764,0.14354702830314636,-0.15342213213443756,-0.15227460861206055,0.3759552538394928,0.11561188101768494,-0.071227408945560455,0.75436103343963623,0.19788940250873566,-0.38567498326301575,0.11200277507305145,0.26636150479316711,-0.30014845728874207,0.264007568359375,-0.1746051013469696,0.12894426286220551,0.47022587060928345,-0.17281103134155273,-0.23753376305103302,-0.10968629270792007,-0.19866302609443665,0.15452723205089569,0.36347806453704834,-0.10674042999744415,0.71405541896820068,-0.09683883935213089,0.36657631397247314,0.068486176431179047,0.11624448746442795,-0.37985917925834656,0.21913552284240723,-0.27527859807014465,-0.46076458692550659,0.31406822800636292,-0.21395890414714813,0.25804594159126282,0.17781907320022583,-0.10374081879854202,0.36569294333457947,0.21965831518173218,-0.068318359553813934, 0.11331264674663544,-0.056660715490579605,-0.16527575254440308,0.083664841949939728,0.21365410089492798,-0.062901176512241364,-0.11036431789398193,-0.16905410587787628,0.039042007178068161,-0.062374111264944077,-0.11729809641838074,0.18592149019241333,0.048481781035661697,0.0085006533190608025,0.41528746485710144,0.14298219978809357,-0.30306541919708252,0.041122503578662872,0.12400504946708679,-0.22111794352531433,0.14572446048259735,-0.017939954996109009,0.12513408064842224,0.29252305626869202,-0.087336994707584381,-0.10097269713878632,-0.069494128227233887,-0.080314807593822479,0.15532095730304718,0.20313674211502075,0.26854071021080017,0.40989461541175842,0.00089852855307981372,0.19849634170532227,0.020785456523299217,0.044885147362947464,-0.17755743861198425,0.11251584440469742,-0.12174805998802185,-0.23428739607334137,0.12942971289157867,-0.10325626283884048,0.11398971080780029,0.081967324018478394,-0.076787285506725311,0.058993715792894363,0.10602486133575439,-0.0060645854100584984, 
};
const TfArray<4, int> tensor_dimension21 = { 4, { 1,3,3,48 } };
const MODEL_SECTION(EI_MODEL_SECTION) ALIGN(16) float tensor_data22[16] = { -23.460529327392578, -1.3583583831787109, 0.634959876537323, -7.3939070701599121, -3.2276127338409424, -9.3972921371459961, -13.887299537658691, -24.87542724609375, -2.2710120677947998, 15.001672744750977, 29.767919540405273, -6.9276089668273926, -2.4851713180541992, -24.757839202880859, 17.740877151489258, -32.651432037353516, };
const TfArray<1, int> tensor_dimension22 = { 1, { 16 } };
const MODEL_SECTION(EI_MODEL_SECTION) ALIGN(16) float tensor_data23[1*3*3*96] = { 
  /* [0][0][][] */ -0.13968281447887421,0.014217630960047245,-0.17054371535778046,0.14100790023803711,-0.090044565498828888,0.18443341553211212,-0.90078467130661011,-0.17152249813079834,0.093894988298416138,-0.10430710017681122,0.71322864294052124,-0.10611499845981598,0.017200879752635956,-0.1449257880449295,-0.023942856118083,0.28867179155349731,0.024565890431404114,0.23160849511623383,-0.086887523531913757,0.053936749696731567,0.1202305406332016,0.028837958350777626,0.18120935559272766,-0.55291503667831421,-0.002975828479975462,0.17846283316612244,0.21345894038677216,0.39576232433319092,0.098179414868354797,0.05040363222360611,0.095585912466049194,0.36347338557243347,-0.035094358026981354,0.18562823534011841,0.093244262039661407,-0.10676496475934982,0.085927248001098633,0.24528089165687561,-0.17140990495681763,-0.19714179635047913,0.25826480984687805,0.11422087252140045,0.4269929826259613,0.14828366041183472,-0.71479123830795288,-0.12479328364133835,0.22018957138061523,-0.045253582298755646,-0.037416104227304459,-0.14466150104999542,-0.068340510129928589,-0.069336391985416412,0.44881835579872131,0.078929021954536438,-0.091821484267711639,0.082187794148921967,-0.053410898894071579,-0.32585498690605164,0.11174795776605606,-0.12456748634576797,0.30730044841766357,-0.011107463389635086,1.534612774848938,0.15479566156864166,-0.084039345383644104,-0.081126891076564789,0.029982713982462883,-0.17134453356266022,1.0193434953689575,0.34820643067359924,0.026204267516732216,-0.051416598260402679,0.3066616952419281,-0.27087581157684326,0.53306466341018677,0.04529353603720665,0.3643583357334137,-0.25952163338661194,0.28780391812324524,1.1872602701187134,-0.0050589041784405708,0.38139161467552185,0.61727476119995117,-0.12054477632045746,0.19064798951148987,0.11117894947528839,-0.16379930078983307,-0.12237529456615448,0.28785508871078491,-0.018843220546841621,-0.10315853357315063,0.41125777363777161,-0.027721581980586052,0.38050499558448792,-2.6808083057403564,0.036971300840377808, -0.38866168260574341,0.066253215074539185,-0.064517773687839508,0.014809200540184975,0.31747728586196899,-0.059609051793813705,-0.168259397149086,-0.40723377466201782,0.20669117569923401,0.23437732458114624,-0.93646544218063354,-0.049867600202560425,-0.067954890429973602,-0.21091586351394653,0.038144420832395554,0.49255454540252686,0.082931220531463623,-0.37848228216171265,-0.039196807891130447,-0.11162204295396805,0.11618790030479431,-0.67672640085220337,0.71553367376327515,0.37951073050498962,-0.54587340354919434,-0.31209498643875122,-0.49196761846542358,-0.13051348924636841,0.12837491929531097,0.14835348725318909,-0.20210233330726624,0.14185681939125061,0.57578188180923462,0.10097929090261459,-0.088741153478622437,0.003441791282966733,-0.3602757453918457,0.63422268629074097,-0.16197030246257782,-0.93253481388092041,0.09900183230638504,-0.24524599313735962,-0.52553802728652954,0.11230842769145966,0.40189021825790405,-0.26520222425460815,1.1225093603134155,-0.43609499931335449,-0.25656178593635559,0.39743196964263916,0.43918535113334656,0.041677296161651611,0.34603035449981689,-0.69809019565582275,0.33823519945144653,1.0030300617218018,0.57607376575469971,0.36832383275032043,-0.43932092189788818,0.32616949081420898,1.5486265420913696,0.22461129724979401,0.068318277597427368,-0.1154201328754425,0.27615189552307129,-0.29109081625938416,-0.27758371829986572,-0.0054666372016072273,0.58704376220703125,-0.31602597236633301,-0.18013568222522736,0.30163106322288513,-0.19880859553813934,-0.36692026257514954,0.85833227634429932,-0.046483658254146576,-0.5920528769493103,-0.12209194153547287,-0.31842854619026184,1.1439445018768311,-0.45791417360305786,1.4736267328262329,-0.052044689655303955,0.063821069896221161,-0.050356496125459671,0.19115087389945984,0.321653813123703,-0.26746663451194763,-0.18363076448440552,0.2844356894493103,-0.10695755481719971,0.35999605059623718,-0.76671302318572998,-0.68822038173675537,27.855392456054688,-0.4112173318862915, 0.016779683530330658,-0.032140038907527924,-0.19385223090648651,-0.096890769898891449,0.058310482650995255,0.15809342265129089,0.53090596199035645,0.068751350045204163,-0.013706638477742672,-0.031841591000556946,0.019298562780022621,0.69671231508255005,0.0056612179614603519,-0.1891556978225708,-0.073754370212554932,0.039119437336921692,-0.057831227779388428,0.25940597057342529,-0.028555946424603462,0.16208000481128693,0.013023918494582176,0.16175694763660431,0.14863084256649017,-0.52089732885360718,-0.011885304935276508,-0.30129325389862061,0.0549752376973629,0.11272822320461273,-0.015697965398430824,0.015100078657269478,0.17883048951625824,-0.56357896327972412,0.22364385426044464,0.1279422789812088,0.092974066734313965,-0.17312949895858765,0.21329517662525177,0.028884004801511765,-0.094567783176898956,-0.15092642605304718,0.077028356492519379,0.043644774705171585,-0.2872239351272583,0.073087550699710846,0.20213836431503296,-0.069138258695602417,0.18856394290924072,0.0019466974772512913,0.024230699986219406,-0.042455602437257767,0.042084299027919769,-0.054695919156074524,0.04244670644402504,0.081934839487075806,-0.063442796468734741,0.20696374773979187,-0.1114337295293808,0.37850752472877502,0.020830105990171432,-0.016542132943868637,0.11125964671373367,-0.12876370549201965,0.038392148911952972,-0.099363863468170166,-0.1749415248632431,-0.13604205846786499,0.081719920039176941,-0.15246261656284332,-1.5313414335250854,-0.066247798502445221,0.33064144849777222,-0.10827929526567459,-0.49879112839698792,-0.17819131910800934,-0.036938559263944626,0.14957740902900696,0.24619497358798981,-0.024098599329590797,0.063362151384353638,0.19807344675064087,-0.10064906626939774,0.55332398414611816,-0.15986622869968414,-0.026746489107608795,-0.20626026391983032,0.072267472743988037,0.13958816230297089,0.30657044053077698,-0.16153192520141602,-0.077796593308448792,0.1816900372505188,-0.047620292752981186,0.077790804207324982,0.086392082273960114,-1.9799662828445435,-0.15372353792190552, 
  /* [0][1][][] */ -0.3161449134349823,0.34604614973068237,-0.16058644652366638,0.049978189170360565,-0.5030173659324646,-0.12172114849090576,-0.1290886253118515,-0.13925804197788239,0.1199159175157547,1.5771859884262085,-0.33716008067131042,-0.24978825449943542,-0.12853541970252991,-0.43111914396286011,-0.056050904095172882,0.33933144807815552,0.56788927316665649,-0.33161011338233948,-0.24022287130355835,-0.10207853466272354,0.096146732568740845,-0.88594043254852295,-0.16171994805335999,0.20213355123996735,-0.31929647922515869,-0.48917871713638306,-0.60893839597702026,-0.032862104475498199,0.17749492824077606,0.16018021106719971,-0.20448553562164307,0.22094599902629852,-0.60559874773025513,-0.46537092328071594,-0.46535927057266235,0.035348251461982727,1.0028853416442871,-0.015814054757356644,-0.12925580143928528,0.35430708527565002,-0.26197993755340576,1.1334952116012573,0.0038478514179587364,-0.0080457776784896851,0.27240088582038879,-0.11184270679950714,-0.11561361700296402,-0.31432387232780457,0.42033284902572632,0.31100904941558838,-0.029514051973819733,0.16843485832214355,0.4201371967792511,0.12149552255868912,-0.3897305428981781,-0.25426569581031799,0.49625051021575928,0.069389894604682922,-0.5384412407875061,0.48490613698959351,-0.47118508815765381,-0.57864725589752197,0.2244986891746521,0.72176921367645264,-0.3850005567073822,-0.26716804504394531,-0.24140451848506927,0.40496471524238586,-0.51883304119110107,1.2667559385299683,-0.19874124228954315,0.34345647692680359,-0.14599034190177917,-0.44648030400276184,0.28466057777404785,0.0771455317735672,-0.74643141031265259,-0.14847438037395477,1.2588400840759277,0.86566418409347534,0.85863339900970459,0.86858993768692017,0.047713618725538254,-0.016713779419660568,0.65103232860565186,0.1166924461722374,-0.56209814548492432,0.37019556760787964,-0.26567229628562927,-0.16816706955432892,-0.76900261640548706,0.20681083202362061,0.53365671634674072,2.1380908489227295,34.146373748779297,-0.19566603004932404, 1.0520182847976685,0.77102291584014893,1.0602704286575317,0.17012372612953186,-0.27601715922355652,-0.98187077045440674,1.8497980833053589,0.076627947390079498,0.65321362018585205,-2.0355668067932129,0.12689414620399475,-1.4170259237289429,-0.45082572102546692,2.1573574542999268,0.8661683201789856,0.68241524696350098,-0.067366562783718109,-1.6639348268508911,-0.1712309718132019,-1.1191180944442749,0.1980707049369812,0.16882815957069397,-0.3715289831161499,1.9320617914199829,1.1272983551025391,1.2632207870483398,-0.26181590557098389,-1.0285513401031494,0.55904245376586914,0.56236374378204346,-0.51166605949401855,0.90159517526626587,-0.039884123951196671,-0.78777098655700684,-1.0270253419876099,1.0183216333389282,-1.9182953834533691,-0.23228555917739868,0.26996594667434692,0.8148377537727356,-1.6485568284988403,-1.6883454322814941,2.1354191303253174,0.9863743782043457,1.0564206838607788,-0.24448986351490021,-0.94187271595001221,1.2532131671905518,-0.047447416931390762,0.93215000629425049,-1.1371243000030518,-1.1059061288833618,-1.1288845539093018,1.4240168333053589,1.3551448583602905,-2.0916712284088135,2.0466420650482178,-1.1151583194732666,-0.18359355628490448,0.15927045047283173,-1.3102735280990601,-0.18001586198806763,-0.79483896493911743,-0.37226337194442749,0.83829081058502197,0.97838199138641357,-0.20207884907722473,0.42033785581588745,1.8421735763549805,-1.0738725662231445,-1.1639389991760254,0.82797586917877197,-0.17627821862697601,0.97071212530136108,-0.97356653213500977,-1.2766302824020386,-2.7114546298980713,0.25051301717758179,-0.73652243614196777,2.2387778759002686,-0.28888618946075439,3.0289311408996582,0.41075018048286438,1.0184863805770874,-0.19077825546264648,-0.533913254737854,-0.149720698595047,-0.78440278768539429,-0.94436377286911011,-0.64440000057220459,-0.1757177859544754,-0.65562236309051514,-0.12072624266147614,-2.7007918357849121,-151.5709228515625,0.39005318284034729, -0.18218725919723511,0.37606659531593323,-0.32139948010444641,0.0058040921576321125,0.78508657217025757,0.53251010179519653,-0.32877779006958008,0.15629161894321442,0.020536979660391808,0.40996468067169189,-0.11019197851419449,-0.061445847153663635,-0.11695445328950882,-0.5154845118522644,-0.10268428921699524,-0.028693050146102905,-0.45538875460624695,-0.284912109375,-0.33214634656906128,0.35480257868766785,0.051326934248209,0.54102057218551636,-0.070051573216915131,-1.8150935173034668,-0.31307238340377808,-0.4094356894493103,0.5986553430557251,0.58289462327957153,0.060263816267251968,0.16046454012393951,0.29146701097488403,0.060053959488868713,0.60654228925704956,-0.29470008611679077,1.1007475852966309,-0.022550914436578751,0.86453819274902344,0.027339130640029907,-0.25276738405227661,0.13236118853092194,0.4355834424495697,0.31453588604927063,-0.3685222864151001,0.028155941516160965,-0.19925819337368011,-0.1123066246509552,-0.11448510736227036,-0.42000117897987366,0.27106800675392151,0.10930195450782776,-0.11118382215499878,0.33562323451042175,-0.048168249428272247,-0.029417857527732849,-0.81294733285903931,-0.19901208579540253,0.39205151796340942,0.16596250236034393,0.5423201322555542,-0.35152623057365417,0.0081352945417165756,0.84691834449768066,-0.0075111133046448231,-0.19904591143131256,-0.72852104902267456,-0.21897771954536438,-0.21730057895183563,0.33684048056602478,0.19578693807125092,-0.15350989997386932,0.97061800956726074,0.16200020909309387,-0.070674218237400055,-0.44418719410896301,0.11555515229701996,0.45590999722480774,-0.58378088474273682,-0.016499314457178116,-0.42668277025222778,-0.031396348029375076,-0.31919673085212708,0.20617394149303436,0.22957095503807068,0.19821731746196747,-0.46051469445228577,0.13670463860034943,0.72530406713485718,-0.33374753594398499,0.2588697075843811,-0.1041199266910553,0.98219877481460571,-0.043294008821249008,-0.64616096019744873,0.68388408422470093,40.158462524414062,0.061239346861839294, 
  /* [0][2][][] */ -0.018263120204210281,-0.22555528581142426,-0.18953882157802582,-0.083866626024246216,-0.021345455199480057,0.086215615272521973,0.5887453556060791,0.10413263738155365,-0.017323680222034454,0.18196281790733337,-0.14751225709915161,0.58432555198669434,0.12307868897914886,-0.60765701532363892,-0.0623784139752388,0.031074944883584976,0.1906936913728714,0.016480645164847374,0.038167349994182587,0.21764649450778961,-0.014048688113689423,0.21448339521884918,-0.092178978025913239,-0.43762496113777161,0.013782554306089878,-0.25464624166488647,0.063400261104106903,0.010654735378921032,-0.03982069343328476,-0.0051007280126214027,0.19139468669891357,-0.52906739711761475,-0.1835612952709198,0.45391547679901123,-0.22626514732837677,-0.1946212500333786,0.49898889660835266,-0.16887135803699493,-0.17430983483791351,0.12172870337963104,0.082082226872444153,0.12084709107875824,-0.58842450380325317,0.13310706615447998,0.094979725778102875,-0.17360121011734009,-0.11378398537635803,-0.024719357490539551,-0.034659545868635178,0.031126808375120163,0.1609729677438736,-0.074386812746524811,0.082048431038856506,0.025276418775320053,-0.22687400877475739,0.11393745243549347,-0.050379414111375809,0.39302626252174377,-0.21036650240421295,0.12837988138198853,-0.073119416832923889,-0.064477771520614624,0.01965782605111599,0.10099880397319794,-0.02487310953438282,-0.07282479852437973,0.060986854135990143,-0.16809152066707611,-0.81987935304641724,0.11498337984085083,-0.20060659945011139,-0.074993915855884552,-0.48121485114097595,-0.2742251455783844,-0.0025445437058806419,0.17726682126522064,0.31968837976455688,-0.020142344757914543,0.52065032720565796,0.32929113507270813,0.16350652277469635,0.51376974582672119,-0.15664589405059814,0.11392875760793686,0.058749720454216003,0.10989152640104294,-0.14336374402046204,0.10769722610712051,0.059504032135009766,0.14810144901275635,0.19058762490749359,-0.023194245994091034,0.085378296673297882,0.82231736183166504,-7.9389591217041016,-0.093999564647674561, -0.21994289755821228,-0.04958745464682579,-0.22514918446540833,0.03383558988571167,-0.27458697557449341,0.54980146884918213,-0.35265156626701355,0.21049433946609497,0.021114310249686241,-0.095622070133686066,0.4161037802696228,-0.13735979795455933,0.5709989070892334,-0.1521265059709549,-0.12868179380893707,-0.093319199979305267,0.0030057420954108238,-0.57768607139587402,-0.14686857163906097,0.23160672187805176,-0.039125721901655197,0.55358856916427612,-0.26558104157447815,-1.7536119222640991,-0.40823826193809509,-0.48812410235404968,0.49640142917633057,0.54609459638595581,0.06063394621014595,0.21013711392879486,0.21131701767444611,-0.016519363969564438,-0.5963403582572937,0.41667726635932922,-0.097065836191177368,-0.17722250521183014,-0.40015283226966858,-0.1303834468126297,-0.30121597647666931,-0.028515959158539772,0.54291599988937378,-0.17393471300601959,-0.26321879029273987,0.26276877522468567,-0.22501081228256226,-0.097516901791095734,-0.17167328298091888,-0.47046887874603271,-0.20745213329792023,0.19320112466812134,0.63056468963623047,0.21036750078201294,-0.092933095991611481,-0.88983666896820068,0.33767223358154297,0.86973005533218384,0.24668753147125244,0.24730724096298218,0.32153517007827759,-0.21311792731285095,0.25847131013870239,-0.38241621851921082,-0.088524565100669861,0.011586963199079037,0.13282197713851929,-0.1988423764705658,-0.36294707655906677,-0.18992382287979126,-0.17601029574871063,-0.26274079084396362,-0.55816292762756348,0.1412806510925293,0.13873662054538727,-0.34355387091636658,-0.25469037890434265,-0.07461102306842804,-0.91493713855743408,0.052032452076673508,-0.56444394588470459,0.013574443757534027,0.34563350677490234,0.85528504848480225,0.11593227088451385,0.088805034756660461,0.029022051021456718,0.27878233790397644,-0.56148475408554077,0.99601393938064575,0.12942427396774292,0.66612136363983154,-0.23122408986091614,-0.10542535036802292,0.65616858005523682,-0.45956909656524658,55.35223388671875,0.2759726345539093, -0.062488391995429993,-0.20265072584152222,-0.22207349538803101,0.03632991760969162,0.077755987644195557,0.48477938771247864,-0.65128540992736816,0.041437845677137375,0.011740687303245068,-0.069913633167743683,0.033816579729318619,0.14775539934635162,0.044845987111330032,-0.90521883964538574,-0.084464885294437408,-0.074023149907588959,-0.18252871930599213,-0.068263046443462372,0.0429350845515728,0.20632509887218475,-0.043078836053609848,0.040241796523332596,-0.12314192205667496,0.031385969370603561,-0.036559369415044785,0.18509073555469513,-0.0062762242741882801,0.40069729089736938,-0.0037092342972755432,-0.0063166003674268723,0.13275609910488129,0.21422165632247925,0.086330011487007141,0.29111093282699585,0.19381904602050781,-0.17926822602748871,-0.058190863579511642,-0.12457858771085739,-0.10284464061260223,0.068299956619739532,0.10408101230859756,-0.15179340541362762,0.34969797730445862,0.058365859091281891,-0.62930756807327271,-0.074096359312534332,-0.12455996125936508,0.030553232878446579,-0.0027029854245483875,-0.12246342748403549,0.0091518834233283997,-0.045978590846061707,-0.073773577809333801,0.10741116851568222,-0.18513552844524384,-0.057511121034622192,-0.03912995383143425,-0.45599448680877686,0.053952913731336594,-0.12367193400859833,-0.26603826880455017,0.35533413290977478,0.082338131964206696,-0.15504750609397888,-0.061313346028327942,-0.01995578408241272,0.10039126873016357,-0.17068986594676971,0.66293114423751831,0.096333183348178864,0.48121017217636108,-0.13345761597156525,0.12721414864063263,-0.43811288475990295,-0.12559838593006134,0.23135112226009369,0.26158791780471802,0.02555585652589798,-0.061291459947824478,0.4077223539352417,-0.19090692698955536,0.77134203910827637,0.46517691016197205,-0.1152951568365097,-0.089767582714557648,0.2180977463722229,0.1928880512714386,-0.035789709538221359,0.84810096025466919,0.074600458145141602,0.04215698316693306,-0.096039630472660065,0.054590888321399689,-0.53072035312652588,-7.6596336364746094,-0.15821380913257599, 
};
const TfArray<4, int> tensor_dimension23 = { 4, { 1,3,3,96 } };
const MODEL_SECTION(EI_MODEL_SECTION) ALIGN(16) float tensor_data24[16] = { 0.88946646451950073, 1.2362340688705444, -1.861728310585022, 6.5912909507751465, 10.086481094360352, 3.8330452442169189, -3.2173891067504883, 0.26832097768783569, 6.6769938468933105, -0.22550107538700104, 9.6822242736816406, 18.635318756103516, -1.797132134437561, 4.8311657905578613, 12.252382278442383, -9.3838720321655273, };
const TfArray<1, int> tensor_dimension24 = { 1, { 16 } };
const MODEL_SECTION(EI_MODEL_SECTION) ALIGN(16) float tensor_data25[1*3*3*96] = { 
  /* [0][0][][] */ -0.22041046619415283,-0.33570051193237305,-0.051253344863653183,1.1719826459884644,0.26477622985839844,0.45122191309928894,0.22224317491054535,-0.23679244518280029,-0.11724594235420227,-0.20485356450080872,-0.16662314534187317,0.020106423646211624,-0.40233102440834045,0.032910473644733429,0.63130050897598267,0.011482284404337406,-0.081494912505149841,-0.33289504051208496,0.25339975953102112,0.11318714916706085,0.064042814075946808,-0.24434813857078552,0.77907520532608032,0.023323874920606613,-0.25870043039321899,0.025300135836005211,0.35172951221466064,-0.19814944267272949,-0.41350701451301575,-2.5220446586608887,0.58658289909362793,0.29373073577880859,0.058558672666549683,0.16932947933673859,0.60062223672866821,-0.31174206733703613,-0.45075377821922302,-0.095129698514938354,0.36104997992515564,-0.023750264197587967,-0.085078105330467224,0.25642505288124084,-1.8482387065887451,0.26026180386543274,0.40135654807090759,-0.2634807825088501,0.15477000176906586,0.53252428770065308,-0.53375816345214844,0.22441376745700836,-0.46943265199661255,0.14009922742843628,0.086753338575363159,-0.033937416970729828,0.17343528568744659,0.22483472526073456,-0.39526510238647461,-0.88306736946105957,-0.13352233171463013,-0.13742914795875549,-0.13764655590057373,0.03627733513712883,0.04115791991353035,0.24562728404998779,0.34726434946060181,-0.11679086834192276,1.2120540142059326,0.20222556591033936,-0.074240677058696747,0.14884725213050842,0.17327633500099182,0.61013060808181763,0.22215469181537628,0.14997723698616028,0.27444201707839966,-0.059612635523080826,-0.046233251690864563,0.070553995668888092,0.25858095288276672,-0.048794668167829514,-0.12833981215953827,0.12645035982131958,-0.17335149645805359,0.2062479704618454,0.2766425609588623,0.087873838841915131,-0.24003250896930695,-0.32616561651229858,0.0067016566172242165,-0.17694090306758881,-0.20914602279663086,-0.07300625741481781,0.0099474312737584114,-0.10230095684528351,-0.21226498484611511,0.35485440492630005, 0.56302756071090698,-0.57650637626647949,0.32340502738952637,0.98207128047943115,-0.51678705215454102,0.84463363885879517,0.11520847678184509,-0.46542969346046448,0.68095517158508301,0.034958463162183762,-0.21129180490970612,0.64081138372421265,1.7285462617874146,-0.86106520891189575,-0.20679625868797302,0.10820236802101135,0.10576865822076797,1.0331442356109619,1.1735281944274902,-0.51827460527420044,0.41966259479522705,-0.15362785756587982,0.49905723333358765,0.22517189383506775,-0.43726101517677307,-0.42760655283927917,-0.45609229803085327,-0.24939388036727905,-0.18053258955478668,0.90621304512023926,-0.92343807220458984,-0.17350716888904572,-0.45324593782424927,0.32576218247413635,-1.2260706424713135,-1.4918557405471802,-0.62139451503753662,-0.14584600925445557,-0.6181609034538269,0.26563718914985657,-0.001218594959937036,1.2190099954605103,2.2232625484466553,0.30712532997131348,-0.8306242823600769,-0.44292780756950378,-0.44379264116287231,-0.56308656930923462,-0.45366182923316956,-0.52593153715133667,0.89873248338699341,0.60148578882217407,1.0132163763046265,-0.17253807187080383,0.5675702691078186,0.39459618926048279,-0.20403477549552917,0.80211788415908813,-0.17763708531856537,-0.84775751829147339,-0.56687414646148682,-0.52860057353973389,-0.2371002733707428,0.42612728476524353,0.37951838970184326,-0.29317003488540649,0.46732506155967712,0.50523561239242554,-0.73557543754577637,0.30376273393630981,-0.17956821620464325,0.42727264761924744,1.153233528137207,0.80851513147354126,0.141999751329422,0.21033105254173279,0.016200967133045197,0.23723976314067841,-0.073356524109840393,0.49834316968917847,0.70485454797744751,1.2190852165222168,0.85464715957641602,-0.24438484013080597,-0.021365564316511154,0.27836489677429199,-0.35990771651268005,2.5617387294769287,-1.4669369459152222,-0.51883810758590698,0.030482644215226173,-0.21252010762691498,-0.54788810014724731,-0.56005841493606567,-0.50369811058044434,1.4392092227935791, -0.34023368358612061,-0.074220277369022369,0.13846088945865631,-0.76973152160644531,0.18640317022800446,-0.12167312204837799,0.19498258829116821,-0.033363752067089081,0.8141714334487915,-0.39006355404853821,-0.31160247325897217,0.11784659326076508,-0.27165460586547852,-0.03525189682841301,-0.13503624498844147,-0.074863359332084656,-0.078033857047557831,-0.10296842455863953,0.09634021669626236,-0.0080490065738558769,-0.072171971201896667,-0.20319683849811554,0.18146781623363495,0.00089658680371940136,-0.40492931008338928,0.34641101956367493,0.04997510090470314,-0.40130990743637085,0.37595781683921814,0.9824988842010498,-0.23453728854656219,0.12542055547237396,0.0048829116858541965,0.089601576328277588,0.13429617881774902,-0.53254222869873047,-0.13915492594242096,0.35261890292167664,0.23712557554244995,0.062060363590717316,0.19775031507015228,0.12525293231010437,-2.2075586318969727,0.2423054426908493,0.26424920558929443,-0.056386128067970276,0.15363268554210663,0.15757201611995697,-0.42059174180030823,0.055466700345277786,-0.32771137356758118,0.039983298629522324,-0.11987008154392242,0.014477238059043884,0.0012972864788025618,0.10028766095638275,-0.28688088059425354,0.14702410995960236,-0.088610969483852386,0.39167153835296631,0.035990465432405472,0.53856974840164185,0.13518588244915009,-0.00080858502769842744,-0.035322088748216629,-0.18637572228908539,-0.49073350429534912,0.38101634383201599,0.07608100026845932,0.02339482307434082,-0.024435792118310928,0.20148114860057831,0.079407371580600739,-0.15333393216133118,-0.090750791132450104,0.055267903953790665,-0.058062314987182617,-0.016681665554642677,-0.17491947114467621,0.023742407560348511,-0.19777719676494598,-0.26209390163421631,-0.13200391829013824,0.022414546459913254,-0.24712207913398743,0.050986923277378082,-0.10698001831769943,-0.43637856841087341,-0.62554436922073364,0.090597294270992279,-0.32057684659957886,-0.063779830932617188,0.20131804049015045,-0.10942035913467407,-0.19620954990386963,0.036882419139146805, 
  /* [0][1][][] */ -0.29056015610694885,-0.34669974446296692,0.30665138363838196,-0.34262034296989441,-0.59644633531570435,0.54305744171142578,0.041831742972135544,0.50469070672988892,-0.49972817301750183,-0.24392342567443848,-0.010976518504321575,-0.55211079120635986,0.34093272686004639,-0.99437355995178223,1.3229879140853882,0.18169334530830383,-0.023573864251375198,-0.47622355818748474,-0.15053348243236542,0.42398267984390259,0.1770012229681015,-0.14510391652584076,0.28393134474754333,0.15743814408779144,-0.32919049263000488,-0.055198714137077332,0.88026994466781616,-0.15606498718261719,-0.087976343929767609,1.2347787618637085,1.8360831737518311,-1.2191535234451294,-0.63125395774841309,0.57160836458206177,-0.84181928634643555,-1.0173139572143555,-0.50638830661773682,0.32746279239654541,-0.34836673736572266,0.38399538397789001,-0.36938017606735229,-0.2717311680316925,-0.044329389929771423,0.15711250901222229,-0.83079284429550171,0.53777486085891724,-0.086772434413433075,0.74912476539611816,0.48873323202133179,0.39602696895599365,0.41912409663200378,-0.012494106777012348,0.19491824507713318,-0.30630344152450562,0.30496853590011597,0.15356937050819397,0.54544800519943237,2.2325177192687988,-0.1586301326751709,-0.62954676151275635,1.6356322765350342,-0.422710120677948,-0.14065274596214294,0.82404851913452148,0.36838448047637939,-0.17633847892284393,-0.25257551670074463,-0.032019268721342087,1.2282053232192993,0.36763748526573181,1.2323954105377197,0.45811983942985535,-0.42089584469795227,0.64745807647705078,-0.047155387699604034,0.17784492671489716,0.089703306555747986,0.051176700741052628,-0.066198058426380157,0.091973401606082916,-0.42333969473838806,1.2453778982162476,-0.55320793390274048,1.1362242698669434,0.0024709079880267382,0.11276998370885849,-0.16507568955421448,0.59220081567764282,0.99078583717346191,-0.61941355466842651,-0.39972472190856934,-0.015993682667613029,0.79709142446517944,-0.29762381315231323,-0.30276557803153992,0.025144660845398903, 0.29997828602790833,0.55468642711639404,0.23904938995838165,-1.0658962726593018,1.5665712356567383,0.51710957288742065,0.24223917722702026,0.14965297281742096,-1.2644728422164917,1.3778142929077148,1.3706879615783691,-0.18816520273685455,-0.88144886493682861,-1.0858304500579834,-2.1527912616729736,0.76728194952011108,1.2064862251281738,-0.51989918947219849,-1.1373864412307739,-0.22731918096542358,0.33828377723693848,0.18235771358013153,-0.75241625308990479,0.39905509352684021,-0.38004615902900696,-0.34697586297988892,-0.30399832129478455,0.89975851774215698,-0.42291447520256042,2.1357247829437256,-1.970623254776001,-1.4915813207626343,-0.44072458148002625,0.7906067967414856,1.0638689994812012,2.2350485324859619,1.9097576141357422,-1.3170305490493774,-1.2880523204803467,0.47637686133384705,-0.50988990068435669,-0.93810337781906128,1.9735885858535767,-0.44849511981010437,-2.1120467185974121,-0.12342683970928192,-0.5024757981300354,-1.4407509565353394,3.7060227394104004,-0.45516771078109741,1.782662034034729,0.30544614791870117,1.7771419286727905,0.7208707332611084,1.4581291675567627,-0.5766565203666687,0.42635926604270935,-2.2984673976898193,-0.28943681716918945,0.97181010246276855,0.26502424478530884,-1.0407086610794067,-0.50273334980010986,-0.64201658964157104,-0.66438078880310059,0.58575999736785889,-2.0654416084289551,2.0570425987243652,-1.127267599105835,-1.1405681371688843,-1.010783314704895,-0.38722860813140869,-1.3303288221359253,-0.50502312183380127,1.5572173595428467,1.6452114582061768,-0.69723159074783325,0.48666757345199585,-0.16038472950458527,1.1736805438995361,1.3414320945739746,0.29094532132148743,-0.29879364371299744,-1.3310935497283936,0.13123379647731781,0.43078640103340149,0.29690665006637573,0.90829271078109741,1.590152382850647,0.075071811676025391,1.5485078096389771,0.0058870441280305386,-0.42255675792694092,0.17491903901100159,1.6325522661209106,-1.6561869382858276, -0.23515750467777252,-0.074646718800067902,-0.21078547835350037,0.34548366069793701,-0.69993013143539429,-0.56132185459136963,0.1045052707195282,-0.10183040052652359,0.2065993994474411,-0.38733187317848206,-0.31415030360221863,0.43956556916236877,0.0074457805603742599,0.84191685914993286,0.23487941920757294,0.067456386983394623,-0.035631135106086731,0.54603302478790283,-0.039257831871509552,0.60966354608535767,0.0088420882821083069,-0.15759406983852386,-0.24368348717689514,0.028179027140140533,-0.26488548517227173,0.37147143483161926,-0.48906278610229492,-0.15259161591529846,-0.23991048336029053,-0.32800251245498657,0.24044950306415558,-0.73421180248260498,-0.34392851591110229,0.21694909036159515,0.059380482882261276,-0.33235576748847961,-0.40425685048103333,0.46822506189346313,-0.81476050615310669,0.18136067688465118,1.0217740535736084,-0.046703226864337921,-0.73429775238037109,0.1123819425702095,-0.68021166324615479,-0.21971231698989868,0.07049994170665741,0.51416206359863281,0.25765547156333923,0.50629699230194092,-0.21460072696208954,0.049647148698568344,-0.53765213489532471,-0.39763379096984863,0.072986744344234467,0.097644932568073273,0.40854817628860474,0.078425973653793335,-0.0074715260416269302,0.15992777049541473,-0.45060864090919495,1.6787437200546265,0.36395922303199768,-0.32383659482002258,-0.22330811619758606,0.050928987562656403,0.59620547294616699,-0.18371871113777161,-0.71704983711242676,1.1301025152206421,-0.15913981199264526,-0.37648665904998779,-0.024945199489593506,-0.33745661377906799,-0.14642257988452911,-0.20737116038799286,0.1567808985710144,0.064039185643196106,0.15601952373981476,-0.34586030244827271,-0.69659054279327393,-0.43829652667045593,0.36561495065689087,0.14634706079959869,-0.11517355591058731,-0.060215439647436142,0.22949784994125366,0.46996161341667175,0.18148790299892426,0.28950211405754089,-0.52659934759140015,0.025167478248476982,-0.24996384978294373,0.44287616014480591,-0.34322747588157654,-0.041218943893909454, 
  /* [0][2][][] */ -0.30908158421516418,0.0040915766730904579,-0.025753643363714218,-0.1957077831029892,0.14364102482795715,-0.27495983242988586,0.18754874169826508,0.10865361988544464,0.55187082290649414,-0.32264953851699829,-0.39350345730781555,0.00049167772522196174,0.23780035972595215,0.21194310486316681,-0.42125597596168518,-0.018589470535516739,-0.065573312342166901,0.52068918943405151,0.076680488884449005,-0.020524781197309494,-0.17618799209594727,-0.17546387016773224,0.014436401426792145,-0.011886842548847198,-0.1008874848484993,-0.19632247090339661,0.25541150569915771,-0.50477099418640137,0.29363265633583069,0.72516101598739624,0.37644541263580322,0.30705881118774414,0.087081454694271088,-0.083420403301715851,-0.11586889624595642,-0.85296940803527832,-0.091836430132389069,0.36204269528388977,-0.026718907058238983,0.0058927498757839203,-0.12053133547306061,-0.042995650321245193,-1.212169885635376,0.39116719365119934,0.055583581328392029,0.14909632503986359,0.051975298672914505,0.40400663018226624,-0.43255797028541565,-0.11944731324911118,0.2070782333612442,-0.13952530920505524,0.28061237931251526,-0.0094274971634149551,0.093499161303043365,0.075976863503456116,-0.30430227518081665,0.38531211018562317,-0.021441398188471794,0.11665695160627365,0.19488190114498138,-0.032509267330169678,-0.083766795694828033,-0.028451545163989067,-0.0095516946166753769,-0.21850323677062988,-0.74649965763092041,0.22868572175502777,-0.27202200889587402,0.14012464880943298,0.26072028279304504,0.12441869080066681,0.12742377817630768,-0.12655772268772125,0.35253253579139709,0.084765203297138214,0.10848201811313629,0.024823835119605064,-0.17077372968196869,-0.11177407205104828,-0.04906768724322319,-0.085551038384437561,0.11172232776880264,0.15280686318874359,-0.29139861464500427,0.043927382677793503,0.043166205286979675,-0.86933857202529907,-0.71681737899780273,-0.24915739893913269,-0.34779030084609985,-0.078754507005214691,0.092755183577537537,0.28374975919723511,-0.24611543118953705,-0.072933606803417206, 0.55152130126953125,0.1443479061126709,-0.55345118045806885,-0.30308744311332703,-0.88123750686645508,-0.12445827573537827,0.096319206058979034,0.1263994574546814,-0.66205686330795288,-0.33188053965568542,-0.22805921733379364,-0.50658690929412842,-1.0413398742675781,1.054279088973999,-0.19965103268623352,0.20726388692855835,0.028459833934903145,-0.43010014295578003,-0.079855620861053467,-0.61754792928695679,0.3004259467124939,-0.10624329745769501,-0.23061968386173248,0.010279290378093719,-0.35037901997566223,0.48713946342468262,-0.34686169028282166,0.13444368541240692,-0.10740002244710922,-0.43647339940071106,-0.17867018282413483,-0.082934297621250153,-0.28835609555244446,0.028629068285226822,0.25535976886749268,0.068776927888393402,-0.32270082831382751,-0.2909109890460968,1.5481952428817749,0.19949924945831299,0.084834977984428406,-0.1261381059885025,1.1870570182800293,-0.10666029155254364,-0.61313009262084961,0.33564218878746033,-0.26833641529083252,-0.50882458686828613,-0.96665889024734497,-0.020627614110708237,-2.6297259330749512,-0.89789873361587524,-0.74283385276794434,-0.13757772743701935,-0.0052145416848361492,0.19344724714756012,-0.27682912349700928,-0.1659177839756012,0.032389048486948013,0.3084644079208374,-0.086460977792739868,-0.2756449282169342,0.02336772158741951,-0.30671402812004089,-0.2843831479549408,0.14671501517295837,1.0743858814239502,-0.38790783286094666,1.1399298906326294,0.97635817527770996,-0.23181822896003723,-0.34103050827980042,0.10689102113246918,-0.36396795511245728,0.059546984732151031,0.092982359230518341,0.54687905311584473,0.024614132940769196,0.095847658812999725,0.20735083520412445,0.18767045438289642,-0.99361330270767212,-0.34562346339225769,0.027338214218616486,0.0050749713554978371,0.049003567546606064,0.39972192049026489,0.8053123950958252,-0.76449328660964966,0.19094747304916382,-0.24680554866790771,-0.17932257056236267,0.28677290678024292,0.38665863871574402,-0.13580238819122314,0.38613519072532654, -0.24817462265491486,0.040208544582128525,-0.068152286112308502,0.24272477626800537,0.17729851603507996,-0.40515622496604919,-0.35936254262924194,0.0082491161301732063,-0.076001256704330444,-0.10951630771160126,-0.18260087072849274,0.0068872217088937759,0.18641312420368195,-0.1989322304725647,0.34425178170204163,-0.014055388048291206,-0.066445961594581604,-0.10492523014545441,0.060072541236877441,0.085185401141643524,-0.15353430807590485,-0.16768231987953186,0.08743508905172348,0.013668661937117577,0.06473725289106369,-0.3456394374370575,0.14203956723213196,0.0028627542778849602,-0.15080441534519196,-0.79366260766983032,-0.12544737756252289,0.19214457273483276,0.21833735704421997,-0.17687395215034485,-0.08352285623550415,-0.48254984617233276,-0.50890654325485229,0.033944733440876007,0.51558113098144531,-0.12880809605121613,0.19397835433483124,-0.012563443742692471,-0.92326229810714722,-0.092002086341381073,0.055214554071426392,0.29076355695724487,0.098216138780117035,0.16705372929573059,-0.26817908883094788,0.0059369327500462532,0.18544791638851166,-0.054829809814691544,0.21395759284496307,0.034904692322015762,-0.040346041321754456,-0.012771277688443661,-0.27390560507774353,-0.22654063999652863,0.01839808002114296,-0.28674045205116272,-0.1416553407907486,0.12673366069793701,0.32292723655700684,-0.06200801208615303,0.17414785921573639,-0.016763253137469292,-0.031468864530324936,0.4157634973526001,0.030067630112171173,0.054961372166872025,-0.017308898270130157,0.10376469045877457,-0.19047613441944122,0.10390378534793854,0.020515941083431244,0.24751347303390503,0.20335829257965088,0.0091924695298075676,0.15226821601390839,-0.10829301178455353,0.084888480603694916,-0.10714654624462128,-0.051998868584632874,-0.17851229012012482,0.16526080667972565,0.021874343976378441,0.12930978834629059,-0.76780021190643311,0.70765447616577148,0.17144598066806793,-0.21492710709571838,-0.096077859401702881,-0.01760745607316494,0.028693715110421181,-0.18358530104160309,-0.18645891547203064, 
};
const TfArray<4, int> tensor_dimension25 = { 4, { 1,3,3,96 } };
const MODEL_SECTION(EI_MODEL_SECTION) ALIGN(16) float tensor_data26[16] = { -7.0867729187011719, 6.2473130226135254, -4.3454446792602539, -1.176784873008728, -5.7770791053771973, 3.8351709842681885, 14.494144439697266, -17.630548477172852, 2.1075127124786377, 7.4807672500610352, 22.757406234741211, 8.2597084045410156, -6.5040369033813477, 0.56962180137634277, -3.7209551334381104, 4.1900272369384766, };
const TfArray<1, int> tensor_dimension26 = { 1, { 16 } };
const MODEL_SECTION(EI_MODEL_SECTION) ALIGN(16) float tensor_data27[6] = { 4.3801603317260742, -6.9471979141235352, -6.4699892997741699, -6.2761054039001465, -6.2857327461242676, -4.9779810905456543, };
const TfArray<1, int> tensor_dimension27 = { 1, { 6 } };
const MODEL_SECTION(EI_MODEL_SECTION) ALIGN(16) float tensor_data28[16*3*3*3] = { 
  /* [0][0][][] */ 4.8747259224958709e-20,3.7147711957476137e-20,2.2560115283226402e-20, 1.8998144703015219e-20,9.99850122558854e-21,2.4239875557561167e-21, 1.4501873620925392e-20,1.3855346346097105e-20,8.9639567732261252e-21, 
  /* [0][1][][] */ 3.8636523968972215e-20,2.4191955223685994e-20,1.3960823183307553e-20, 2.0533141503907886e-20,1.3445754617976975e-20,2.9473941662847144e-21, 2.0706167654773519e-20,1.8024154072018234e-20,1.7330613211593671e-20, 
  /* [0][2][][] */ 3.1181633015346212e-20,1.1348582769897257e-21,-8.6793048605184484e-21, 1.1872147707964976e-20,-1.0257333632515912e-20,-2.2796315737788639e-20, 1.7555312301349726e-20,6.2228341078998947e-21,2.910896437342946e-21, 
  /* [1][0][][] */ 3.9612562656402588,0.013218550942838192,2.677764892578125, -0.12417618185281754,-1.495430588722229,1.5180332660675049, -9.9498987197875977,-9.0294637680053711,-4.7756557464599609, 
  /* [1][1][][] */ 0.33633846044540405,-0.22920110821723938,0.10219962149858475, -1.4795094728469849,0.49085232615470886,-0.075461268424987793, 0.19907090067863464,-2.2345128059387207,0.71363276243209839, 
  /* [1][2][][] */ 0.014930185861885548,1.7085790634155273,0.27386632561683655, 0.056752372533082962,1.0608580112457275,0.38095682859420776, 3.4853653907775879,-1.0098217725753784,1.5188100337982178, 
  /* [2][0][][] */ 1.7090812921524048,-0.54140335321426392,-0.68750554323196411, 3.6140329837799072,5.7235875129699707,-0.60014396905899048, 2.9063975811004639,-1.7868294715881348,0.57171094417572021, 
  /* [2][1][][] */ 0.86351293325424194,0.70100110769271851,-0.34358131885528564, 3.9226195812225342,6.8320765495300293,-2.0487749576568604, 1.7724874019622803,0.15632122755050659,-0.15366767346858978, 
  /* [2][2][][] */ 3.0990636348724365,-3.5588622093200684,1.1272565126419067, 4.4632673263549805,-2.3651123046875,-1.2623805999755859, 2.3473117351531982,-2.7173671722412109,1.0646359920501709, 
  /* [3][0][][] */ 0.082570619881153107,0.39064875245094299,0.02265087328851223, 0.38738042116165161,1.1383466720581055,0.26677709817886353, -0.020334541797637939,0.045665610581636429,-0.068012692034244537, 
  /* [3][1][][] */ 0.35206720232963562,0.51375573873519897,0.10502134263515472, 0.90466600656509399,1.5979615449905396,0.35199284553527832, -0.19523161649703979,-0.26369187235832214,0.032268743962049484, 
  /* [3][2][][] */ 0.16308602690696716,0.09146997332572937,0.084515564143657684, 0.32363244891166687,0.28951409459114075,0.078364796936511993, -0.042681854218244553,-0.077118255198001862,0.0214503463357687, 
  /* [4][0][][] */ 0.22218199074268341,0.32255294919013977,0.028282679617404938, 0.1010095551609993,0.32524517178535461,-0.010819019749760628, -0.018118726089596748,0.05984734371304512,0.015467558987438679, 
  /* [4][1][][] */ 0.215277299284935,0.33858016133308411,0.17776845395565033, 0.14426939189434052,0.42432874441146851,0.086975626647472382, 0.11781827360391617,0.18413905799388885,-0.061024967581033707, 
  /* [4][2][][] */ 0.16552445292472839,0.22052353620529175,0.052009116858243942, 0.13229380548000336,0.3699319064617157,-0.026628430932760239, -0.077311255037784576,0.070062786340713501,0.046729717403650284, 
  /* [5][0][][] */ 0.2841777503490448,-0.030688149854540825,-7.5152955055236816, -0.3365950882434845,0.043825663626194,-6.4390316009521484, -0.42421716451644897,1.8143887519836426,-1.607052206993103, 
  /* [5][1][][] */ -0.18522202968597412,-3.16475510597229,-8.3531284332275391, -0.38031607866287231,-3.0823123455047607,-7.2563095092773438, -0.33398425579071045,0.64655470848083496,-1.5177459716796875, 
  /* [5][2][][] */ -0.34879288077354431,0.41171139478683472,-1.0757412910461426, 0.088505387306213379,-0.095611415803432465,-0.50106078386306763, -0.011141996830701828,0.82602757215499878,-0.58113270998001099, 
  /* [6][0][][] */ 1.1699349880218506,-3.406982421875,1.72548508644104, 2.4032919406890869,-4.6147527694702148,2.0677320957183838, 0.36500886082649231,-1.1391963958740234,0.39388999342918396, 
  /* [6][1][][] */ 1.8036879301071167,-5.1231026649475098,3.1660511493682861, 3.3259787559509277,-6.6729907989501953,3.7895171642303467, 0.324209064245224,-1.5078259706497192,0.88360518217086792, 
  /* [6][2][][] */ 1.1190568208694458,-1.7670966386795044,0.76164305210113525, 0.83625692129135132,-2.2117319107055664,1.4629471302032471, -0.64047276973724365,0.43340727686882019,0.0076756780035793781, 
  /* [7][0][][] */ -2.3103909492492676,1.5861917734146118,0.32926613092422485, -8.4525213241577148,-3.2556850910186768,-0.032605532556772232, -1.4706281423568726,2.4744260311126709,0.39894258975982666, 
  /* [7][1][][] */ -1.1019989252090454,-0.82503038644790649,-0.13621968030929565, -11.57247257232666,-8.6932334899902344,-1.0336810350418091, -0.33532196283340454,-0.39651393890380859,0.35925915837287903, 
  /* [7][2][][] */ -1.7969220876693726,2.6719377040863037,-0.77447456121444702, -0.85994523763656616,0.95286685228347778,-0.10309111326932907, -1.3790496587753296,2.4155800342559814,-0.11370082199573517, 
  /* [8][0][][] */ -0.14510348439216614,-0.14040367305278778,-0.14822787046432495, -0.14503584802150726,-0.13991901278495789,-0.15051931142807007, -0.12236519157886505,-0.11529187858104706,-0.11312680691480637, 
  /* [8][1][][] */ -0.14186491072177887,-0.13967683911323547,-0.14747855067253113, -0.14269281923770905,-0.13971705734729767,-0.14975422620773315, -0.11945471912622452,-0.11428193002939224,-0.11312264949083328, 
  /* [8][2][][] */ -0.12119020521640778,-0.1196916475892067,-0.13102927803993225, -0.11847992241382599,-0.11600343137979507,-0.13042928278446198, -0.051117591559886932,-0.090108208358287811,-0.098529063165187836, 
  /* [9][0][][] */ -0.38392844796180725,-0.11889643967151642,0.031286373734474182, -0.24493962526321411,-0.1249125599861145,-0.096742622554302216, 0.058254163712263107,0.056371953338384628,-0.1853560209274292, 
