/*
 * Copyright (c) 2025 EdgeImpulse Inc.
 *
 * Generated by Edge Impulse and licensed under the applicable Edge Impulse
 * Terms of Service. Community and Professional Terms of Service
 * (https://edgeimpulse.com/legal/terms-of-service) or Enterprise Terms of
 * Service (https://edgeimpulse.com/legal/enterprise-terms-of-service),
 * according to your product plan subscription (the “License”).
 *
 * This software, documentation and other associated files (collectively referred
 * to as the “Software”) is a single SDK variation generated by the Edge Impulse
 * platform and requires an active paid Edge Impulse subscription to use this
 * Software for any purpose.
 *
 * You may NOT use this Software unless you have an active Edge Impulse subscription
 * that meets the eligibility requirements for the applicable License, subject to
 * your full and continued compliance with the terms and conditions of the License,
 * including without limitation any usage restrictions under the applicable License.
 *
 * If you do not have an active Edge Impulse product plan subscription, or if use
 * of this Software exceeds the usage limitations of your Edge Impulse product plan
 * subscription, you are not permitted to use this Software and must immediately
 * delete and erase all copies of this Software within your control or possession.
 * Edge Impulse reserves all rights and remedies available to enforce its rights.
 *
 * Unless required by applicable law or agreed to in writing, the Software is
 * distributed on an "AS IS" BASIS, WITHOUT WARRANTIES OR CONDITIONS OF ANY KIND,
 * either express or implied. See the License for the specific language governing
 * permissions, disclaimers and limitations under the License.
 */
// Generated on: 14.03.2025 12:46:01

#include <stdio.h>
#include <stdlib.h>
#include "edge-impulse-sdk/tensorflow/lite/c/builtin_op_data.h"
#include "edge-impulse-sdk/tensorflow/lite/c/common.h"
#include "edge-impulse-sdk/tensorflow/lite/micro/micro_mutable_op_resolver.h"
#include "edge-impulse-sdk/porting/ei_classifier_porting.h"

#if EI_CLASSIFIER_PRINT_STATE
#if defined(__cplusplus) && EI_C_LINKAGE == 1
extern "C" {
    extern void ei_printf(const char *format, ...);
}
#else
extern void ei_printf(const char *format, ...);
#endif
#endif

#define STRINGIZE(x) #x
#define STRINGIZE_VALUE_OF(x) STRINGIZE(x)

#if defined (__GNUC__)  /* GNU compiler */
#define ALIGN(X) __attribute__((aligned(X)))
#define DEFINE_SECTION(x) __attribute__((section(x)))
#elif defined (_MSC_VER)
#define ALIGN(X) __declspec(align(X))
#elif defined (__TASKING__) /* TASKING Compiler */
#define ALIGN(X) __align(X)
#define DEFINE_SECTION(x) __attribute__((section(x)))
#elif defined (__ARMCC_VERSION) /* Arm Compiler */
#define ALIGN(X) __ALIGNED(x)
#define DEFINE_SECTION(x) __attribute__((section(x)))
#elif defined (__ICCARM__) /* IAR Compiler */
#define ALIGN(x) __attribute__((aligned(x)))
#define DEFINE_SECTION(x) __attribute__((section(x)))
#elif defined (__clang__) /* LLVM/Clang Compiler */
#define ALIGN(X) __ALIGNED(x)
#define DEFINE_SECTION(x) __attribute__((section(x)))
#endif

#if defined(EI_MODEL_SECTION) && (defined(__GNUC__) || defined(__clang__))
#define MODEL_SECTION(X) __attribute__((section(STRINGIZE_VALUE_OF(X))))
#else
#define MODEL_SECTION(X)
#endif

#ifndef EI_MAX_SCRATCH_BUFFER_COUNT
#ifndef CONFIG_IDF_TARGET_ESP32S3
#define EI_MAX_SCRATCH_BUFFER_COUNT 4
#else
#define EI_MAX_SCRATCH_BUFFER_COUNT 4
#endif // CONFIG_IDF_TARGET_ESP32S3
#endif // EI_MAX_SCRATCH_BUFFER_COUNT

#ifndef EI_MAX_OVERFLOW_BUFFER_COUNT
#define EI_MAX_OVERFLOW_BUFFER_COUNT 10
#endif // EI_MAX_OVERFLOW_BUFFER_COUNT

using namespace tflite;
using namespace tflite::ops;
using namespace tflite::ops::micro;

namespace {

#if defined(EI_CLASSIFIER_ALLOCATION_STATIC_HIMAX) || defined(EI_CLASSIFIER_ALLOCATION_STATIC_HIMAX_GNU)
constexpr int kTensorArenaSize = 906464;
#else
constexpr int kTensorArenaSize = 905440;
#endif

#if defined(EI_CLASSIFIER_ALLOCATION_STATIC)
#if defined (EI_TENSOR_ARENA_LOCATION)
uint8_t tensor_arena[kTensorArenaSize] ALIGN(16) DEFINE_SECTION(STRINGIZE_VALUE_OF(EI_TENSOR_ARENA_LOCATION));
#else
uint8_t tensor_arena[kTensorArenaSize] ALIGN(16);
#endif
#elif defined(EI_CLASSIFIER_ALLOCATION_STATIC_HIMAX)
#pragma Bss(".tensor_arena")
uint8_t tensor_arena[kTensorArenaSize] ALIGN(16);
#pragma Bss()
#elif defined(EI_CLASSIFIER_ALLOCATION_STATIC_HIMAX_GNU)
uint8_t tensor_arena[kTensorArenaSize] ALIGN(16) __attribute__((section(".tensor_arena")));
#else
#define EI_CLASSIFIER_ALLOCATION_HEAP 1
uint8_t* tensor_arena = NULL;
#endif

static uint8_t* tensor_boundary;
static uint8_t* current_location;

template <int SZ, class T> struct TfArray {
  int sz; T elem[SZ];
};

enum used_operators_e {
  OP_CONV_2D, OP_DEPTHWISE_CONV_2D, OP_PAD, OP_ADD, OP_SOFTMAX,  OP_LAST
};

struct TensorInfo_t { // subset of TfLiteTensor used for initialization from constant memory
  TfLiteAllocationType allocation_type;
  TfLiteType type;
  void* data;
  TfLiteIntArray* dims;
  size_t bytes;
};

typedef struct {
  TfLiteTensor tensor;
  int16_t index;
} TfLiteTensorWithIndex;

typedef struct {
  TfLiteEvalTensor tensor;
  int16_t index;
} TfLiteEvalTensorWithIndex;

TfLiteContext ctx{};
static const int MAX_TFL_TENSOR_COUNT = 4;
static TfLiteTensorWithIndex tflTensors[MAX_TFL_TENSOR_COUNT];
static const int MAX_TFL_EVAL_COUNT = 4;
static TfLiteEvalTensorWithIndex tflEvalTensors[MAX_TFL_EVAL_COUNT];
TfLiteRegistration registrations[OP_LAST];

namespace g0 {
const TfArray<4, int> tensor_dimension0 = { 4, { 1,96,96,3 } };
const MODEL_SECTION(EI_MODEL_SECTION) ALIGN(16) float tensor_data1[16] = { -1.40682053565979, 2.8284239768981934, -19.811054229736328, 0.20833826065063477, 2.8306093215942383, 6.8650016784667969, 3.7730662822723389, 5.1382789611816406, 1.9907975196838379, 1.2343811988830566, 3.0790400505065918, 5.0103397369384766, -1.2384405136108398, 3.8648576736450195, 2.5229296684265137, -0.13350634276866913, };
const TfArray<1, int> tensor_dimension1 = { 1, { 16 } };
const MODEL_SECTION(EI_MODEL_SECTION) ALIGN(16) float tensor_data2[16] = { -0.30109995603561401, 2.6289236545562744, 4.0014843940734863, 3.4945757389068604, 1.7965505123138428, 3.3146696090698242, 5.239588737487793, 3.8872199058532715, -0.16771990060806274, 1.8394571542739868, 5.8413801193237305, 10.551190376281738, -0.32396247982978821, 6.2384328842163086, 2.18168044090271, -0.41642889380455017, };
const TfArray<1, int> tensor_dimension2 = { 1, { 16 } };
const MODEL_SECTION(EI_MODEL_SECTION) ALIGN(16) float tensor_data3[48] = { 2.0848829746246338, 0.035897895693778992, 3.1960954666137695, 1.8429276943206787, 2.0001688003540039, 2.0797247886657715, 3.8144650459289551, -0.058605242520570755, 0.011304240673780441, -0.7096824049949646, 1.5190855264663696, 0.83191084861755371, 2.1787936687469482, -0.16218365728855133, 2.6470613479614258, 3.2843930721282959, -0.1309230625629425, -0.73659420013427734, -0.14598186314105988, 3.8752384185791016, 1.0350563526153564, -0.098336979746818542, 0.031154384836554527, 0.60867780447006226, 3.7484691143035889, -0.58457618951797485, 0.15925158560276031, 1.2228155136108398, 1.0953178405761719, 2.9274518489837646, 2.9576046466827393, 2.3502132892608643, 0.76286733150482178, 3.2328476905822754, 0.14744581282138824, -1.1851987838745117, 1.5574022531509399, 1.2398558855056763, -0.33746176958084106, 3.4744312763214111, 2.8485767841339111, 2.1941847801208496, -0.16630846261978149, -0.83178806304931641, 5.0027670860290527, 0.083593033254146576, 2.8228893280029297, 0.86238211393356323, };
const TfArray<1, int> tensor_dimension3 = { 1, { 48 } };
const MODEL_SECTION(EI_MODEL_SECTION) ALIGN(16) float tensor_data4[48] = { 6.0037307739257812, 3.936161994934082, 12.408210754394531, 4.7732572555541992, 0.034310519695281982, 2.3227629661560059, 0.32545241713523865, 1.6127498149871826, 2.295076847076416, 0.86451548337936401, 2.3505105972290039, 0.20415425300598145, -8.3997364044189453, -0.70510011911392212, 2.5686302185058594, 0.054468005895614624, -0.56034213304519653, 0.56910997629165649, 0.10303276777267456, 0.30960160493850708, -1.5385481119155884, 0.085523605346679688, 5.8905429840087891, 1.2468336820602417, -1.7247569561004639, 2.8044300079345703, 1.3538613319396973, 0.87635660171508789, -0.71579337120056152, 0.84769546985626221, -0.34684675931930542, -12.260281562805176, 2.4641797542572021, 1.0478219985961914, 2.4742660522460938, 0.24599623680114746, 0.95234370231628418, -0.10145711898803711, 4.6168475151062012, -2.439826488494873, 0.96107810735702515, -4.8649749755859375, 0.24600845575332642, 1.0187908411026001, -0.308134526014328, 5.9193897247314453, 0.40853333473205566, -2.7864162921905518, };
const TfArray<1, int> tensor_dimension4 = { 1, { 48 } };
const MODEL_SECTION(EI_MODEL_SECTION) ALIGN(16) float tensor_data5[48] = { 4.3180370330810547, 2.2949666976928711, 1.5385867357254028, 3.2323925495147705, 2.2168221473693848, 5.0196247100830078, -1.9263594150543213, -0.24424532055854797, 0.57040363550186157, 1.3871761560440063, 2.2410073280334473, 0.14255046844482422, 0.97316169738769531, -0.45945486426353455, 0.43284773826599121, -3.6712052822113037, 1.5992410182952881, 4.2971434593200684, -0.50440037250518799, 2.6821496486663818, 1.2104774713516235, 0.97112816572189331, 3.9744899272918701, -0.548908531665802, 1.2028622627258301, 1.1863151788711548, 4.0443916320800781, 3.6399984359741211, -0.078951083123683929, -2.6104822158813477, 0.0374293252825737, 0.83207684755325317, -1.9727461338043213, 2.2187638282775879, 1.0056923627853394, 1.8484940528869629, 3.676025390625, 1.313996434211731, 2.3194060325622559, 4.5519161224365234, -0.60302329063415527, 2.7527787685394287, 0.47714966535568237, 1.4859412908554077, 1.203228235244751, 1.1022939682006836, -1.1127603054046631, 2.6423916816711426, };
const TfArray<1, int> tensor_dimension5 = { 1, { 48 } };
const MODEL_SECTION(EI_MODEL_SECTION) ALIGN(16) float tensor_data6[48] = { -16.642999649047852, -0.041523244231939316, 1.6432745456695557, -0.39317381381988525, 0.78052991628646851, -0.51555681228637695, 1.2372387647628784, 3.4175589084625244, 0.27806800603866577, 4.7910313606262207, -0.19033932685852051, 4.2229595184326172, -1.8304610252380371, -0.19802922010421753, 2.4999856948852539, 1.4913626909255981, 0.03788912296295166, 3.9543256759643555, 2.3054423332214355, 1.7861618995666504, 0.06559763103723526, -0.094923131167888641, 0.11727716028690338, 1.9761782884597778, -1.2609306573867798, 3.6968855857849121, 28.829273223876953, 3.4172942638397217, 0.74245846271514893, 0.79233735799789429, -0.085241705179214478, 0.16830669343471527, 0.90368044376373291, 2.8741085529327393, -1.425265908241272, 2.5192000865936279, -4.0614008903503418, 2.5701041221618652, -6.2648591995239258, 2.4338274002075195, 3.1396734714508057, 1.0362715721130371, 1.6394562721252441, -0.18320451676845551, 2.371267557144165, 0.3190503716468811, 0.32940027117729187, -0.011562488973140717, };
const TfArray<1, int> tensor_dimension6 = { 1, { 48 } };
const MODEL_SECTION(EI_MODEL_SECTION) ALIGN(16) float tensor_data7[48] = { 0.22755396366119385, 0.71548044681549072, 0.57620316743850708, 0.14990279078483582, 2.2131140232086182, 4.0352673530578613, 1.0713341236114502, -0.034803282469511032, -0.28815102577209473, -0.39833971858024597, 1.0167392492294312, 0.29288056492805481, 1.2505148649215698, 0.77605772018432617, 3.5885276794433594, 1.2400789260864258, 0.49861487746238708, -0.37045556306838989, -0.039952203631401062, 0.90876388549804688, -0.57419693470001221, 2.5439674854278564, 3.6733455657958984, 1.6030224561691284, 1.5686180591583252, 0.063015013933181763, 6.9428586959838867, 1.8879889249801636, 1.7273743152618408, -0.22043834626674652, 2.5941495895385742, 1.1900269985198975, 0.39119762182235718, -0.048546928912401199, 3.7260935306549072, 1.8049448728561401, -1.4086062908172607, 0.088564261794090271, -0.15166652202606201, 1.863711953163147, 0.15160338580608368, -0.090108133852481842, -0.27489554882049561, 0.010227736085653305, 1.9382001161575317, 1.3828310966491699, 0.24947933852672577, 1.1680011749267578, };
const TfArray<1, int> tensor_dimension7 = { 1, { 48 } };
const MODEL_SECTION(EI_MODEL_SECTION) ALIGN(16) float tensor_data8[48] = { 0.36238950490951538, 1.3079710006713867, -0.10473732650279999, 2.2899050712585449, 0.56159454584121704, 8.0476245880126953, -0.34703150391578674, 5.7153992652893066, 0.21652597188949585, 1.3356637954711914, 1.2457393407821655, 0.060038089752197266, 0.093270778656005859, 1.1878210306167603, -0.16630387306213379, -0.53181850910186768, -0.028136804699897766, 0.055763781070709229, 0.34067243337631226, -0.27114790678024292, 0.083592057228088379, -0.31266874074935913, -0.0929708331823349, -3.3371951580047607, -0.46705618500709534, 4.3346757888793945, 4.357419490814209, 7.2711009979248047, 0.35357695817947388, 0.31375730037689209, -0.16329295933246613, 0.04131045937538147, 1.1715360879898071, 0.122700035572052, 0.96394705772399902, 0.26475334167480469, 5.7945928573608398, 0.077205419540405273, 5.7206306457519531, 0.16601774096488953, 0.12761867046356201, 5.8523335456848145, 0.050079584121704102, 0.29753249883651733, 1.741584300994873, -0.013472467660903931, 0.086319923400878906, 1.5892853736877441, };
const TfArray<1, int> tensor_dimension8 = { 1, { 48 } };
const MODEL_SECTION(EI_MODEL_SECTION) ALIGN(16) float tensor_data9[96] = { 2.6260359287261963, 0.27880901098251343, 1.3329119682312012, -0.51590812206268311, 1.5809696912765503, 0.95751190185546875, 3.1532895565032959, 3.5522184371948242, -0.53245824575424194, 1.8264601230621338, 1.4194713830947876, 0.83541989326477051, 2.6880381107330322, 4.8030910491943359, -0.10965360701084137, -0.69254285097122192, 2.2039754390716553, 2.2977392673492432, 0.41522237658500671, -0.11803388595581055, -0.3082403838634491, 2.5030343532562256, 1.5104885101318359, 0.74862301349639893, 1.7620663642883301, 2.1120870113372803, 1.4742207527160645, 0.90749382972717285, 0.06031099334359169, -0.019742732867598534, 1.4695903062820435, 1.8738845586776733, 1.9908355474472046, 1.0938518047332764, 1.6574417352676392, -0.30034694075584412, 2.2991743087768555, 2.5794131755828857, 0.41913250088691711, 0.98178285360336304, 0.49945586919784546, 1.8848921060562134, 2.1448063850402832, 0.75394350290298462, 1.1176527738571167, 3.2408943176269531, 2.8293924331665039, 1.4582897424697876, 1.6326069831848145, 0.90057563781738281, 0.16401176154613495, -0.66011613607406616, 2.6414628028869629, 1.6099388599395752, 2.278409481048584, 1.8713036775588989, -0.08274686336517334, 1.7848321199417114, 0.79817837476730347, 1.654879093170166, 1.6921489238739014, 1.3657469749450684, 1.0751945972442627, 2.7268800735473633, 1.0520044565200806, 1.1669505834579468, 1.9251132011413574, -0.37704759836196899, 2.7032883167266846, 1.1226723194122314, 1.9690057039260864, -0.45234009623527527, -0.34168753027915955, 1.3356037139892578, 0.42576286196708679, 1.2488875389099121, 2.3743016719818115, 4.4555835723876953, 1.6729410886764526, -1.2534114122390747, 1.0700587034225464, -2.0804648399353027, -0.39002889394760132, 0.26021766662597656, 1.5808032751083374, 1.5869766473770142, 1.6129313707351685, 1.3424562215805054, 1.7098987102508545, 1.6083798408508301, 1.3215316534042358, 1.6354669332504272, 2.1111166477203369, 2.7750020027160645, -2.9352133274078369, 3.2730751037597656, };
const TfArray<1, int> tensor_dimension9 = { 1, { 96 } };
const MODEL_SECTION(EI_MODEL_SECTION) ALIGN(16) float tensor_data10[96] = { 1.9638302326202393, -0.91613686084747314, 0.71546244621276855, 2.1522617340087891, -0.43571341037750244, -0.7075536847114563, -2.9925711154937744, 0.45693689584732056, -0.34775227308273315, 0.20169703662395477, 0.48863399028778076, -0.6133999228477478, -0.028327770531177521, -1.9850056171417236, 1.0323837995529175, -0.79971039295196533, -0.023071784526109695, 5.3072853088378906, 1.5868549346923828, 0.51923465728759766, 0.13103008270263672, -0.51323360204696655, 0.2390170693397522, -0.084369659423828125, 3.5130200386047363, -0.16819930076599121, -0.059754170477390289, -0.62238293886184692, -0.53785759210586548, -0.78341615200042725, 0.8268248438835144, -1.5507621765136719, -0.16379500925540924, -0.093269139528274536, -0.12608945369720459, 2.3089447021484375, 0.50686180591583252, -0.42527815699577332, 1.0846387147903442, 0.037795647978782654, -0.0028883218765258789, 0.65389537811279297, -3.3119463920593262, -1.266663670539856, -1.450838565826416, 3.1072783470153809, 0.17025436460971832, 3.4486443996429443, 2.6426987648010254, -2.2743804454803467, -0.025046646595001221, 1.3001710176467896, 1.6979680061340332, -0.026602059602737427, -1.322370171546936, 1.0445466041564941, -3.9158883094787598, 0.45057633519172668, 0.17528071999549866, -0.60093849897384644, -0.37110051512718201, -0.15479142963886261, -3.3709321022033691, -0.11264444142580032, 0.20353159308433533, 2.9796450138092041, 2.2249805927276611, 1.7732329368591309, -3.8866629600524902, -0.018575102090835571, -1.8460354804992676, -0.20161630213260651, 5.7286319732666016, 1.5314031839370728, 0.14919762313365936, -0.040286511182785034, 9.3478355407714844, 1.6780115365982056, -0.10420427471399307, -1.8559620380401611, -0.24280804395675659, -2.1352794170379639, 0.053464680910110474, -0.47319293022155762, 0.13873143494129181, 0.18624389171600342, 0.14514884352684021, -0.033270508050918579, 0.39834806323051453, -0.29846739768981934, -0.036719761788845062, -0.08092576265335083, -0.1677633672952652, -0.18010473251342773, 1.2385611534118652, 3.7621378898620605, };
const TfArray<1, int> tensor_dimension10 = { 1, { 96 } };
const MODEL_SECTION(EI_MODEL_SECTION) ALIGN(16) float tensor_data11[96] = { 0.38766556978225708, 1.4464019536972046, 1.9095495939254761, 2.2777266502380371, 2.9557456970214844, -0.99311059713363647, -0.78643077611923218, 1.62139892578125, 2.337336540222168, -1.3908981084823608, 2.7003633975982666, 0.90090274810791016, 1.2918573617935181, 2.3268964290618896, 2.3837776184082031, 0.59274256229400635, 0.48778802156448364, 1.2613779306411743, 2.2468075752258301, 1.2428672313690186, -0.052924245595932007, 0.22712203860282898, 2.0006771087646484, -0.62650340795516968, 2.5901534557342529, 0.010737097822129726, 2.2610530853271484, 1.4223425388336182, 1.5919325351715088, 3.5356583595275879, 2.8152270317077637, 2.4642837047576904, 1.6809854507446289, -0.2293180525302887, 2.0178403854370117, 0.58837056159973145, 0.47471565008163452, 1.4789218902587891, 2.7563736438751221, -0.57784497737884521, 1.8735716342926025, 1.5474898815155029, 2.7482798099517822, -1.0420303344726562, 3.2861692905426025, 1.5039255619049072, 1.6855450868606567, 2.6492102146148682, 4.0921130180358887, 2.0433862209320068, -0.11951154470443726, 1.6851460933685303, -1.0720808506011963, -0.069181516766548157, -1.0055593252182007, 1.0729106664657593, -0.048803724348545074, 1.8661396503448486, 2.0540056228637695, 1.4868719577789307, 1.6005991697311401, 1.3890104293823242, 1.4865963459014893, 1.0270168781280518, 2.4636073112487793, 1.9620026350021362, 1.2752197980880737, -1.328635573387146, 1.7101224660873413, -0.74569159746170044, 1.0914379358291626, 1.6139086484909058, 2.0810589790344238, 1.0374083518981934, -1.5058307647705078, -1.3207675218582153, 1.6529170274734497, 0.083397619426250458, 0.78154003620147705, -0.36542671918869019, 2.0046794414520264, 1.6517995595932007, 0.83857822418212891, 1.9595308303833008, 1.2040594816207886, 0.078725129365921021, 2.3559629917144775, 3.8475205898284912, 1.3942843675613403, 2.2751569747924805, 1.2648694515228271, -0.076806612312793732, 1.4674781560897827, 1.5426441431045532, 1.0987671613693237, 1.7062945365905762, };
const TfArray<1, int> tensor_dimension11 = { 1, { 96 } };
const MODEL_SECTION(EI_MODEL_SECTION) ALIGN(16) float tensor_data12[96] = { 2.3127343654632568, 5.6651730537414551, 0.016823217272758484, 0.096668154001235962, 3.4999830722808838, -0.7916904091835022, 0.021384656429290771, -0.096636563539505005, 1.4475007057189941, 2.4098432064056396, -1.1948349475860596, 0.00075301527976989746, 0.22321131825447083, 1.1521662473678589, 1.9732705354690552, -1.4934773445129395, -0.88186269998550415, 0.029996480792760849, -0.18000972270965576, 1.1915411949157715, -0.81941688060760498, 0.70993125438690186, -0.3055146336555481, 0.69181156158447266, 2.0637698173522949, 0.0026358366012573242, -1.1586586236953735, 2.9911055564880371, 0.90548336505889893, -8.7519674301147461, 0.87526041269302368, 5.0730185508728027, 2.7868692874908447, -1.61689293384552, 0.48653006553649902, 0.2867894172668457, -0.13374316692352295, 0.0017386078834533691, 1.1539344787597656, -0.7310326099395752, -1.2951860427856445, -0.040770217776298523, -2.9154105186462402, -0.023173049092292786, 11.707075119018555, -0.06191755086183548, 1.3998458385467529, -0.214424729347229, -9.0962333679199219, 0.022317372262477875, -0.05755952000617981, -0.096821695566177368, -0.52102982997894287, 2.7705769538879395, -0.86337661743164062, 1.650475025177002, 2.8730869293212891, 0.21454846858978271, 1.4420952796936035, -0.025927141308784485, -2.7280893325805664, -0.22817955911159515, 0.23824098706245422, -0.082663409411907196, -0.36199396848678589, 1.7793958187103271, -0.14512872695922852, -2.1920368671417236, -0.74236953258514404, 0.40378528833389282, 0.18980172276496887, -0.4915100634098053, 0.26119899749755859, 0.062555760145187378, -0.76238203048706055, -1.8987408876419067, -0.13035401701927185, -0.17824497818946838, 2.5781819820404053, -1.2712873220443726, -1.5252041816711426, -2.9522876739501953, -0.11267386376857758, 0.067641586065292358, 3.5537123680114746, -1.5288727283477783, -0.71271228790283203, -13.195001602172852, -1.848035454750061, 1.2185823917388916, -0.8943331241607666, 1.0526266098022461, -0.015093214809894562, -0.40834727883338928, -1.0459482669830322, -0.050295025110244751, };
const TfArray<1, int> tensor_dimension12 = { 1, { 96 } };
const MODEL_SECTION(EI_MODEL_SECTION) ALIGN(16) float tensor_data13[96] = { -0.6173366904258728, 1.5621240139007568, 2.4103617668151855, 0.9279327392578125, -1.0126774311065674, -1.5079259872436523, 3.3068621158599854, 0.71433758735656738, 0.60660469532012939, -0.66720384359359741, 2.0035276412963867, -0.054900862276554108, -2.5588409900665283, 2.7736999988555908, 3.0813188552856445, 1.139531135559082, 1.8733978271484375, 1.4521516561508179, -1.9735679626464844, -1.6748192310333252, 0.63359564542770386, 2.7212402820587158, 3.0651180744171143, 1.6842803955078125, 0.19547607004642487, 0.46019574999809265, 3.0040442943572998, 1.0944494009017944, 0.49939796328544617, -2.0034515857696533, 1.4593319892883301, -0.78317129611968994, -0.042292606085538864, 1.1594901084899902, 0.072174437344074249, 0.24950887262821198, 1.924208402633667, 1.0755789279937744, -0.62226408720016479, 1.7785845994949341, 1.2932347059249878, 2.5594856739044189, 1.5033578872680664, 2.3181731700897217, 1.918413519859314, 1.004576563835144, 0.51685762405395508, 2.1756365299224854, 1.3574231863021851, -1.3044871091842651, -1.557442307472229, 0.10741228610277176, -0.13583338260650635, -0.2963164746761322, 0.77890479564666748, 0.00066717970184981823, 0.11980944126844406, -0.28255769610404968, -1.5425156354904175, 1.8860142230987549, -0.75686806440353394, 0.64712423086166382, -0.27799528837203979, -0.76478517055511475, -1.8631834983825684, 1.9235808849334717, 2.1865534782409668, 0.41785845160484314, -1.1314876079559326, 0.32384055852890015, 0.39994755387306213, 0.51116853952407837, 1.3588918447494507, -0.40017184615135193, 0.1987854540348053, 2.1417787075042725, -0.12630443274974823, 1.8415656089782715, 1.8267602920532227, -0.15481019020080566, 1.4726735353469849, 0.32995977997779846, -0.078157216310501099, 0.25799533724784851, 1.8134435415267944, 2.3688070774078369, 2.369847297668457, 0.29877942800521851, 0.70705282688140869, 2.0183060169219971, -0.097764834761619568, -1.9695949554443359, 0.23166055977344513, -1.0419117212295532, -0.60393160581588745, -0.40407565236091614, };
const TfArray<1, int> tensor_dimension13 = { 1, { 96 } };
const MODEL_SECTION(EI_MODEL_SECTION) ALIGN(16) float tensor_data14[32] = { -0.0010079307248815894, -0.0041454313322901726, -0.0062335962429642677, -0.0015264023095369339, 0.041308589279651642, 0.00070134887937456369, -0.0019625767599791288, -0.0055651217699050903, 0.016101324930787086, 0.039852038025856018, -0.00022527010878548026, -0.015119533985853195, 0.0026925348211079836, -0.0011694401036947966, 0.053185611963272095, -0.010397214442491531, -0.0030765880364924669, -0.013184660114347935, 0.0013044924708083272, 0.0046600168570876122, -0.00057977420510724187, -0.0046836342662572861, 0.023461105301976204, 0.042328968644142151, -0.0019205025164410472, -0.0078755132853984833, -0.0093909716233611107, -0.014191039837896824, 0.050186038017272949, -0.0018882908625528216, -0.016682561486959457, -0.012975945137441158, };
const TfArray<1, int> tensor_dimension14 = { 1, { 32 } };
const MODEL_SECTION(EI_MODEL_SECTION) ALIGN(16) float tensor_data15[1*3*3*16] = { 
  /* [0][0][][] */ -8.5695571899414062,0.078290633857250214,-0.37223231792449951,-1.4676449298858643,0.2527136504650116,-0.075000688433647156,1.2349374294281006,-0.19781047105789185,-0.091048426926136017,-0.033206958323717117,-0.064088962972164154,0.88628220558166504,-3.9252877235412598,0.043550238013267517,0.35385456681251526,-12.109872817993164, 4.0267438888549805,0.10432063788175583,-0.57341301441192627,1.4721629619598389,0.82661086320877075,-0.14198265969753265,1.970761775970459,-0.33082324266433716,-0.085309736430644989,1.3484517335891724,-1.0474072694778442,1.5502212047576904,-3.2424850463867188,0.049827318638563156,0.834514319896698,-4.0818142890930176, 1.9072631597518921,-0.10498619079589844,0.40838843584060669,-0.024468477815389633,-0.46932849287986755,0.07515089213848114,-1.4726451635360718,0.20163328945636749,-0.094781920313835144,-0.29002165794372559,0.030397647991776466,-0.46016725897789001,1.895155668258667,0.010459779761731625,-0.67017018795013428,-4.7821164131164551, 
  /* [0][1][][] */ -10.087335586547852,0.54103851318359375,-0.10214263200759888,0.15490156412124634,-0.28315979242324829,0.017663523554801941,-0.44855695962905884,0.035262160003185272,-0.028195487335324287,0.0048972968943417072,0.025316920131444931,-3.340526819229126,-1.515388011932373,0.080284580588340759,-0.19686701893806458,-2.3038740158081055, -6.2179684638977051,-0.17836429178714752,-0.2595653235912323,-0.16970130801200867,-0.048194032162427902,-0.028662510216236115,0.1187620684504509,-0.072668224573135376,-0.10883444547653198,-0.94517266750335693,0.17136803269386292,-0.38456892967224121,-3.2171955108642578,-1.2319231033325195,0.0032144489232450724,3.8089182376861572, 1.1119179725646973,0.0028017882723361254,0.29201215505599976,0.023148845881223679,0.018193906173110008,0.037649519741535187,-0.3980192244052887,0.085975430905818939,-0.12735918164253235,0.068604223430156708,-0.014943811111152172,0.063780441880226135,-0.66196262836456299,0.11216222494840622,-0.027172885835170746,7.1796369552612305, 
  /* [0][2][][] */ -9.1553964614868164,-0.30962544679641724,0.30708476901054382,0.024356774985790253,-0.040513686835765839,0.043386325240135193,-0.61468398571014404,0.13427357375621796,-0.07784995436668396,0.0025809842627495527,-0.0018971697427332401,0.11139056831598282,1.2398595809936523,0.015662748366594315,-0.1794084757566452,3.7542333602905273, 1.8149527311325073,-0.01877586729824543,0.13851609826087952,-0.019546911120414734,-0.17448078095912933,0.044560682028532028,-0.53565293550491333,0.052923187613487244,-0.12682472169399261,-0.13924631476402283,-0.0022036714944988489,2.5498466491699219,-1.784921407699585,-0.0021608683746308088,-0.18948714435100555,-18.429813385009766, 1.6327332258224487,-0.031484257429838181,0.083201341331005096,-0.0013371584936976433,0.027571134269237518,0.015783380717039108,0.13474723696708679,0.056999415159225464,-0.11564645171165466,0.046360678970813751,-0.0068430444225668907,-3.9032349586486816,3.3074154853820801,0.023709490895271301,0.10999821871519089,-21.090656280517578, 
};
const TfArray<4, int> tensor_dimension15 = { 4, { 1,3,3,16 } };
const MODEL_SECTION(EI_MODEL_SECTION) ALIGN(16) float tensor_data16[8] = { -0.75463676452636719, -92.578346252441406, -21.042573928833008, -14.979460716247559, -37.714511871337891, -4.4454555511474609, -38.590282440185547, -25.96531867980957, };
const TfArray<1, int> tensor_dimension16 = { 1, { 8 } };
const MODEL_SECTION(EI_MODEL_SECTION) ALIGN(16) float tensor_data17[1*3*3*48] = { 
  /* [0][0][][] */ -0.13853897154331207,-0.06308329850435257,-0.057282894849777222,-0.077804408967494965,0.044496126472949982,-0.28724139928817749,-0.42377892136573792,-0.15537846088409424,-0.08954322338104248,-0.071276150643825531,0.029000969603657722,0.08239678293466568,0.25466948747634888,-16.692045211791992,0.32630041241645813,-0.35796070098876953,-13.208820343017578,-0.069804050028324127,0.14850404858589172,-0.043139398097991943,0.0010063080117106438,-0.44420677423477173,-0.56992614269256592,-0.12802834808826447,-0.13170929253101349,-0.58047604560852051,-0.09171692281961441,-0.039540432393550873,0.91712081432342529,0.034433279186487198,0.18641422688961029,0.28144356608390808,-1.3039854764938354,-0.038103673607110977,-0.027748877182602882,0.43269744515419006,0.013672526925802231,0.87577533721923828,-0.17442917823791504,0.30781269073486328,-0.22180458903312683,-0.10365840047597885,0.51515215635299683,-0.050113935023546219,-0.016291109845042229,-0.1206304207444191,-0.85922908782958984,0.57605123519897461, 0.24443168938159943,0.033136900514364243,-0.22820942103862762,-0.13303345441818237,0.32957980036735535,-0.92697048187255859,-0.68482762575149536,-0.18300594389438629,0.20673632621765137,-0.10766322165727615,-0.39014387130737305,0.13645993173122406,0.30005013942718506,-19.226551055908203,-0.0013990270672366023,0.53294575214385986,-6.057316780090332,-0.093015991151332855,0.23566094040870667,0.043374594300985336,0.049072287976741791,-0.69744205474853516,-0.65407109260559082,-0.11561227589845657,-0.013386697508394718,-0.58231407403945923,-0.17529413104057312,-0.073627211153507233,-0.67172920703887939,0.047872059047222137,-0.11192822456359863,0.5428892970085144,0.28877729177474976,-0.054886370897293091,0.23343159258365631,0.68653392791748047,0.010130781680345535,1.3174612522125244,-0.12785609066486359,0.50185757875442505,-0.37083891034126282,0.050456900149583817,0.6121782660484314,-0.058691542595624924,0.018139291554689407,-0.077499084174633026,-1.2468806505203247,0.50177693367004395, -0.10391868650913239,0.12638178467750549,0.044998206198215485,-0.023173222318291664,-0.37393602728843689,-0.79606497287750244,-0.31521400809288025,-0.039991330355405807,0.29165717959403992,-0.0092677399516105652,-0.42977079749107361,0.047249853610992432,0.059272114187479019,-16.737319946289062,-0.28571328520774841,-0.088860608637332916,-14.83458137512207,-0.020871471613645554,0.10838720202445984,0.076100677251815796,-0.071140900254249573,-0.47581025958061218,-0.18120464682579041,-0.039346396923065186,-0.041618246585130692,-0.1407901793718338,-0.084871850907802582,-0.02006356418132782,-0.118668332695961,0.041535031050443649,-0.047281019389629364,0.11222933232784271,1.092969536781311,-0.037126306444406509,0.24427680671215057,0.25250405073165894,0.010521858930587769,0.65126252174377441,-0.0075874333269894123,0.058817092329263687,-0.22811442613601685,0.029095923528075218,0.027481462806463242,-0.035994790494441986,-0.12585507333278656,0.020672425627708435,-0.54647582769393921,0.07977680116891861, 
  /* [0][1][][] */ -0.27723810076713562,-0.36791771650314331,-0.38488978147506714,-0.21909798681735992,-0.054612487554550171,0.40099257230758667,0.53451848030090332,-0.23624725639820099,-0.086787335574626923,-0.15371130406856537,-0.068491615355014801,0.14263352751731873,0.7062259316444397,-15.169624328613281,0.07828037440776825,-0.82074159383773804,-14.175686836242676,-0.077203273773193359,0.36728867888450623,-0.50705540180206299,0.19011951982975006,-0.54250001907348633,-0.52697837352752686,-0.20409882068634033,0.16267316043376923,-0.55343878269195557,-0.11578457802534103,-0.071882359683513641,1.6270111799240112,-0.14220774173736572,0.24839136004447937,0.8751034140586853,-0.45486363768577576,-0.03638051450252533,-0.052618652582168579,0.69214224815368652,-0.024836478754878044,-1.3848066329956055,-0.14595231413841248,0.35442179441452026,0.1229005828499794,0.4689788818359375,0.51790338754653931,-0.050357818603515625,-0.71351224184036255,-0.41065776348114014,0.80136942863464355,0.64097756147384644, 0.41175222396850586,-0.24279311299324036,-1.0843369960784912,-0.61754202842712402,0.73104536533355713,0.30289188027381897,0.50343424081802368,-0.28351858258247375,0.33923083543777466,-0.17778483033180237,-0.37051868438720703,0.16146911680698395,1.0037693977355957,-3.3925542831420898,-0.017802439630031586,1.0844343900680542,-6.9975090026855469,-0.1040148138999939,0.5120278000831604,-0.83997553586959839,0.57091200351715088,-0.78910398483276367,-0.61596667766571045,-0.19292265176773071,0.49103647470474243,-0.46548563241958618,-0.1905379593372345,-0.24103090167045593,-1.5021432638168335,-0.29845058917999268,-0.13828101754188538,1.2805963754653931,0.28381800651550293,-0.04756757989525795,0.45374539494514465,1.0415463447570801,-0.048329349607229233,-2.3164448738098145,-0.13411562144756317,0.3501107394695282,0.17691949009895325,0.98922997713088989,0.62917870283126831,-0.054185003042221069,-0.87109023332595825,-0.44545599818229675,1.23079514503479,0.67903608083724976, -0.171772301197052,0.091958679258823395,-0.5365070104598999,-0.41358795762062073,-0.69051885604858398,-0.17036107182502747,0.16558896005153656,-0.083029597997665405,0.43104329705238342,-0.027568686753511429,-0.25638455152511597,0.044393088668584824,0.43111908435821533,-16.399894714355469,-0.070996582508087158,-0.3664524257183075,-4.3217730522155762,-0.024045227095484734,0.21804967522621155,-0.46995842456817627,0.24838460981845856,-0.4973069429397583,-0.19741949439048767,-0.037998590618371964,0.18288309872150421,-0.041299458593130112,-0.067289888858795166,-0.11081956326961517,0.19821518659591675,-0.20929187536239624,-0.070150718092918396,0.2147907018661499,0.29639637470245361,-0.042230848222970963,0.41726979613304138,0.1953454464673996,-0.02541668526828289,-1.1375937461853027,0.0024691936559975147,-0.061001893132925034,0.10704599320888519,0.41592499613761902,0.050690367817878723,-0.033759184181690216,-0.44260859489440918,-0.12873382866382599,0.63708418607711792,0.1895841509103775, 
  /* [0][2][][] */ -0.19706079363822937,-0.31623548269271851,-0.28583410382270813,-0.15704970061779022,-0.0027985575143247843,0.25414174795150757,-0.022702783346176147,-0.075706459581851959,-0.12779094278812408,-0.084483832120895386,-0.045876443386077881,0.075374200940132141,0.58982151746749878,-29.910606384277344,-0.36143404245376587,-0.54537606239318848,-5.0532617568969727,-0.014420267194509506,0.26327356696128845,0.49671599268913269,0.22985541820526123,-0.19162082672119141,-0.068273209035396576,-0.095231026411056519,0.12256765365600586,-0.25129660964012146,-0.016955342143774033,-0.10707632452249527,0.95323210954666138,0.06726943701505661,0.15125547349452972,0.64156806468963623,1.1059210300445557,-0.011541836895048618,-0.13558319211006165,-0.076273113489151001,-0.067944221198558807,0.63711315393447876,-0.024885859340429306,0.11934548616409302,0.028542717918753624,0.28558322787284851,0.074285097420215607,-0.025475781410932541,0.73845010995864868,-0.267924964427948,0.039941471070051193,0.1632249504327774, 0.28497540950775146,-0.21687515079975128,-0.7452813982963562,-0.40200269222259521,0.46372005343437195,0.1378023624420166,0.03994915634393692,-0.10375881195068359,0.15862742066383362,-0.1004270613193512,-0.1054934486746788,0.070123240351676941,0.64371949434280396,-6.0131850242614746,0.046024177223443985,0.78471970558166504,-2.8593630790710449,-0.024612314999103546,0.30749249458312988,0.78178900480270386,0.36201807856559753,-0.31755819916725159,-0.099232673645019531,-0.093239359557628632,0.35681626200675964,-0.31518596410751343,-0.02785755880177021,-0.18897981941699982,-0.64559733867645264,0.092140607535839081,-0.088364571332931519,1.1076984405517578,-0.18460795283317566,-0.021107632666826248,0.23600687086582184,0.054273318499326706,-0.090278223156929016,0.89042782783508301,-0.021349253132939339,-0.0083946138620376587,0.031627092510461807,0.24544863402843475,0.075260072946548462,-0.029869409278035164,0.98558545112609863,-0.35043945908546448,-0.11296390742063522,0.21346104145050049, -0.091088049113750458,0.084495045244693756,-0.35586944222450256,-0.17023666203022003,-0.46074393391609192,-0.14111728966236115,0.12068343162536621,-0.02480647899210453,0.20277632772922516,-0.0062172911129891872,-0.042821343988180161,0.041302908211946487,0.23287913203239441,-10.07728099822998,0.31730660796165466,-0.2462189793586731,-10.878596305847168,-0.0030778977088630199,0.12119202315807343,0.39524415135383606,0.32383152842521667,-0.16822871565818787,-0.007034671027213335,-0.0045827403664588928,0.15935654938220978,0.011170703917741776,-0.0058617233298718929,-0.11917382478713989,-0.18937943875789642,0.066471986472606659,-0.039325609803199768,0.40274444222450256,-0.92735946178436279,-0.018523415550589561,0.23269270360469818,0.026324430480599403,-0.014135721139609814,0.38210791349411011,0.037613365799188614,-0.15241177380084991,0.019872033968567848,0.26650243997573853,-0.026733174920082092,-0.0069151292555034161,0.48639911413192749,-0.12044598907232285,-0.040841728448867798,0.092284940183162689, 
};
const TfArray<4, int> tensor_dimension17 = { 4, { 1,3,3,48 } };
const MODEL_SECTION(EI_MODEL_SECTION) ALIGN(16) float tensor_data18[8] = { -9.0550251007080078, -16.321382522583008, 32.083713531494141, 29.170827865600586, -1.1945198774337769, 0.31643348932266235, 30.929046630859375, 6.7822880744934082, };
const TfArray<1, int> tensor_dimension18 = { 1, { 8 } };
const MODEL_SECTION(EI_MODEL_SECTION) ALIGN(16) float tensor_data19[1*3*3*48] = { 
  /* [0][0][][] */ 0.060568224638700485,-0.037070587277412415,0.15475469827651978,1.3083885908126831,0.028228318318724632,0.32928121089935303,-0.025694243609905243,0.19133752584457397,0.091939263045787811,0.05807836726307869,0.028094461187720299,0.061898518353700638,-0.079210400581359863,-0.061514109373092651,-0.1700909286737442,0.096547931432723999,-0.014937900938093662,0.089969567954540253,-0.070815503597259521,-0.77834528684616089,-0.058991890400648117,-0.18651935458183289,1.0477538108825684,-0.071031965315341949,-0.020619485527276993,0.040558308362960815,-0.14410929381847382,0.037657745182514191,-0.049049336463212967,0.23752306401729584,0.066260404884815216,0.8427465558052063,0.62862038612365723,0.19409219920635223,0.32876580953598022,-0.18261405825614929,0.018207719549536705,0.1812579482793808,-0.0089197997003793716,0.0017651451053097844,0.10692482441663742,-0.16064836084842682,-0.048413798213005066,-0.056236103177070618,0.10485479980707169,0.011928951367735863,-0.093373201787471771,-0.045814741402864456, 1.7364680767059326,0.10118804126977921,0.11143101006746292,-1.4934587478637695,0.16072040796279907,0.35169598460197449,0.36553281545639038,0.074594497680664062,0.73068296909332275,0.86172020435333252,0.02656874805688858,0.33057960867881775,-0.55893594026565552,-0.16576248407363892,0.023720070719718933,0.095577321946620941,1.1691088676452637,-0.59444963932037354,-0.18605148792266846,-0.38280534744262695,-0.88249772787094116,0.22513850033283234,-0.90345185995101929,0.12161734700202942,0.11397519707679749,0.46781027317047119,-0.84659826755523682,-0.36751395463943481,0.20976696908473969,1.1255018711090088,0.038829926401376724,-1.0546668767929077,0.16015404462814331,-0.4183676540851593,1.0830739736557007,0.056255899369716644,-0.60464680194854736,-0.25950446724891663,-0.06127084419131279,0.11149588972330093,-0.47432237863540649,-0.2299778014421463,-0.15798488259315491,0.017330409958958626,-0.19673369824886322,-0.036552205681800842,-1.7096223831176758,0.099481940269470215, -0.44074621796607971,-0.03011789359152317,0.057676974684000015,0.18528784811496735,-0.0032787537202239037,0.25979501008987427,0.12835144996643066,0.12060868740081787,0.16165626049041748,0.055606789886951447,-0.046856872737407684,0.24226471781730652,-0.15448972582817078,-0.021781329065561295,0.067056313157081604,0.045657340437173843,-0.95198321342468262,0.30248674750328064,-0.012823181226849556,0.53742951154708862,-0.27437633275985718,-0.092814445495605469,-0.14812129735946655,-0.044846974313259125,-0.026374757289886475,-0.38313549757003784,-0.057657945901155472,0.1271747499704361,-0.16153347492218018,0.2365107387304306,0.020850565284490585,-0.18075829744338989,0.21660178899765015,-0.15677964687347412,0.14842186868190765,-0.13260741531848907,0.0048569687642157078,0.25540068745613098,0.49334639310836792,-0.012111017480492592,0.3060629665851593,0.092941425740718842,-0.083948381245136261,0.06640838086605072,-0.24955528974533081,0.016442576423287392,-0.0092288851737976074,-0.021995469927787781, 
  /* [0][1][][] */ 1.7072004079818726,0.066557332873344421,0.0067726057022809982,-1.152309775352478,0.08108123391866684,-0.11037714034318924,1.1968269348144531,-0.10814574360847473,0.050561349838972092,0.061258308589458466,-0.045853104442358017,0.40339407324790955,-0.072485603392124176,-0.0065293717198073864,0.071350924670696259,-0.35162299871444702,0.0047525125555694103,-0.52501767873764038,-0.18584203720092773,-0.59122151136398315,0.080876007676124573,-0.62244457006454468,-1.0302872657775879,-0.14231711626052856,0.032853439450263977,0.6478654146194458,-0.40778368711471558,-0.55816012620925903,-0.079782977700233459,1.8039106130599976,0.049128837883472443,-0.91894662380218506,0.52577495574951172,-0.35779383778572083,-0.011167456395924091,0.82094895839691162,-0.047753676772117615,0.32176613807678223,-0.48464050889015198,0.039667483419179916,-0.37517890334129333,-0.30291658639907837,0.20751158893108368,-0.5424618124961853,-0.25589084625244141,-0.062733560800552368,-0.17293281853199005,-0.025163928046822548, 0.35502851009368896,-1.3841153383255005,-0.97149944305419922,1.3726325035095215,-0.73483377695083618,-0.51858097314834595,-4.374913215637207,-0.85707205533981323,-0.75376343727111816,-0.64996522665023804,0.43616321682929993,-0.94160360097885132,1.4298193454742432,0.90471374988555908,0.13794761896133423,-1.3910919427871704,-0.76140493154525757,1.3548771142959595,0.39774748682975769,-0.74201834201812744,1.1152899265289307,1.0923959016799927,0.91963005065917969,1.0019598007202148,0.83929330110549927,-0.8364066481590271,-3.3963470458984375,0.12672315537929535,-1.1938722133636475,-7.0093569755554199,0.39055898785591125,1.0925410985946655,-4.0321040153503418,0.88115644454956055,-0.23553678393363953,-0.27244254946708679,1.9381011724472046,-0.69684046506881714,1.5235050916671753,0.12310668081045151,0.77234643697738647,-0.19003705680370331,0.67672955989837646,0.77123361825942993,0.75739407539367676,-0.56584435701370239,1.37360680103302,0.46241331100463867, 0.72728449106216431,0.062144748866558075,0.37242025136947632,-0.1486002653837204,0.03062840923666954,-0.25019481778144836,1.4895790815353394,0.12616483867168427,-0.14403997361660004,0.097674526274204254,-0.35751402378082275,-0.049899514764547348,0.0066133798100054264,-0.28496101498603821,0.4917091429233551,0.056450337171554565,0.57805824279785156,-0.69883662462234497,-0.22512766718864441,0.59015429019927979,0.11442886292934418,-0.38788151741027832,0.091591320931911469,-0.26182115077972412,0.010518255643546581,0.039090193808078766,-0.99398678541183472,0.3024144172668457,0.17953532934188843,2.1714015007019043,0.0056731486693024635,0.038011912256479263,1.0111167430877686,-0.29714557528495789,0.083075940608978271,0.42507857084274292,-0.070064529776573181,0.35401841998100281,0.80654758214950562,-0.0095801809802651405,-0.48926106095314026,0.020654436200857162,-0.45213523507118225,-0.19519685208797455,0.15630199015140533,-0.072981670498847961,-0.1316295862197876,0.027305815368890762, 
  /* [0][2][][] */ -0.72989523410797119,-0.076226204633712769,0.19461047649383545,-0.18658299744129181,0.040406305342912674,0.14031141996383667,-1.2994402647018433,0.1520293653011322,0.047585316002368927,-0.16207844018936157,0.03691747784614563,0.24726724624633789,0.077668085694313049,-0.043700139969587326,-0.14707247912883759,0.20299850404262543,0.048494879156351089,0.23444010317325592,-0.042456939816474915,0.73388093709945679,0.047662831842899323,-0.27882805466651917,-0.13318562507629395,-0.093048900365829468,-0.023740926757454872,0.14785057306289673,-0.017055628821253777,0.22440721094608307,-0.094590820372104645,0.15447434782981873,0.19387573003768921,-0.26832729578018188,-0.59817522764205933,-0.30261817574501038,-0.25750046968460083,-0.2521192729473114,-0.012992412783205509,0.17025314271450043,0.10700550675392151,-0.021852519363164902,0.057442184537649155,-0.007725209929049015,0.21937693655490875,-0.22722029685974121,-0.21232877671718597,0.085877515375614166,-0.15319542586803436,0.075256571173667908, 0.93006688356399536,1.3746870756149292,0.57213807106018066,0.26199063658714294,0.092840075492858887,-0.076508767902851105,4.2552528381347656,0.23985911905765533,0.11008132249116898,-0.021828634664416313,0.14709845185279846,0.20104905962944031,-0.052662447094917297,-8.7589796748943627e-05,-0.34848678112030029,0.28702765703201294,-0.53312075138092041,-0.59768444299697876,-0.1156683936715126,0.86047744750976562,-0.32261660695075989,0.4096662700176239,0.093013405799865723,0.15958330035209656,0.21167559921741486,-0.41566142439842224,-1.0919985771179199,0.12869298458099365,0.7068062424659729,0.013511977158486843,0.53094840049743652,0.18392056226730347,2.6554644107818604,-0.18537572026252747,0.073994196951389313,-0.23174828290939331,-0.38364046812057495,-0.095875956118106842,-0.14814727008342743,0.11416834592819214,-0.1625840961933136,-0.026407517492771149,-0.21459650993347168,0.27093216776847839,0.12087152153253555,-0.14769022166728973,0.097926989197731018,-0.54413342475891113, -0.57281851768493652,-0.036587979644536972,0.051013298332691193,-0.027149062603712082,0.028408169746398926,-0.018180493265390396,-2.1384401321411133,0.055118538439273834,-0.10885752737522125,-0.073747158050537109,-0.13631770014762878,-0.29096907377243042,0.2212144136428833,-0.064963042736053467,-0.036744177341461182,0.13454781472682953,0.30340868234634399,0.25282898545265198,-0.02916315384209156,-0.86620360612869263,0.20464238524436951,-0.09409620612859726,0.038557484745979309,-0.067550480365753174,-0.04384738951921463,0.066515862941741943,-0.27922329306602478,-0.2447972297668457,-0.14630992710590363,0.39779290556907654,0.026083948090672493,0.070200428366661072,-0.63842993974685669,0.59246534109115601,-0.30604326725006104,-0.14868704974651337,-0.062937282025814056,0.19776721298694611,0.29710143804550171,-0.058834735304117203,0.028600685298442841,0.021586347371339798,-0.20020252466201782,0.035710617899894714,-0.25609946250915527,0.59935212135314941,-0.059524897485971451,-0.012693475000560284, 
};
const TfArray<4, int> tensor_dimension19 = { 4, { 1,3,3,48 } };
const MODEL_SECTION(EI_MODEL_SECTION) ALIGN(16) float tensor_data20[8] = { -20.071731567382812, 16.248832702636719, -24.227338790893555, -19.759668350219727, 15.76844596862793, -1.0981100797653198, 21.972064971923828, 46.115703582763672, };
const TfArray<1, int> tensor_dimension20 = { 1, { 8 } };
const MODEL_SECTION(EI_MODEL_SECTION) ALIGN(16) float tensor_data21[1*3*3*48] = { 
  /* [0][0][][] */ 0.19459766149520874,-0.13649803400039673,0.73342764377593994,0.1558472067117691,0.37804198265075684,-0.089471511542797089,0.60640698671340942,-0.32201272249221802,0.23405502736568451,-0.15607188642024994,-0.1712077260017395,0.21350973844528198,0.090835198760032654,-0.068714126944541931,-0.46269711852073669,-0.64339083433151245,0.7783505916595459,0.21793182194232941,0.20651704072952271,0.53957343101501465,0.2047039121389389,-0.59530502557754517,-0.30574244260787964,0.32402858138084412,-0.10448228567838669,-0.16474074125289917,-0.091263622045516968,-0.19863854348659515,-0.35468265414237976,0.30061057209968567,-0.31808048486709595,-0.71810847520828247,-0.026699285954236984,0.2313833087682724,0.087216839194297791,0.13087385892868042,-0.46360820531845093,0.22852438688278198,-0.20871399343013763,-0.080297835171222687,0.23167313635349274,-0.29535830020904541,0.18153353035449982,0.2307722419500351,-0.13512670993804932,0.086565040051937103,0.36493575572967529,-0.052698392421007156, 0.23047186434268951,-0.13985472917556763,0.95111650228500366,0.19197624921798706,-0.54241788387298584,-0.18256679177284241,-0.32934415340423584,-0.41935983300209045,0.37349933385848999,-0.18070743978023529,-0.13773535192012787,0.33607324957847595,0.13704051077365875,-0.18016037344932556,-0.61425673961639404,0.66357207298278809,-0.28872039914131165,0.27068355679512024,0.34424901008605957,0.86020845174789429,0.26453429460525513,-0.91756975650787354,0.19753639400005341,0.43870189785957336,-0.17557880282402039,-0.33176398277282715,-0.098183766007423401,-0.25185951590538025,0.28873595595359802,0.39129689335823059,-0.14347276091575623,-0.80192840099334717,-0.19031985104084015,0.44845330715179443,0.10264760255813599,0.1721976101398468,-0.59128344058990479,0.35316276550292969,-0.34683343768119812,-0.056897848844528198,0.34664410352706909,-0.37269306182861328,0.25693675875663757,0.32543984055519104,-0.10494732111692429,-0.92305123805999756,0.45255643129348755,-0.15566036105155945, 0.092634111642837524,-0.068834267556667328,0.5253487229347229,0.087359525263309479,0.12920993566513062,-0.10739006847143173,-0.26750767230987549,-0.19287903606891632,0.1654486358165741,-0.056718286126852036,0.010366865433752537,0.15718895196914673,0.049393858760595322,-0.13122221827507019,-0.34145382046699524,0.0012490210356190801,-0.4151727557182312,0.10852944105863571,0.14380303025245667,0.48197126388549805,0.10506770014762878,-0.43501639366149902,0.11756151169538498,0.1599738746881485,-0.090104706585407257,-0.1915975958108902,-0.061070099472999573,-0.071180328726768494,0.15680594742298126,0.1593344658613205,0.44287711381912231,-0.55286812782287598,-0.1885935366153717,0.24750517308712006,0.043529689311981201,0.067109234631061554,-0.21125438809394836,0.16917507350444794,-0.15611684322357178,-0.033446822315454483,0.18397718667984009,-0.16042883694171906,0.10185395926237106,0.1578587144613266,-0.010295163840055466,-0.054411597549915314,0.17253109812736511,-0.11250846087932587, 
  /* [0][1][][] */ 0.26202014088630676,-0.16889327764511108,-0.3123113214969635,0.20852351188659668,0.39041465520858765,-0.2186717689037323,0.72806411981582642,-0.4423600435256958,0.33410045504570007,-0.2040998637676239,-0.15538276731967926,0.36915162205696106,0.14545495808124542,-0.18423661589622498,-0.084793806076049805,-0.9045112133026123,0.94573515653610229,0.29291719198226929,0.31144505739212036,-0.25645768642425537,0.25512859225273132,0.82921260595321655,-0.47129529714584351,0.4491017758846283,0.2509828507900238,-0.32295036315917969,-0.13214859366416931,-0.30782148241996765,-0.66166776418685913,0.41772624850273132,-0.35157054662704468,-0.052909538149833679,-0.19207337498664856,0.39165446162223816,0.13490693271160126,0.198698490858078,-0.60555404424667358,0.34091445803642273,-0.33711510896682739,0.34196978807449341,0.38459250330924988,-0.40245896577835083,0.26743078231811523,0.3373645544052124,-0.12899310886859894,0.79203850030899048,0.45759078860282898,-0.13589994609355927, 0.36546969413757324,-0.18964333832263947,-0.49562746286392212,0.28401976823806763,-0.87455081939697266,-0.33394685387611389,-0.52454143762588501,-0.62368923425674438,0.48983842134475708,-0.22662340104579926,-0.27643501758575439,0.56938850879669189,0.22295941412448883,-0.20849493145942688,-0.13976450264453888,0.69849598407745361,-0.50036215782165527,0.35066327452659607,0.53572356700897217,-0.3388746976852417,0.39522102475166321,0.98123842477798462,0.2653338611125946,0.78300529718399048,0.42614668607711792,-0.53913521766662598,-0.18223445117473602,-0.39798372983932495,0.28207913041114807,0.61592090129852295,-0.14276035130023956,0.090109653770923615,-0.27816566824913025,0.70332741737365723,0.16158631443977356,0.26247435808181763,-0.91697514057159424,0.55028015375137329,-0.5335843563079834,0.48452368378639221,0.58358311653137207,-0.50221580266952515,0.39970380067825317,0.4728107750415802,-0.18630784749984741,-0.073429293930530548,0.62343001365661621,-0.19214771687984467, 0.18541704118251801,-0.11353424191474915,-0.24604274332523346,0.14765331149101257,0.2651902437210083,-0.16262067854404449,-0.2719913125038147,-0.30991268157958984,0.21000887453556061,-0.071164697408676147,-0.13174375891685486,0.26368477940559387,0.083635926246643066,-0.093450009822845459,-0.090975724160671234,0.084598332643508911,-0.47674161195755005,0.14156608283519745,0.23997777700424194,-0.19342085719108582,0.1726948618888855,0.4903729259967804,0.19561375677585602,0.40612849593162537,0.22304196655750275,-0.27733412384986877,-0.086727529764175415,-0.13433554768562317,0.18816326558589935,0.26780363917350769,0.63760322332382202,0.098248757421970367,-0.13538266718387604,0.38788208365440369,0.060531292110681534,0.09985969215631485,-0.34879511594772339,0.25847208499908447,-0.25204426050186157,0.21993696689605713,0.28495582938194275,-0.23077578842639923,0.1601569801568985,0.22992131114006042,-0.086258649826049805,-0.48218324780464172,0.27788621187210083,-0.085256941616535187, 
  /* [0][2][][] */ 0.12844812870025635,-0.079153925180435181,-0.35287311673164368,0.11038236320018768,0.19822204113006592,-0.13807001709938049,0.36869725584983826,-0.20773893594741821,0.15496192872524261,-0.13189978897571564,-0.0074508008547127247,0.1794922798871994,0.097368121147155762,-0.12115355581045151,0.52737551927566528,-0.55962026119232178,0.54826182126998901,0.13801681995391846,0.14238537847995758,-0.2218666672706604,0.077421307563781738,-0.082829147577285767,-0.28974604606628418,0.19029326736927032,-0.079015806317329407,-0.19059857726097107,-0.071480885148048401,-0.15535874664783478,-0.3916899561882019,0.15210211277008057,-0.21546699106693268,0.57065778970718384,-0.16084861755371094,0.20587539672851562,0.062231358140707016,0.090394631028175354,-0.18562398850917816,0.16648052632808685,-0.18176530301570892,-0.33473843336105347,0.22220799326896667,-0.19751371443271637,0.12471049278974533,0.1659453958272934,-0.033397737890481949,0.12616294622421265,0.2022421658039093,-0.10979732871055603, 0.20963414013385773,-0.10789090394973755,-0.36228886246681213,0.18117544054985046,-0.3812272846698761,-0.16470707952976227,-0.41353404521942139,-0.33310717344284058,0.19511888921260834,-0.13738943636417389,-0.14503243565559387,0.27652505040168762,0.12973494827747345,-0.082019448280334473,0.8086058497428894,0.23740361630916595,-0.3488304615020752,0.16298487782478333,0.2568402886390686,-0.29861858487129211,0.16737455129623413,-0.14587675034999847,0.15796996653079987,0.41777259111404419,-0.16242699325084686,-0.28706356883049011,-0.1149895042181015,-0.19422554969787598,0.15944691002368927,0.29912644624710083,-0.12110142409801483,0.72780650854110718,-0.12045867741107941,0.35524445772171021,0.073327422142028809,0.12314430624246597,-0.34807372093200684,0.26700732111930847,-0.27471411228179932,-0.41005033254623413,0.32477247714996338,-0.26588994264602661,0.18906857073307037,0.22925905883312225,-0.11981921643018723,0.36689484119415283,0.30784106254577637,-0.079470418393611908, 0.12135390192270279,-0.061139527708292007,-0.19149056077003479,0.10346376895904541,0.19840423762798309,-0.051585458219051361,-0.092214986681938171,-0.16581928730010986,0.060237020254135132,-0.049680639058351517,-0.11322318762540817,0.13034465909004211,0.053760696202516556,0.0032763730268925428,0.43817785382270813,0.1843610554933548,-0.26634415984153748,0.065515004098415375,0.11634321510791779,-0.21672721207141876,0.087377049028873444,-0.0060174292884767056,0.15288135409355164,0.25914773344993591,-0.079934559762477875,-0.12383809685707092,-0.069730609655380249,-0.073639824986457825,0.16809377074241638,0.16896036267280579,0.30717864632606506,0.42583134770393372,-0.00099867023527622223,0.18499302864074707,0.018909521400928497,0.045074321329593658,-0.16517013311386108,0.12904910743236542,-0.12558212876319885,-0.20492464303970337,0.13931733369827271,-0.1296863853931427,0.077072948217391968,0.10935257375240326,-0.0879315584897995,0.071719974279403687,0.15699674189090729,-0.0054562576115131378, 
};
const TfArray<4, int> tensor_dimension21 = { 4, { 1,3,3,48 } };
const MODEL_SECTION(EI_MODEL_SECTION) ALIGN(16) float tensor_data22[16] = { -25.278268814086914, 3.0146164894104004, 2.6648130416870117, -8.6619205474853516, 0.47809624671936035, -2.4838924407958984, -11.654000282287598, -23.196586608886719, 3.043870210647583, 13.198136329650879, 33.939056396484375, -5.132805347442627, 0.9173659086227417, -27.36998176574707, 17.86863899230957, -23.283044815063477, };
const TfArray<1, int> tensor_dimension22 = { 1, { 16 } };
const MODEL_SECTION(EI_MODEL_SECTION) ALIGN(16) float tensor_data23[1*3*3*96] = { 
  /* [0][0][][] */ -0.15138669312000275,0.020974958315491676,-0.18210715055465698,0.16352047026157379,-0.095718622207641602,0.16621945798397064,-0.8575405478477478,-0.17790202796459198,0.10097303241491318,-0.080114610493183136,0.63262015581130981,-0.12330222129821777,0.023317396640777588,-0.17618779838085175,-0.032954059541225433,0.26340880990028381,0.01586206816136837,0.21196408569812775,-0.095808282494544983,0.016133138909935951,0.16603562235832214,0.0074104969389736652,0.16546554863452911,-0.49867001175880432,0.012772624380886555,0.16163487732410431,0.2629859447479248,0.36639225482940674,0.092835687100887299,0.063951477408409119,0.11504051834344864,0.34304511547088623,-0.03869214653968811,0.15431812405586243,0.071284100413322449,-0.09279216080904007,0.069913536310195923,0.24151590466499329,-0.14082188904285431,-0.15130594372749329,0.20311500132083893,0.14962364733219147,0.35948479175567627,0.11793316155672073,-0.6307106614112854,-0.10826758295297623,0.23707462847232819,-0.045815005898475647,-0.035506092011928558,-0.15793535113334656,-0.059052456170320511,-0.049065772444009781,0.46728295087814331,0.064483918249607086,-0.11448246240615845,0.018964655697345734,-0.050277352333068848,-0.33297914266586304,0.12067852169275284,-0.11213256418704987,0.35482066869735718,-0.008391805924475193,1.5387213230133057,0.14630886912345886,-0.092491939663887024,-0.093602679669857025,0.043550040572881699,-0.1650276780128479,0.88945674896240234,0.3356490433216095,0.024192584678530693,-0.03236977756023407,0.32723057270050049,-0.21393910050392151,0.51963615417480469,0.053297430276870728,0.37188729643821716,-0.26803675293922424,0.32059919834136963,0.78551161289215088,0.0094380071386694908,0.16765397787094116,0.69611519575119019,-0.081850431859493256,0.22351084649562836,0.1159990057349205,-0.14742584526538849,-0.14862149953842163,0.34663179516792297,-0.020723180845379829,-0.10473649203777313,0.4431731104850769,0.0069975107908248901,0.38690185546875,-0.32058706879615784,0.0428309366106987, -0.40957874059677124,0.04561922699213028,-0.066203244030475616,0.01446269266307354,0.31719279289245605,-0.076480962336063385,-0.16085648536682129,-0.41533148288726807,0.22411711513996124,0.23201772570610046,-0.81963562965393066,-0.05912322923541069,-0.055512513965368271,-0.23802568018436432,0.023072104901075363,0.43801543116569519,0.066035650670528412,-0.39772462844848633,-0.038836151361465454,-0.12655608355998993,0.17450597882270813,-0.73075836896896362,0.68414402008056641,0.39508676528930664,-0.50655549764633179,-0.30489176511764526,-0.65335506200790405,-0.12734812498092651,0.125552698969841,0.17122425138950348,-0.25157010555267334,0.12796996533870697,0.58997726440429688,0.068232171237468719,-0.12221310287714005,0.00220329943113029,-0.36407521367073059,0.62233269214630127,-0.15836626291275024,-0.73577713966369629,0.089796915650367737,-0.30698764324188232,-0.418781578540802,0.098507456481456757,0.35539346933364868,-0.25066253542900085,1.1439721584320068,-0.44835531711578369,-0.27146467566490173,0.3746914267539978,0.41367021203041077,0.05364193394780159,0.36797592043876648,-0.90836840867996216,0.3692285418510437,1.0241163969039917,0.46993917226791382,0.42207935452461243,-0.44790074229240417,0.31093069911003113,1.5960065126419067,0.21750441193580627,0.041738644242286682,-0.10831622779369354,0.33134576678276062,-0.32465559244155884,-0.31530869007110596,-0.0093819675967097282,0.47423747181892395,-0.29082745313644409,-0.1899460107088089,0.22017642855644226,-0.18879006803035736,-0.32453271746635437,0.81950396299362183,-0.017257312312722206,-0.62559694051742554,-0.1286020427942276,-0.38152626156806946,0.77745586633682251,-0.42607870697975159,0.81672900915145874,-0.079611361026763916,0.059620562940835953,-0.079076498746871948,0.17918285727500916,0.30804234743118286,-0.32395121455192566,-0.27066677808761597,0.23379409313201904,-0.10692474246025085,0.39447543025016785,-0.71994918584823608,-0.61120414733886719,2.4685187339782715,-0.42488506436347961, -0.010765391401946545,-0.021157547831535339,-0.21000458300113678,-0.11607144773006439,0.056422453373670578,0.13620184361934662,0.46806144714355469,0.063401997089385986,-0.023229515179991722,-0.035970740020275116,0.029464231804013252,0.79544597864151001,0.01325424388051033,-0.22561480104923248,-0.078413717448711395,0.032182406634092331,-0.052336141467094421,0.23441416025161743,-0.045036938041448593,0.11620672047138214,0.011026237159967422,0.17235605418682098,0.12493644654750824,-0.47696954011917114,0.0074072279967367649,-0.31359711289405823,0.053313761949539185,0.086474470794200897,-0.02965937927365303,0.025565329939126968,0.23565573990345001,-0.5495302677154541,0.22718222439289093,0.1034681648015976,0.077204450964927673,-0.15112973749637604,0.16783890128135681,0.022354943677783012,-0.078163966536521912,-0.12066373229026794,0.078038766980171204,0.026582399383187294,-0.22103233635425568,0.056402869522571564,0.16595934331417084,-0.059669826179742813,0.1894925981760025,0.0020568820182234049,0.024677136912941933,-0.068985834717750549,0.048643738031387329,-0.026396403089165688,0.041066039353609085,0.082681149244308472,-0.067664451897144318,0.13610969483852386,-0.087016679346561432,0.44368177652359009,0.038879901170730591,-0.010882432572543621,0.13694162666797638,-0.10752837359905243,0.016570327803492546,-0.089895337820053101,-0.18279428780078888,-0.15052908658981323,0.10712286084890366,-0.15621083974838257,-1.4643913507461548,-0.051483776420354843,0.46266543865203857,-0.065922386944293976,-0.52456474304199219,-0.14304229617118835,-0.088800065219402313,0.19539162516593933,0.21388953924179077,-0.018626868724822998,0.086608774960041046,0.13923878967761993,-0.073592357337474823,0.31323352456092834,-0.19326938688755035,-0.0097205135971307755,-0.24138553440570831,0.07775503396987915,0.15339748561382294,0.31151121854782104,-0.24508172273635864,-0.074936561286449432,0.2149447500705719,-0.056782644242048264,0.10897155851125717,0.1303916722536087,-0.2628331184387207,-0.14746828377246857, 
  /* [0][1][][] */ -0.35144901275634766,0.24157930910587311,-0.16745099425315857,0.059999696910381317,-0.51017206907272339,-0.13033819198608398,-0.15663759410381317,-0.14552579820156097,0.1520906388759613,1.5349420309066772,-0.29104632139205933,-0.28035804629325867,-0.12223192304372787,-0.49019017815589905,-0.052223540842533112,0.29128551483154297,0.50347810983657837,-0.31220120191574097,-0.23488360643386841,-0.11047263443470001,0.12794767320156097,-0.95293122529983521,-0.16155344247817993,0.23316994309425354,-0.29259252548217773,-0.48015773296356201,-0.78724390268325806,-0.04587617889046669,0.15645118057727814,0.16472117602825165,-0.25097700953483582,0.20756886899471283,-0.63540345430374146,-0.40005302429199219,-0.50530761480331421,0.024109814316034317,0.9650731086730957,-0.013999480754137039,-0.11168761551380157,0.27743461728096008,-0.20872153341770172,1.3671009540557861,0.014735368080437183,-0.016842823475599289,0.25988125801086426,-0.10210227221250534,-0.10554474592208862,-0.31954655051231384,0.45705965161323547,0.3227878212928772,-0.028397738933563232,0.15077671408653259,0.42758721113204956,0.12895341217517853,-0.4638531506061554,-0.31875285506248474,0.40107634663581848,0.082884117960929871,-0.55906349420547485,0.46871399879455566,-0.47227537631988525,-0.54633212089538574,0.22619374096393585,0.68618911504745483,-0.44728294014930725,-0.30084827542304993,-0.28437322378158569,0.39031979441642761,-0.47236257791519165,1.2094342708587646,-0.1863737553358078,0.25664612650871277,-0.14453206956386566,-0.34520655870437622,0.27068167924880981,0.090649969875812531,-0.75167703628540039,-0.14693149924278259,1.3918246030807495,0.56952923536300659,0.81199091672897339,0.48382934927940369,0.035271160304546356,-0.00046207461855374277,0.75678390264511108,0.10707138478755951,-0.52481043338775635,0.38084855675697327,-0.3705628514289856,-0.1528497189283371,-0.83880937099456787,0.21444295346736908,0.55247443914413452,2.0032641887664795,3.1007101535797119,-0.19476553797721863, 1.078352689743042,0.53885769844055176,1.1859080791473389,0.19598114490509033,-0.27641943097114563,-0.97601467370986938,1.6755639314651489,0.071462437510490417,0.74753659963607788,-2.0088164806365967,0.10043638199567795,-1.6471885442733765,-0.44160032272338867,2.3734369277954102,0.89800184965133667,0.58697348833084106,-0.06408914178609848,-1.7103250026702881,-0.16192629933357239,-0.94553393125534058,0.27571743726730347,0.17566230893135071,-0.37380495667457581,1.9018313884735107,1.0519927740097046,1.251751184463501,-0.34675154089927673,-1.002360463142395,0.54380911588668823,0.59244674444198608,-0.64645427465438843,0.88773173093795776,-0.029690830036997795,-0.67909002304077148,-1.0722600221633911,0.87757861614227295,-1.8695060014724731,-0.21775776147842407,0.2064470499753952,0.63228136301040649,-1.286434531211853,-1.9367753267288208,1.7836463451385498,0.90327435731887817,0.96425670385360718,-0.24508796632289886,-0.97638779878616333,1.2976876497268677,-0.04786871001124382,0.95918911695480347,-1.0630359649658203,-0.94248038530349731,-1.2215934991836548,1.7616971731185913,1.5242292881011963,-2.386934757232666,1.6738485097885132,-1.2489042282104492,-0.19849036633968353,0.149880051612854,-1.3788189888000488,-0.1728157252073288,-0.85561060905456543,-0.36295422911643982,0.93461710214614868,1.0574682950973511,-0.23058338463306427,0.38280308246612549,1.716177225112915,-1.0066837072372437,-1.3113659620285034,0.60163670778274536,-0.16512444615364075,0.84272068738937378,-0.93650537729263306,-1.2974759340286255,-2.7074697017669678,0.26416391134262085,-0.82612591981887817,1.574931263923645,-0.27279815077781677,1.7359647750854492,0.44420522451400757,0.7928885817527771,-0.22420841455459595,-0.47046089172363281,-0.13980722427368164,-0.90704929828643799,-1.2327487468719482,-0.57824862003326416,-0.18522089719772339,-0.68052655458450317,-0.12516476213932037,-2.49324631690979,-14.028820991516113,0.39519533514976501, -0.21230357885360718,0.26777714490890503,-0.35450366139411926,0.0064396355301141739,0.78939032554626465,0.53743535280227661,-0.2929442822933197,0.15166105329990387,0.027798904106020927,0.37802058458328247,-0.07760293036699295,-0.078546606004238129,-0.10501382499933243,-0.56396490335464478,-0.093820452690124512,-0.031008623540401459,-0.41393470764160156,-0.31602808833122253,-0.33373609185218811,0.26967179775238037,0.064090535044670105,0.58588582277297974,-0.067576758563518524,-1.7375621795654297,-0.28049421310424805,-0.40849974751472473,0.76509058475494385,0.55772149562835693,0.03876301646232605,0.1701987236738205,0.37319129705429077,0.054415661841630936,0.63930964469909668,-0.25370675325393677,1.1138533353805542,-0.026717381551861763,0.83112120628356934,0.025278417393565178,-0.20655111968517303,0.086186423897743225,0.35168883204460144,0.37294799089431763,-0.31755051016807556,0.013069134205579758,-0.16795060038566589,-0.11157965660095215,-0.10733813792467117,-0.43641504645347595,0.28899392485618591,0.10435834527015686,-0.093208909034729004,0.29401567578315735,-0.050237484276294708,-0.049077633768320084,-0.91318297386169434,-0.2684231698513031,0.32381165027618408,0.20379357039928436,0.56429755687713623,-0.3294665515422821,0.029441390186548233,0.80835866928100586,-0.0060067828744649887,-0.19086082279682159,-0.82004135847091675,-0.2412792444229126,-0.25159284472465515,0.31412971019744873,0.19524121284484863,-0.14647263288497925,1.2304860353469849,0.1225789412856102,-0.069611750543117523,-0.3607272207736969,0.089882828295230865,0.50855433940887451,-0.59718012809753418,-0.012779394164681435,-0.43868857622146606,-0.01846420019865036,-0.27658849954605103,0.12680590152740479,0.27153670787811279,0.15865184366703033,-0.52634739875793457,0.12904961407184601,0.70544719696044922,-0.39107212424278259,0.31281641125679016,-0.095925323665142059,1.0969022512435913,-0.057759437710046768,-0.65038704872131348,0.68044030666351318,3.6722512245178223,0.066780075430870056, 
  /* [0][2][][] */ -0.037896353751420975,-0.15063062310218811,-0.19950978457927704,-0.09535563737154007,-0.022585811093449593,0.090815261006355286,0.51755744218826294,0.094451703131198883,-0.0046575241722166538,0.1868136078119278,-0.13009007275104523,0.66894549131393433,0.10646500438451767,-0.6600838303565979,-0.058021184056997299,0.029211916029453278,0.15977677702903748,0.044940058141946793,0.027896862477064133,0.14874444901943207,-0.021096626296639442,0.22765137255191803,-0.09709399938583374,-0.40216106176376343,0.013704357668757439,-0.24371109902858734,0.060950573533773422,0.022215196862816811,-0.033596966415643692,-0.036350857466459274,0.24875390529632568,-0.51312309503555298,-0.18947817385196686,0.34746971726417542,-0.24427711963653564,-0.17088714241981506,0.46066200733184814,-0.16821183264255524,-0.13277503848075867,0.10437773913145065,0.082828029990196228,0.16698168218135834,-0.47827330231666565,0.1314132958650589,0.10787639021873474,-0.15410752594470978,-0.10071830451488495,-0.0050036092288792133,-0.029569780454039574,0.050212793052196503,0.13996058702468872,-0.057953923940658569,0.083473414182662964,0.013003405183553696,-0.28809389472007751,0.12055309861898422,-0.023733196780085564,0.42171883583068848,-0.21635511517524719,0.12788680195808411,-0.053333539515733719,-0.075395584106445312,0.056831661611795425,0.090555183589458466,-0.047228626906871796,-0.087368041276931763,0.067979678511619568,-0.16181370615959167,-0.75555342435836792,0.11753054708242416,-0.2161441445350647,-0.066706560552120209,-0.47865414619445801,-0.22095207870006561,0.010628384537994862,0.20661166310310364,0.2960323691368103,-0.026420624926686287,0.59820997714996338,0.18563228845596313,0.15781718492507935,0.34711194038391113,-0.21858665347099304,0.093140989542007446,0.073935829102993011,0.09274040162563324,-0.09699045866727829,0.083592243492603302,0.05472370982170105,0.11589615046977997,0.21115787327289581,-0.026712775230407715,0.12699566781520844,0.80766290426254272,-0.77233755588531494,-0.097953975200653076, -0.22091038525104523,-0.036966919898986816,-0.25217217206954956,0.038622401654720306,-0.27209997177124023,0.54946941137313843,-0.33049660921096802,0.20274432003498077,0.037649169564247131,-0.063504531979560852,0.34949901700019836,-0.14485138654708862,0.54731625318527222,-0.12980319559574127,-0.13956904411315918,-0.081362210214138031,-0.0030416243243962526,-0.52968430519104004,-0.13941952586174011,0.16657224297523499,-0.05675404891371727,0.60327810049057007,-0.2601374089717865,-1.6769478321075439,-0.39496457576751709,-0.47881704568862915,0.62657982110977173,0.52855038642883301,0.063734695315361023,0.2022501677274704,0.27004191279411316,-0.010346533730626106,-0.5999675989151001,0.3276691734790802,-0.10615059733390808,-0.15484718978404999,-0.41796863079071045,-0.12566414475440979,-0.28464475274085999,-0.023615116253495216,0.43869394063949585,-0.19362351298332214,-0.20174221694469452,0.26286420226097107,-0.1858176589012146,-0.091688714921474457,-0.17910417914390564,-0.48715510964393616,-0.21870674192905426,0.20687007904052734,0.5617561936378479,0.17686270177364349,-0.11764571815729141,-1.1315667629241943,0.35405194759368896,0.98543977737426758,0.22798609733581543,0.24633409082889557,0.33272713422775269,-0.20313623547554016,0.26564672589302063,-0.34726041555404663,-0.089033342897891998,0.0076288566924631596,0.14641502499580383,-0.2228902131319046,-0.43177106976509094,-0.18084239959716797,-0.15377184748649597,-0.24747730791568756,-0.64171922206878662,0.10411249846220016,0.16199575364589691,-0.29872375726699829,-0.204154372215271,-0.058907188475131989,-0.96377694606781006,0.049425993114709854,-0.64479118585586548,-0.0020689312368631363,0.31388279795646667,0.50829768180847168,0.10846786201000214,0.064446479082107544,0.038595747202634811,0.23065058887004852,-0.52019733190536499,1.0689723491668701,0.16801786422729492,0.56258541345596313,-0.25118374824523926,-0.085769623517990112,0.66084396839141846,-0.41845762729644775,5.0519495010375977,0.28089138865470886, -0.084822222590446472,-0.12895980477333069,-0.24180422723293304,0.044226929545402527,0.090221911668777466,0.4779115617275238,-0.58556640148162842,0.034308928996324539,0.020626360550522804,-0.11091993749141693,0.0077287433668971062,0.17549629509449005,0.058274317532777786,-0.93391287326812744,-0.07298656553030014,-0.054505463689565659,-0.17259445786476135,-0.066929973661899567,0.034722302109003067,0.13410228490829468,-0.053310133516788483,0.056878656148910522,-0.11239577084779739,0.045177105814218521,-0.025673523545265198,0.19078730046749115,-0.017917567864060402,0.39597004652023315,-0.0021559293381869793,-0.025977551937103271,0.17731489241123199,0.20014913380146027,0.089462906122207642,0.22060815989971161,0.17956693470478058,-0.15976981818675995,-0.085707291960716248,-0.12264902889728546,-0.056835971772670746,0.050454795360565186,0.1079600527882576,-0.17458336055278778,0.28937923908233643,0.052373919636011124,-0.54936259984970093,-0.07268282026052475,-0.10599013417959213,0.039425551891326904,-0.0012704177061095834,-0.12839674949645996,-0.010039741173386574,-0.025632871314883232,-0.08202129602432251,0.11966007947921753,-0.21197976171970367,-0.087665654718875885,-0.024678375571966171,-0.48078063130378723,0.07165265828371048,-0.11057281494140625,-0.26371055841445923,0.31374022364616394,0.12218073755502701,-0.15377512574195862,-0.068027317523956299,-0.022985409945249557,0.12554888427257538,-0.16390314698219299,0.62446904182434082,0.083618611097335815,0.59031599760055542,-0.10482518374919891,0.12559328973293304,-0.36176773905754089,-0.11195798218250275,0.26501145958900452,0.21794508397579193,0.02752811461687088,-0.046910740435123444,0.25056576728820801,-0.17506420612335205,0.49508059024810791,0.49931445717811584,-0.082784444093704224,-0.10581877827644348,0.19929134845733643,0.21964262425899506,-0.075903072953224182,1.049785852432251,0.053023375570774078,0.047450397163629532,-0.091749973595142365,0.061039391905069351,-0.42482781410217285,-0.75935572385787964,-0.16634699702262878, 
};
const TfArray<4, int> tensor_dimension23 = { 4, { 1,3,3,96 } };
const MODEL_SECTION(EI_MODEL_SECTION) ALIGN(16) float tensor_data24[16] = { 0.2891315221786499, 0.8258858323097229, -3.5859942436218262, 6.5927495956420898, 10.256653785705566, 0.70166963338851929, -1.5179550647735596, -1.8669779300689697, 6.033320426940918, -1.0209192037582397, 11.330580711364746, 14.978397369384766, -4.6626229286193848, 5.955927848815918, 19.900279998779297, -9.7069501876831055, };
const TfArray<1, int> tensor_dimension24 = { 1, { 16 } };
const MODEL_SECTION(EI_MODEL_SECTION) ALIGN(16) float tensor_data25[1*3*3*96] = { 
  /* [0][0][][] */ -0.1655551940202713,-0.2938876748085022,-0.053111813962459564,1.1844905614852905,0.22217246890068054,0.50684225559234619,0.20915588736534119,-0.21302106976509094,-0.16575779020786285,-0.15961927175521851,-0.15197055041790009,-0.0061089708469808102,-0.33975347876548767,-0.0012138590682297945,0.5893896222114563,0.0024673172738403082,-0.074812859296798706,-0.34946006536483765,0.22723241150379181,0.085371419787406921,0.063367389142513275,-0.22957199811935425,0.74211478233337402,0.037711318582296371,-0.26949203014373779,0.045462500303983688,0.38020628690719604,-0.18668767809867859,-0.38911566138267517,-2.5433952808380127,0.57527875900268555,0.24387694895267487,0.059625167399644852,0.21940520405769348,0.59231102466583252,-0.35798346996307373,-0.51348209381103516,-0.11923596262931824,0.34539890289306641,-0.023051321506500244,-0.10919690132141113,0.28672230243682861,-1.5360264778137207,0.25137650966644287,0.37410324811935425,-0.26203364133834839,0.18587873876094818,0.57136058807373047,-0.42916068434715271,0.2048320472240448,-0.44430607557296753,0.12911102175712585,0.039855662733316422,-0.037142273038625717,0.155694380402565,0.27188080549240112,-0.48631829023361206,-0.97854834794998169,-0.10320531576871872,-0.13135388493537903,-0.13383540511131287,0.016207229346036911,0.054394088685512543,0.27287518978118896,0.36989420652389526,-0.12765775620937347,0.87524318695068359,0.18523706495761871,-0.064788639545440674,0.09409794956445694,0.20433245599269867,0.56415653228759766,0.27256110310554504,0.1447727382183075,0.34575128555297852,-0.011377817019820213,-0.059142738580703735,0.063748098909854889,0.28930157423019409,-0.092557094991207123,-0.14589837193489075,0.15766561031341553,-0.20667912065982819,0.23661915957927704,0.29812556505203247,0.10335785150527954,-0.24297471344470978,-0.36115145683288574,0.0012533193221315742,-0.17725363373756409,-0.23110981285572052,-0.048628855496644974,0.010964232496917248,-0.092591516673564911,-0.22263203561306,0.34291085600852966, 0.45560812950134277,-0.51661664247512817,0.31835487484931946,0.98768454790115356,-0.4541618824005127,0.87545013427734375,0.11674554646015167,-0.42441996932029724,0.71685433387756348,0.049396257847547531,-0.17162373661994934,0.5877685546875,1.442238450050354,-0.85736042261123657,-0.23178368806838989,0.10688303411006927,0.10027763247489929,1.0106657743453979,1.0828137397766113,-0.4373658299446106,0.40116527676582336,-0.13327638804912567,0.47582617402076721,0.31811422109603882,-0.45117869973182678,-0.53167307376861572,-0.52164876461029053,-0.22156202793121338,-0.15955619513988495,0.89188742637634277,-0.96764379739761353,-0.20485173165798187,-0.4236207902431488,0.39677765965461731,-1.2867743968963623,-1.6045197248458862,-0.71605730056762695,-0.15999777615070343,-0.59685260057449341,0.28287625312805176,0.0044697863049805164,1.2535531520843506,1.9264488220214844,0.29455563426017761,-0.8133779764175415,-0.43403780460357666,-0.53143769502639771,-0.67795270681381226,-0.35127130150794983,-0.47164279222488403,0.84142065048217773,0.5449531078338623,0.73143488168716431,-0.17010344564914703,0.43201228976249695,0.46560400724411011,-0.24838179349899292,0.77805566787719727,-0.12637574970722198,-0.79527616500854492,-0.54383730888366699,-0.52106952667236328,-0.31069537997245789,0.44920367002487183,0.39404192566871643,-0.29860803484916687,0.3206634521484375,0.44564762711524963,-0.67094379663467407,0.18837094306945801,-0.16307619214057922,0.40225914120674133,1.3476048707962036,0.77594476938247681,0.18802653253078461,0.2418556809425354,0.012729414738714695,0.21727210283279419,-0.08253711462020874,0.45968261361122131,0.70073270797729492,1.2938699722290039,0.90408402681350708,-0.2388380765914917,-0.017839035019278526,0.35857874155044556,-0.35494545102119446,2.6289322376251221,-1.32010817527771,-0.52415525913238525,0.08267771452665329,-0.15673653781414032,-0.55400103330612183,-0.57327878475189209,-0.57258796691894531,1.3310961723327637, -0.26850810647010803,-0.045397598296403885,0.1172228530049324,-0.78206115961074829,0.1517515629529953,-0.17829905450344086,0.17336894571781158,-0.026245603337883949,0.83499544858932495,-0.312721848487854,-0.27188804745674133,0.084595181047916412,-0.23743940889835358,-0.060107775032520294,-0.1579953134059906,-0.093223996460437775,-0.075820945203304291,-0.15259175002574921,0.054598450660705566,-0.010497419163584709,-0.067501291632652283,-0.18323169648647308,0.17673273384571075,-2.3877653347881278e-06,-0.43667453527450562,0.43285176157951355,0.053431928157806396,-0.35614785552024841,0.36599501967430115,0.95549356937408447,-0.26109710335731506,0.097806200385093689,-0.0058809262700378895,0.1387869119644165,0.14229542016983032,-0.57809644937515259,-0.16169388592243195,0.28985372185707092,0.22775930166244507,0.051152363419532776,0.22352924942970276,0.12579867243766785,-1.7778952121734619,0.23038895428180695,0.26088094711303711,-0.065375350415706635,0.19394697248935699,0.17739474773406982,-0.34035301208496094,0.049041129648685455,-0.29295840859413147,0.029930628836154938,-0.099130496382713318,-0.0042088394984602928,-0.027974113821983337,0.11318890005350113,-0.36224886775016785,0.098173812031745911,-0.056342329829931259,0.36333906650543213,0.025214536115527153,0.52016973495483398,0.15910203754901886,-0.0030593567062169313,-0.036775596439838409,-0.19105292856693268,-0.38645550608634949,0.33123081922531128,0.073169663548469543,-0.00036827527219429612,-0.028847498819231987,0.17054735124111176,0.13042424619197845,-0.16068720817565918,-0.059331599622964859,0.046876747161149979,-0.063315071165561676,-0.021312793716788292,-0.19302232563495636,-0.032723519951105118,-0.22903822362422943,-0.23909421265125275,-0.12470974028110504,0.018031783401966095,-0.25817659497261047,0.039938557893037796,-0.10864393413066864,-0.49316340684890747,-0.54386967420578003,0.14463002979755402,-0.38643535971641541,-0.042228955775499344,0.18017718195915222,-0.096143864095211029,-0.20614258944988251,0.031744375824928284, 
  /* [0][1][][] */ -0.23206141591072083,-0.30203860998153687,0.30844521522521973,-0.35144641995429993,-0.49922272562980652,0.63855105638504028,0.044310491532087326,0.46422344446182251,-0.54288816452026367,-0.18975864350795746,-0.008830738253891468,-0.54630923271179199,0.28982067108154297,-0.99612361192703247,1.2809520959854126,0.20480519533157349,-0.012825424782931805,-0.4868360161781311,-0.14032198488712311,0.34549674391746521,0.16670581698417664,-0.12645170092582703,0.27885380387306213,0.23513051867485046,-0.34685936570167542,-0.052145436406135559,1.0099509954452515,-0.14568975567817688,-0.075431250035762787,1.2485036849975586,1.8660869598388672,-1.035448431968689,-0.62590837478637695,0.68930608034133911,-0.87551748752593994,-1.0677851438522339,-0.61364996433258057,0.29170513153076172,-0.3309943675994873,0.41193151473999023,-0.42574137449264526,-0.23953874409198761,-0.060183387249708176,0.1472976952791214,-0.76842731237411499,0.48786887526512146,-0.10930704325437546,0.83265101909637451,0.37717190384864807,0.37204664945602417,0.38756817579269409,-0.011244108900427818,0.15298819541931152,-0.29771611094474792,0.26579481363296509,0.17526416480541229,0.66111057996749878,2.2960069179534912,-0.11874260753393173,-0.59263640642166138,1.5667550563812256,-0.40174305438995361,-0.1797136515378952,0.85574722290039062,0.38424137234687805,-0.18686319887638092,-0.19681929051876068,-0.022829404100775719,1.0665489435195923,0.23238344490528107,1.2446398735046387,0.42613586783409119,-0.47094416618347168,0.62130123376846313,-0.044763542711734772,0.10181725025177002,0.091125264763832092,0.049668692052364349,-0.07620915025472641,0.067127197980880737,-0.45579984784126282,1.2545812129974365,-0.55816900730133057,1.2086765766143799,0.002224466297775507,0.17536288499832153,-0.17265124619007111,0.6076202392578125,0.87493431568145752,-0.68924981355667114,-0.49554169178009033,-0.010298704728484154,0.78212374448776245,-0.29496917128562927,-0.33310666680335999,0.028593245893716812, 0.23820967972278595,0.5088120698928833,0.23689199984073639,-1.0644204616546631,1.3145606517791748,0.55662232637405396,0.23415829241275787,0.13805630803108215,-1.345829963684082,1.1720480918884277,1.2565211057662964,-0.18309116363525391,-0.76037931442260742,-1.1066058874130249,-2.0609884262084961,0.8723602294921875,1.1597154140472412,-0.51476156711578369,-1.0606213808059692,-0.20029108226299286,0.3210957944393158,0.16242985427379608,-0.70858150720596313,0.59716928005218506,-0.4122125506401062,-0.40839305520057678,-0.33110561966896057,0.83076626062393188,-0.38148069381713867,2.1599154472351074,-1.9911246299743652,-1.2754136323928833,-0.43319129943847656,0.93647915124893188,1.089505672454834,2.3647189140319824,2.0866298675537109,-1.1676265001296997,-1.2321144342422485,0.56578230857849121,-0.5666651725769043,-0.93272978067398071,1.6019423007965088,-0.43316921591758728,-2.0242931842803955,-0.14902085065841675,-0.62023365497589111,-1.6358188390731812,3.1891913414001465,-0.41441938281059265,1.6492257118225098,0.27255076169967651,1.3753945827484131,0.69704520702362061,1.221207857131958,-0.72126036882400513,0.52447706460952759,-2.4288771152496338,-0.20641136169433594,0.8855777382850647,0.24145591259002686,-1.004058837890625,-0.6395409107208252,-0.66466313600540161,-0.67490679025650024,0.62758344411849976,-1.5325760841369629,1.7817103862762451,-1.0191638469696045,-0.77413380146026611,-1.0439045429229736,-0.36595261096954346,-1.4941931962966919,-0.48749068379402161,1.5442495346069336,1.5053393840789795,-0.75506901741027832,0.46749722957611084,-0.18105131387710571,1.1821650266647339,1.382344126701355,0.32276046276092529,-0.29210963845252991,-1.3886845111846924,0.14432351291179657,0.57565218210220337,0.29129937291145325,0.95757651329040527,1.3687242269515991,0.059772342443466187,1.9359163045883179,-0.00052886706544086337,-0.42134460806846619,0.17551058530807495,1.9322810173034668,-1.5267484188079834, -0.19405946135520935,-0.05310622975230217,-0.22087159752845764,0.35324504971504211,-0.5862201452255249,-0.68188554048538208,0.089164853096008301,-0.09568757563829422,0.19093848764896393,-0.30173814296722412,-0.28747865557670593,0.4283643364906311,0.0013042493956163526,0.79547381401062012,0.22650623321533203,0.064002282917499542,-0.033901397138834,0.49905765056610107,-0.056052446365356445,0.49630877375602722,0.016780858859419823,-0.15801061689853668,-0.23037320375442505,0.030758138746023178,-0.29109373688697815,0.47963884472846985,-0.5491676926612854,-0.13156713545322418,-0.20370718836784363,-0.3520699143409729,0.23779486119747162,-0.61967891454696655,-0.35506132245063782,0.31722000241279602,0.05997617170214653,-0.34543672204017639,-0.49094006419181824,0.40659183263778687,-0.80070972442626953,0.19629929959774017,1.1536388397216797,-0.033131886273622513,-0.62144935131072998,0.10346658527851105,-0.64962738752365112,-0.24002379179000854,0.078531473875045776,0.61274462938308716,0.1959565132856369,0.46846306324005127,-0.19137795269489288,0.04174940288066864,-0.41853991150856018,-0.40271377563476562,0.056909520179033279,0.11055035144090652,0.48642712831497192,0.026341155171394348,-0.0014493323396891356,0.14300376176834106,-0.43844962120056152,1.5919934511184692,0.44831684231758118,-0.34483805298805237,-0.23108184337615967,0.060125064104795456,0.43641209602355957,-0.15891782939434052,-0.63309949636459351,0.75354284048080444,-0.17160511016845703,-0.37077918648719788,0.0006538307061418891,-0.33216840028762817,-0.18478973209857941,-0.28493750095367432,0.16486118733882904,0.055081430822610855,0.18486149609088898,-0.37383165955543518,-0.75612568855285645,-0.3941236138343811,0.40404129028320312,0.1544034332036972,-0.11351464688777924,-0.068460620939731598,0.22026586532592773,0.44415345788002014,0.17711129784584045,0.33046290278434753,-0.66497331857681274,0.023830942809581757,-0.26030510663986206,0.48043888807296753,-0.38767272233963013,-0.049171626567840576, 
  /* [0][2][][] */ -0.24690786004066467,-0.0016089354176074266,-0.022300699725747108,-0.19094197452068329,0.12905940413475037,-0.31919032335281372,0.16609369218349457,0.084722846746444702,0.60819709300994873,-0.24470154941082001,-0.36721542477607727,-0.021225431933999062,0.19213990867137909,0.15997041761875153,-0.41740977764129639,0.015051579102873802,-0.060524430125951767,0.52685540914535522,0.069965936243534088,-0.0035430409479886293,-0.15637315809726715,-0.15293259918689728,0.0071971663273870945,-0.039779521524906158,-0.071619659662246704,-0.24093548953533173,0.28407880663871765,-0.45756396651268005,0.27384117245674133,0.75295400619506836,0.40908339619636536,0.26184281706809998,0.075714699923992157,-0.093862064182758331,-0.10043014585971832,-0.88212889432907104,-0.099050655961036682,0.33893230557441711,-0.02953251451253891,0.013068631291389465,-0.13885612785816193,-0.050792794674634933,-0.95524168014526367,0.36396738886833191,0.041887640953063965,0.11730584502220154,0.054365001618862152,0.47690007090568542,-0.40373691916465759,-0.10509907454252243,0.23513069748878479,-0.12317036092281342,0.25371482968330383,-0.009968440979719162,0.096415720880031586,0.090683616697788239,-0.3865833580493927,0.47640004754066467,-0.024788497015833855,0.099890023469924927,0.19359041750431061,0.0039779888466000557,-0.098023116588592529,-0.03431551530957222,-0.0071925907395780087,-0.2332753986120224,-0.56554692983627319,0.19806328415870667,-0.24808946251869202,0.079348199069499969,0.231461301445961,0.13929200172424316,0.17208948731422424,-0.12450637668371201,0.35893350839614868,0.050387457013130188,0.10766738653182983,0.017518308013677597,-0.19210918247699738,-0.12212347984313965,-0.08348710834980011,-0.076802976429462433,0.12115581333637238,0.1649627685546875,-0.30775925517082214,0.056399401277303696,0.040231823921203613,-0.903298020362854,-0.62452858686447144,-0.27608039975166321,-0.40763950347900391,-0.058677475899457932,0.05225294828414917,0.27633213996887207,-0.25804150104522705,-0.078213490545749664, 0.43806362152099609,0.11990147083997726,-0.55141252279281616,-0.33801627159118652,-0.75393956899642944,-0.18917225301265717,0.10015951842069626,0.10849270224571228,-0.6740756630897522,-0.24474130570888519,-0.19130152463912964,-0.51302480697631836,-0.8811877965927124,0.9791904091835022,-0.20083619654178619,0.25490620732307434,0.025283610448241234,-0.40400499105453491,-0.06444232165813446,-0.50921177864074707,0.2991289496421814,-0.10432039201259613,-0.23313066363334656,0.0065350448712706566,-0.39648833870887756,0.6018531322479248,-0.37948405742645264,0.1211915984749794,-0.10700082033872604,-0.41466018557548523,-0.093090347945690155,-0.035337340086698532,-0.30731958150863647,0.096663907170295715,0.29655605554580688,0.04837421327829361,-0.3562673032283783,-0.24024923145771027,1.4848482608795166,0.23352839052677155,0.10757715255022049,-0.12741541862487793,1.0205903053283691,-0.10327094048261642,-0.61787045001983643,0.29861310124397278,-0.3335411548614502,-0.57246792316436768,-0.83386975526809692,-0.016236137598752975,-2.4090893268585205,-0.81471848487854004,-0.53081035614013672,-0.13508959114551544,0.025618536397814751,0.23516792058944702,-0.34504997730255127,-0.12548840045928955,0.020957212895154953,0.27216172218322754,-0.059669878333806992,-0.24015063047409058,0.048308033496141434,-0.32311832904815674,-0.29379451274871826,0.15539051592350006,0.77863657474517822,-0.31830447912216187,0.95848268270492554,0.66889601945877075,-0.24906948208808899,-0.29517480731010437,0.14653810858726501,-0.35118582844734192,0.065512619912624359,0.057094652205705643,0.59758156538009644,0.021947348490357399,0.11612732708454132,0.22091689705848694,0.14320744574069977,-0.95854377746582031,-0.33662000298500061,0.037294667214155197,0.01161984633654356,0.062887601554393768,0.39712625741958618,0.85535508394241333,-0.64728343486785889,0.2015761137008667,-0.26931464672088623,-0.13383388519287109,0.23946508765220642,0.38495990633964539,-0.11727426201105118,0.36574968695640564, -0.2024415135383606,0.044956542551517487,-0.084869645535945892,0.25580927729606628,0.15494513511657715,-0.48687607049942017,-0.33726504445075989,0.0071862363256514072,-0.1031542494893074,-0.059772830456495285,-0.1725284606218338,0.007124429102987051,0.14704470336437225,-0.23832973837852478,0.3123202919960022,-0.013384630903601646,-0.074942842125892639,-0.11775340139865875,0.046791449189186096,0.061502277851104736,-0.1410783976316452,-0.13074308633804321,0.077897056937217712,0.0032553113996982574,0.054733928292989731,-0.44878211617469788,0.15881417691707611,0.0086440248414874077,-0.14194075763225555,-0.78582584857940674,-0.092153370380401611,0.1648230254650116,0.2020990401506424,-0.15172356367111206,-0.049695555120706558,-0.49414831399917603,-0.58609616756439209,0.033140275627374649,0.48149999976158142,-0.15538302063941956,0.24187652766704559,-0.017152011394500732,-0.76604461669921875,-0.099905215203762054,0.025341849774122238,0.25721105933189392,0.10323817282915115,0.23154950141906738,-0.25095009803771973,0.0043800212442874908,0.207047238945961,-0.049950573593378067,0.19138950109481812,0.019789930433034897,-0.025728169828653336,-0.017430108040571213,-0.34625133872032166,-0.23646824061870575,0.0051750335842370987,-0.25587755441665649,-0.12758913636207581,0.10844297707080841,0.41759547591209412,-0.084823891520500183,0.17903897166252136,-0.016834715381264687,-0.014919224195182323,0.38169816136360168,-0.0056545832194387913,0.046327460557222366,-0.063845127820968628,0.098440945148468018,-0.1889784038066864,0.082093805074691772,0.017124220728874207,0.20085455477237701,0.22275532782077789,-0.00036749185528606176,0.17650170624256134,-0.11171852797269821,0.044890616089105606,-0.05247902125120163,-0.037410229444503784,-0.17788700759410858,0.17877393960952759,0.026542495936155319,0.1335970014333725,-0.81166326999664307,0.66570454835891724,0.20748056471347809,-0.24781735241413116,-0.062736555933952332,-0.045902106910943985,0.030266061425209045,-0.20031645894050598,-0.17305254936218262, 
};
const TfArray<4, int> tensor_dimension25 = { 4, { 1,3,3,96 } };
const MODEL_SECTION(EI_MODEL_SECTION) ALIGN(16) float tensor_data26[16] = { -4.1596708297729492, 7.8692288398742676, -5.0014839172363281, 0.34380510449409485, -0.9112098217010498, 3.4683473110198975, 8.7734689712524414, -15.119186401367188, -1.934989333152771, 2.0174598693847656, 16.935850143432617, 4.9063806533813477, -3.3367023468017578, 2.2274625301361084, -4.0901241302490234, 3.5852336883544922, };
const TfArray<1, int> tensor_dimension26 = { 1, { 16 } };
const MODEL_SECTION(EI_MODEL_SECTION) ALIGN(16) float tensor_data27[4] = { 4.2840018272399902, -5.7308588027954102, -5.5661377906799316, -4.9575338363647461, };
const TfArray<1, int> tensor_dimension27 = { 1, { 4 } };
const MODEL_SECTION(EI_MODEL_SECTION) ALIGN(16) float tensor_data28[16*3*3*3] = { 
  /* [0][0][][] */ 4.8747259224958709e-20,3.7147711957476137e-20,2.2560115283226402e-20, 1.8998144703015219e-20,9.99850122558854e-21,2.4239875557561167e-21, 1.4501873620925392e-20,1.3855346346097105e-20,8.9639567732261252e-21, 
  /* [0][1][][] */ 3.8636523968972215e-20,2.4191955223685994e-20,1.3960823183307553e-20, 2.0533141503907886e-20,1.3445754617976975e-20,2.9473941662847144e-21, 2.0706167654773519e-20,1.8024154072018234e-20,1.7330613211593671e-20, 
  /* [0][2][][] */ 3.1181633015346212e-20,1.1348582769897257e-21,-8.6793048605184484e-21, 1.1872147707964976e-20,-1.0257333632515912e-20,-2.2796315737788639e-20, 1.7555312301349726e-20,6.2228341078998947e-21,2.910896437342946e-21, 
  /* [1][0][][] */ 3.5051529407501221,0.22092141211032867,2.8137457370758057, -0.073283888399600983,-1.0776603221893311,1.8565219640731812, -8.3860330581665039,-7.5338773727416992,-3.5198135375976562, 
  /* [1][1][][] */ 0.35468202829360962,-0.11692763119935989,0.30862292647361755, -1.414534330368042,0.26568031311035156,-0.11924708634614944, -0.03131876140832901,-2.1339859962463379,0.50193816423416138, 
  /* [1][2][][] */ -0.06973053514957428,1.3295588493347168,0.19505998492240906, -0.20342212915420532,0.61629956960678101,0.092762477695941925, 2.6800005435943604,-1.1982263326644897,1.0225672721862793, 
  /* [2][0][][] */ 1.5787863731384277,0.16028568148612976,0.021918259561061859, 3.9880332946777344,6.6967201232910156,0.4659847617149353, 1.8572489023208618,-2.0984640121459961,0.40990856289863586, 
  /* [2][1][][] */ 0.40343943238258362,0.88308906555175781,0.069159083068370819, 3.5015044212341309,7.1537346839904785,-1.2189469337463379, 0.62950873374938965,-0.4690324068069458,-0.4447363018989563, 
  /* [2][2][][] */ 2.2377510070800781,-3.6965353488922119,0.99596738815307617, 3.6532235145568848,-2.4951436519622803,-1.0677886009216309, 1.2386718988418579,-3.3024272918701172,0.56777077913284302, 
  /* [3][0][][] */ 0.057521287351846695,0.43141144514083862,0.045739185065031052, 0.44385585188865662,1.1779142618179321,0.28806746006011963, -0.018424209207296371,0.015451348386704922,-0.1066046729683876, 
  /* [3][1][][] */ 0.2380443662405014,0.42911791801452637,0.058317847549915314, 0.79216623306274414,1.4749664068222046,0.31190752983093262, -0.20463097095489502,-0.28277677297592163,-0.0042523583397269249, 
  /* [3][2][][] */ 0.040278889238834381,0.040004909038543701,0.024508947506546974, 0.29720509052276611,0.29265761375427246,0.081432290375232697, -0.061764489859342575,-0.096389822661876678,-0.010744174011051655, 
  /* [4][0][][] */ 0.15224951505661011,0.23743784427642822,-0.023073840886354446, 0.088318243622779846,0.2870514988899231,-0.020896110683679581, -0.0049186111427843571,0.054909110069274902,-3.5934655898017809e-05, 
  /* [4][1][][] */ 0.15407006442546844,0.27041199803352356,0.13319030404090881, 0.12465811520814896,0.4003642201423645,0.082852140069007874, 0.11334571987390518,0.16532182693481445,-0.072912201285362244, 
  /* [4][2][][] */ 0.18310043215751648,0.23095731437206268,0.072152569890022278, 0.15191906690597534,0.3666863739490509,-0.0010460064513608813, -0.070846758782863617,0.060950908809900284,0.026865597814321518, 
  /* [5][0][][] */ 0.52896136045455933,0.065640956163406372,-8.5840015411376953, -0.25393074750900269,-0.031250990927219391,-7.260683536529541, -0.22547383606433868,1.9322638511657715,-1.7364003658294678, 
  /* [5][1][][] */ 0.45803982019424438,-3.2224709987640381,-8.4202146530151367, -0.011299574747681618,-3.364532470703125,-7.0179929733276367, 0.21371133625507355,0.8852037787437439,-0.88555252552032471, 
  /* [5][2][][] */ 0.39375534653663635,1.1861636638641357,-0.48824688792228699, 1.0978095531463623,0.75244885683059692,0.059749577194452286, 1.1601532697677612,1.7754675149917603,0.12483259290456772, 
  /* [6][0][][] */ 0.73039156198501587,-1.8146685361862183,0.98008066415786743, 1.3861004114151001,-2.5067353248596191,1.1706387996673584, 0.21297958493232727,-0.61840164661407471,0.23654419183731079, 
  /* [6][1][][] */ 1.0571480989456177,-2.7937419414520264,1.7336711883544922, 1.8839443922042847,-3.6504955291748047,2.1008808612823486, 0.18305794894695282,-0.82675915956497192,0.49099797010421753, 
  /* [6][2][][] */ 0.57039076089859009,-1.0487401485443115,0.34557080268859863, 0.40694648027420044,-1.2937589883804321,0.75808823108673096, -0.4450518786907196,0.14149969816207886,-0.049420222640037537, 
  /* [7][0][][] */ -1.866140604019165,1.4593216180801392,0.72493493556976318, -7.3908228874206543,-2.7198693752288818,0.23736231029033661, -1.4838217496871948,1.7807254791259766,0.35558390617370605, 
  /* [7][1][][] */ -1.2490483522415161,-0.88651275634765625,0.029897501692175865, -9.3467035293579102,-6.7842731475830078,-0.56890898942947388, -0.47346961498260498,-0.33343371748924255,0.3979930579662323, 
  /* [7][2][][] */ -1.7991774082183838,1.9815853834152222,-0.60990923643112183, -1.1563949584960938,0.55531030893325806,-0.094905808568000793, -1.7009201049804688,1.6362491846084595,-0.23065011203289032, 
  /* [8][0][][] */ -0.2338319718837738,-0.28740376234054565,-0.23080797493457794, -0.15777714550495148,-0.15294241905212402,-0.12642388045787811, -0.11235745251178741,-0.098863653838634491,-0.13287292420864105, 
  /* [8][1][][] */ -0.20364673435688019,-0.29137897491455078,-0.36491355299949646, -0.14011242985725403,-0.16646505892276764,-0.19850030541419983, -0.095429278910160065,-0.1036757230758667,-0.14431902766227722, 
  /* [8][2][][] */ 0.042068354785442352,0.048920281231403351,0.037773881107568741, 0.059368636459112167,0.079942703247070312,0.074359923601150513, -0.0075438511557877064,-0.01649659126996994,-0.012638533487915993, 
  /* [9][0][][] */ -0.40227964520454407,-0.10389113426208496,0.13611333072185516, -0.23961549997329712,-0.12061580270528793,0.032026004046201706, -0.027727002277970314,-0.024277353659272194,-0.16678865253925323, 
